tree
version=v4
num_class=1
num_tree_per_iteration=1
label_index=0
max_feature_idx=4
objective=regression
feature_names=Column_0 Column_1 Column_2 Column_3 Column_4
feature_infos=[0.00022703821825553749:0.9955689004906878] [3.0718845382415871e-05:0.99971767328613059] [1.1634755366141114e-05:0.99889261203329061] none none
tree_sizes=2014 2303 2302 2219 2218 2142 2400 2228 2398 2209 2301 2307 2399 2492 2321 2316 2229 2320 2050 2060 2141 2220 2222 2150 2234 2215 2307 2222 2225 2226 2301 2305 2220 2223 2312 2315 2241 2406 2496 2243 2402 2395 2321 2413 2232 2125 2130 2135 2218 2222 2316 2327 2417 2499 2244 2317 2239 2231 2241 2232 2318 2503 2505 2243 2419 2336 2335 2318 2343 2498 2238 2407 2239 2150 2246 2147 2237 2152 2319 2239 2323 2324 2245 2344 2514 2332 2333 2338 2240 2336 2319 2232 2321 2414 2153 2410 2323 2402 2413 2323

Tree=0
num_leaves=23
num_cat=0
split_feature=2 0 2 2 2 0 0 0 1 1 0 2 1 2 2 1 0 0 2 0 0 0
split_gain=0.943424 0.53699 0.243797 0.524691 0.389309 0.207494 0.484641 0.369266 0.290554 0.239251 0.212237 0.206198 0.224159 0.329983 0.252262 0.114253 0.104608 0.225868 0.184171 0.137492 0.0674752 0.131227
threshold=0.66653176328672759 0.27968034282623455 0.27917218628668156 0.20319954663151615 0.13576888237079629 0.50403072029416773 0.70780080551421676 0.24831627248397917 0.3124210169311874 0.34684466031240202 0.092808061437249692 0.60588589331395648 0.64072074911954691 0.45148941008121601 0.50462576998694186 0.2728195116025639 0.076887358847647816 0.11992201760184097 0.42982101342999746 0.17702523702330478 0.48687914744106753 0.76748089653657858
decision_type=2 2 2 2 2 2 2 2 2 2 2 2 2 2 2 2 2 2 2 2 2 2
left_child=1 16 3 4 20 7 -7 10 -8 -9 -2 12 14 -14 15 -4 -1 -18 19 -19 -3 -22
right_child=5 2 11 -5 -6 6 8 9 -10 -11 -12 -13 13 -15 -16 -17 17 18 -20 -21 21 -23
leaf_value=0.49050094178515591 0.4834058816344689 0.48486219326994612 0.48167683790091864 0.47715737676935177 0.48886615413290979 0.47420032277952745 0.48708872701157813 0.48116778570343738 0.47953405534233234 0.48792400439876427 0.4768432955726582 0.48230490903486495 0.49425525232334622 0.48517253342201 0.48906064318579379 0.4856887147334471 0.48299689131116674 0.49336519125034101 0.48538240843552871 0.48823043778564168 0.4793344276184992 0.48456308900436851
leaf_weight=36 22 20 36 31 35 28 20 20 35 38 28 36 20 20 31 35 23 22 29 32 30 20
leaf_count=36 22 20 36 31 35 28 20 20 35 38 28 36 20 20 31 35 23 22 29 32 30 20
internal_value=0.484057 0.485621 0.484467 0.482873 0.484561 0.481435 0.479555 0.48288 0.482281 0.485594 0.479731 0.485685 0.486542 0.489714 0.485298 0.483655 0.488172 0.487381 0.488596 0.490322 0.482408 0.481426
internal_weight=0 456 314 136 105 191 83 108 55 58 50 178 142 40 102 71 142 106 83 54 70 50
internal_count=647 456 314 136 105 191 83 108 55 58 50 178 142 40 102 71 142 106 83 54 70 50
is_linear=0
shrinkage=1


Tree=1
num_leaves=25
num_cat=0
split_feature=2 0 2 2 2 0 0 0 0 1 1 0 0 2 2 1 0 0 0 2 0 1 2 1
split_gain=0.85144 0.484633 0.220027 0.473534 0.351352 0.196907 0.187263 0.437389 0.333263 0.262225 0.215924 0.191544 0.140162 0.225709 0.150377 0.14762 0.105189 0.0944091 0.203846 0.166214 0.124087 0.0893549 0.0680582 0.0977318
threshold=0.66653176328672759 0.27968034282623455 0.27917218628668156 0.20319954663151615 0.13576888237079629 0.3742305829300881 0.50403072029416773 0.70780080551421676 0.24831627248397917 0.3124210169311874 0.34684466031240202 0.092808061437249692 0.58788049516301555 0.45148941008121601 0.51903804379121798 0.52038144048883939 0.78479071730290551 0.076887358847647816 0.11992201760184097 0.42982101342999746 0.17702523702330478 0.34887353073645361 0.050783489611303419 0.62802445772879445
decision_type=2 2 2 2 2 2 2 2 2 2 2 2 2 2 2 2 2 2 2 2 2 2 2 2
left_child=1 17 3 4 22 -4 8 -8 11 -9 -10 -2 21 15 -15 -14 -16 -1 -19 20 -20 -7 -3 -24
right_child=6 2 5 -5 -6 12 7 9 10 -11 -12 -13 13 14 16 -17 -18 18 19 -21 -22 -23 23 -25
leaf_value=0.0061214671161400882 -0.00061884030742062764 0.00034232437943241428 0.0060931346778358734 -0.0065549199619600847 0.004568418695458344 0.00090181172736698671 -0.0093641211677874849 0.0028798626968637112 -0.0027450313791632652 -0.0042970753231618029 0.0036733763341448809 -0.0068532971199601889 0.0017570771183818578 -0.0032610226263800127 0.004286782151426782 0.0077592788885037112 -0.00033329504242699063 -0.001007381013123845 0.0088425037705085491 0.0012588601139903969 0.0039644880180276232 -0.0036092820334369725 -0.00054040545364841819 -0.0053697277577157369
leaf_weight=36 22 28 21 31 35 21 28 20 20 35 38 28 20 22 22 21 28 23 22 29 32 23 22 20
leaf_count=36 22 28 21 31 35 21 28 20 20 35 38 28 20 22 22 21 28 23 22 29 32 23 22 20
internal_value=0 0.00148532 0.000389156 -0.00112505 0.00047806 0.00154607 -0.00249118 -0.00427706 -0.0011187 -0.00168728 0.00146013 -0.00411014 0.000937869 0.0018701 0.000183812 0.00483138 0.00169954 0.00390922 0.00315789 0.00431212 0.00595183 -0.00145626 -0.00156712 -0.00284008
internal_weight=0 456 314 136 105 178 191 83 108 55 58 50 157 113 72 41 50 142 106 83 54 44 70 42
internal_count=647 456 314 136 105 178 191 83 108 55 58 50 157 113 72 41 50 142 106 83 54 44 70 42
is_linear=0
shrinkage=0.05


Tree=2
num_leaves=25
num_cat=0
split_feature=2 0 2 2 2 2 2 2 1 0 0 0 0 1 1 0 1 2 0 0 0 2 1 0
split_gain=0.768425 0.437382 0.198574 0.427364 0.317095 0.189695 0.218342 0.482213 0.454102 0.258574 0.169005 0.394744 0.300769 0.236658 0.194871 0.172868 0.0955985 0.069109 0.293753 0.206041 0.0894382 0.0614226 0.0882029 0.0470903
threshold=0.66653176328672759 0.27968034282623455 0.27917218628668156 0.20319954663151615 0.13576888237079629 0.60588589331395648 0.50462576998694186 0.45148941008121601 0.64072074911954691 0.70484678679900437 0.50403072029416773 0.70780080551421676 0.24831627248397917 0.3124210169311874 0.34684466031240202 0.092808061437249692 0.8013218970583057 0.42982101342999746 0.10520680293960528 0.10520680293960528 0.18637067882197997 0.050783489611303419 0.62802445772879445 0.58788049516301555
decision_type=2 2 2 2 2 2 2 2 2 2 2 2 2 2 2 2 2 2 2 2 2 2 2 2
left_child=1 16 3 4 21 6 7 8 23 -8 12 -12 15 -13 -14 -2 17 19 -19 -1 -21 -3 -23 -4
right_child=10 2 5 -5 -6 -7 9 -9 -10 -11 11 13 14 -15 -16 -17 -18 18 -20 20 -22 22 -24 -25
leaf_value=-0.0001523067892412655 -0.00058789814145050268 0.00032520794609029383 -0.0012061893939971924 -0.0062271739206006451 0.0043399975152819291 -0.001772985325401856 0.0090496491037563177 -0.0048596594912501487 0.0094872881053015591 0.0013836908019253646 -0.0088959152643967952 0.0027358696982264521 -0.0026077801361680032 -0.0040822215185575524 0.0034897075328779851 -0.0065106320198018309 0.0060715586398587089 0.0056290345012464313 -0.0024524738560696437 0.0083274915770051028 0.0038142946257088937 -0.00051338517858477478 -0.005101241526426748 0.001860339933585736
leaf_weight=20 22 28 21 31 35 36 22 26 20 22 28 20 20 35 38 28 33 22 23 21 23 22 20 31
leaf_count=20 22 28 21 31 35 36 22 26 20 22 28 20 20 35 38 28 33 22 23 21 23 22 20 31
internal_value=0 0.00141105 0.000369698 -0.00106879 0.000454156 0.00146877 0.00229062 0.00097689 0.00308453 0.00521667 -0.00236662 -0.0040632 -0.00106276 -0.00160292 0.00138713 -0.00390463 0.00371376 0.00299992 0.00149849 0.00405562 0.00596832 -0.00148876 -0.00269808 0.000621934
internal_weight=0 456 314 136 105 178 142 98 72 44 191 83 108 55 58 50 142 109 45 64 44 70 42 52
internal_count=647 456 314 136 105 178 142 98 72 44 191 83 108 55 58 50 142 109 45 64 44 70 42 52
is_linear=0
shrinkage=0.05


Tree=3
num_leaves=24
num_cat=0
split_feature=2 0 1 2 2 2 1 2 1 2 1 1 0 1 2 1 0 2 1 1 0 2 1
split_gain=0.693504 0.394737 0.200539 0.299215 0.382525 0.379443 0.394166 0.336202 0.334651 0.223471 0.162053 0.430842 0.300581 0.263299 0.264815 0.528096 0.239047 0.113837 0.0997222 0.0862776 0.068917 0.248456 0.0964246
threshold=0.66653176328672759 0.27968034282623455 0.93518663752703701 0.27917218628668156 0.20319954663151615 0.09603489201505451 0.47801037768142773 0.59964799862498241 0.64072074911954691 0.50462576998694186 0.44092695987086306 0.58927497870358181 0.58008752125363305 0.33095075830495924 0.76652118287710602 0.14675486876592705 0.31645889102213864 0.050783489611303419 0.2728195116025639 0.8013218970583057 0.076887358847647816 0.51112909978761312 0.5714630301043887
decision_type=2 2 2 2 2 2 2 2 2 2 2 2 2 2 2 2 2 2 2 2 2 2 2
left_child=1 19 3 4 5 17 -7 8 9 18 13 -12 16 14 -2 -16 -13 -3 -5 20 -1 22 -22
right_child=10 2 -4 7 -6 6 -8 -9 -10 -11 11 12 -14 -15 15 -17 -18 -19 -20 -21 21 -23 -24
leaf_value=0.0049380992410768725 -0.0064550985126212868 -0.0010348029062151908 0.0044708938958744207 -0.0022557293026087186 -0.0069206399843096738 0.0077478330328383241 -0.001613565393642563 -0.0031487308357926931 0.0071349534012066828 0.0047388891921824935 -0.0099907942648444856 -0.0023929027455120255 -0.0057231576560297986 0.0040568401269741698 0.0052679527024536033 -0.0058412195183336737 0.0047126161679625512 -0.0058557639538776131 0.0014923590687768802 0.0057679805396632713 0.0021564376364195986 -0.0024313398869708182 0.0063239789694426174
leaf_weight=29 24 25 27 36 29 22 23 33 30 30 21 29 32 22 23 20 20 24 35 33 35 22 23
leaf_count=29 24 25 27 36 29 22 23 33 30 30 21 29 32 22 23 20 20 24 35 33 35 22 23
internal_value=0 0.0013405 0.000351213 -3.63525e-05 -0.00190054 -0.000351788 0.00296312 0.00136179 0.00249803 0.00112072 -0.00224829 -0.00360872 -0.00195411 -0.000689139 -0.00224752 0.000100896 0.000507309 -0.00339609 -0.00040808 0.00352807 0.00284993 0.00209297 0.00380908
internal_weight=0 456 314 287 123 94 45 164 131 101 191 102 81 89 67 43 49 49 71 142 109 80 58
internal_count=647 456 314 287 123 94 45 164 131 101 191 102 81 89 67 43 49 49 71 142 109 80 58
is_linear=0
shrinkage=0.05


Tree=4
num_leaves=24
num_cat=0
split_feature=2 0 1 2 2 2 1 2 1 2 1 1 0 1 0 0 1 1 1 0 0 2 0
split_gain=0.625887 0.35625 0.180986 0.270041 0.345229 0.342448 0.355735 0.303422 0.302022 0.201683 0.146253 0.388835 0.271275 0.237628 0.241858 0.216447 0.108062 0.0931327 0.0899993 0.0799193 0.184083 0.119359 0.103604
threshold=0.66653176328672759 0.27968034282623455 0.93518663752703701 0.27917218628668156 0.20319954663151615 0.09603489201505451 0.47801037768142773 0.59964799862498241 0.64072074911954691 0.50462576998694186 0.44092695987086306 0.58927497870358181 0.58008752125363305 0.33095075830495924 0.70780080551421676 0.29580479901391149 0.48322356676601835 0.11351555672010906 0.2728195116025639 0.076887358847647816 0.11992201760184097 0.42982101342999746 0.17702523702330478
decision_type=2 2 2 2 2 2 2 2 2 2 2 2 2 2 2 2 2 2 2 2 2 2 2
left_child=1 19 3 4 5 16 -7 8 9 18 13 -12 15 14 17 -13 -3 -2 -5 -1 -21 22 -22
right_child=10 2 -4 7 -6 6 -8 -9 -10 -11 11 12 -14 -15 -16 -17 -18 -19 -20 20 21 -23 -24
leaf_value=0.00538708120972539 -0.0018150710437277503 -0.0053458030025164286 0.0042473491007479387 -0.0021429428015835583 -0.0065746079969765808 0.0073604415022683421 -0.0015328869089859401 -0.0029912943274460059 0.0067782057037887485 0.0045019447888868551 -0.0094912547706848104 -0.0027740503335371616 -0.0054369999794289473 0.0038539980925634157 0.0023109900011193184 0.0038736040859172743 -0.00062505949542603718 -0.0063189115879746785 0.0014177411076213634 -0.0012978171232174171 0.0077880852432413543 0.0011698910773828113 0.0033308271020359827
leaf_weight=36 22 27 27 36 29 22 23 33 30 30 21 25 32 22 21 24 22 24 35 23 22 29 32
leaf_count=36 22 27 27 36 29 22 23 33 30 30 21 25 32 22 21 24 22 24 35 23 22 29 32
internal_value=0 0.00127347 0.000333653 -3.45349e-05 -0.00180551 -0.000334199 0.00281496 0.0012937 0.00237313 0.00106469 -0.00213587 -0.00342829 -0.0018564 -0.000654682 -0.00213514 0.000481944 -0.00322629 -0.0041649 -0.000387676 0.00335166 0.00266039 0.00375724 0.00514675
internal_weight=0 456 314 287 123 94 45 164 131 101 191 102 81 89 67 49 49 46 71 142 106 83 54
internal_count=647 456 314 287 123 94 45 164 131 101 191 102 81 89 67 49 49 46 71 142 106 83 54
is_linear=0
shrinkage=0.05


Tree=5
num_leaves=23
num_cat=0
split_feature=2 2 0 1 2 2 2 1 2 1 2 0 0 1 0 1 1 0 0 0 2 1
split_gain=0.299387 0.715714 0.359755 0.25247 0.193906 0.233119 0.183906 0.29719 0.218359 0.492689 0.183602 0.317708 0.469189 0.339695 0.222656 0.188954 0.154291 0.15196 0.146566 0.239347 0.0954883 0.0173159
threshold=0.44296863085428667 0.3784027269605082 0.054232472454715693 0.054532370873944865 0.92607806903413548 0.89137157220103858 0.063266321175733345 0.48322356676601835 0.19462317426281853 0.48434282765489711 0.83589178873914849 0.54246664432504843 0.29580479901391149 0.80617116252904075 0.81382837171304145 0.45191327023118449 0.67763275433013692 0.70484678679900437 0.26198486401786558 0.65644410541607989 0.66272999385296449 0.76905024633847452
decision_type=2 2 2 2 2 2 2 2 2 2 2 2 2 2 2 2 2 2 2 2 2 2
left_child=1 6 -2 -4 5 10 7 -1 9 -8 11 12 20 14 17 -14 18 -13 -10 -20 -5 -11
right_child=2 -3 3 4 -6 -7 8 -9 16 21 -12 13 15 -15 -16 -17 -18 -19 19 -21 -22 -23
leaf_value=-0.0062521594999866053 0.0057649352651258767 0.0082356382778065434 -0.0060129348395011302 0.0008280766396118063 -0.0045219818018031894 0.0051167397946119313 0.0079739013173179153 0.0021692590462043882 0.0020748080569319427 -0.0012196072505321353 -0.0041650266138215861 0.00036285181685040397 0.0022738079947885125 -0.0057130187070248903 0.0028967779497370907 0.008794128607958555 0.0031996453522394105 -0.0048596874385391578 -0.0053062022194353634 0.00085830794226738727 -0.003217838577926159 0.00083609169260376976
leaf_weight=22 22 37 22 35 27 20 34 20 28 20 30 30 20 37 38 25 30 26 32 31 25 21
leaf_count=22 22 37 22 35 27 20 34 20 28 20 30 30 20 37 38 25 30 26 32 31 25 21
internal_value=0 0.00176628 -0.000428767 -0.000835518 -0.00047161 -8.9232e-05 0.000760543 -0.00224196 0.00140394 0.00352371 -0.000480658 -1.23066e-05 0.00203682 -0.00165474 -5.73272e-05 0.00589621 9.00253e-05 -0.0020619 -0.000935124 -0.00227287 -0.000857721 -0.000166688
internal_weight=0 275 357 335 313 286 238 42 196 75 266 236 105 131 94 45 121 56 91 63 60 41
internal_count=632 275 357 335 313 286 238 42 196 75 266 236 105 131 94 45 121 56 91 63 60 41
is_linear=0
shrinkage=0.05


Tree=6
num_leaves=26
num_cat=0
split_feature=2 2 0 2 1 0 0 0 1 1 2 0 1 2 1 2 1 0 0 2 1 2 2 2 1
split_gain=0.270197 0.645932 0.324679 0.228832 0.273302 0.207584 0.400215 0.373163 0.326577 0.429515 0.211399 0.272758 0.503129 0.165976 0.268214 0.197069 0.444652 0.139397 0.293598 0.125933 0.113189 0.0969439 0.0852599 0.0355189 0.0156276
threshold=0.44296863085428667 0.3784027269605082 0.054232472454715693 0.94945623876872631 0.054532370873944865 0.58008752125363305 0.25764505442246782 0.6690298009605522 0.45191327023118449 0.85536333486311056 0.77011336914269601 0.7598130611538253 0.61481167662478153 0.063266321175733345 0.48322356676601835 0.19462317426281853 0.48434282765489711 0.65644410541607989 0.38348870564723853 0.27640017126387534 0.71363871584492589 0.30216061270095435 0.66653176328672759 0.85276791439778055 0.76905024633847452
decision_type=2 2 2 2 2 2 2 2 2 2 2 2 2 2 2 2 2 2 2 2 2 2 2 2 2
left_child=1 13 -2 4 -4 6 20 -7 -8 -10 11 -9 -13 14 -1 16 -15 18 19 -17 22 -19 -6 -12 -18
right_child=2 -3 3 -5 5 7 8 10 9 -11 23 12 -14 15 -16 17 24 21 -20 -21 -22 -23 -24 -25 -26
leaf_value=-0.005939551552926952 0.0054766883097313859 0.0078238564241375468 -0.0061114751244167563 -0.0058468770959214976 -0.00075337969698011879 -0.0063840474219371878 -0.00012761530556922986 0.0027076049819394639 0.01003218626539255 0.00050766229629516612 0.0043030640878714624 0.0011134050195463576 -0.0088209170494228609 0.0075752065527280241 0.0020607960433699189 -0.00091533363530678412 -0.0011586268950486557 0.0048288257171710336 -0.0049376001942061619 0.0042067796967568847 0.0013720716303214431 -3.5217739641666414e-05 -0.0051736421650275593 0.0013231756165623665 0.00079428709272871779
leaf_weight=22 22 37 20 21 20 30 36 24 29 20 20 26 25 34 20 28 20 21 31 21 20 20 24 20 21
leaf_count=22 22 37 20 21 20 30 36 24 29 20 20 26 25 34 20 28 20 21 31 21 20 20 24 20 21
internal_value=0 0.00167797 -0.000407329 -0.000793742 -0.000455793 -7.1053e-05 0.00123959 -0.00141785 0.00348815 0.00614463 -0.000122322 -0.00168789 -0.00375636 0.000722516 -0.00212986 0.00133374 0.00334753 8.55241e-05 -0.00112941 0.00127986 -0.00174677 0.00245612 -0.00316443 0.00281312 -0.000158354
internal_weight=0 275 357 335 314 294 149 145 85 49 115 75 51 238 42 196 75 121 80 49 64 41 44 40 41
internal_count=632 275 357 335 314 294 149 145 85 49 115 75 51 238 42 196 75 121 80 49 64 41 44 40 41
is_linear=0
shrinkage=0.05


Tree=7
num_leaves=24
num_cat=0
split_feature=2 2 0 2 1 1 2 2 2 0 2 0 0 2 1 0 0 1 0 0 1 2 2
split_gain=0.243852 0.582953 0.293023 0.206521 0.246655 0.198485 0.187308 0.152106 0.483232 0.271573 0.150428 0.196064 0.298013 0.210504 0.21123 0.226743 0.156179 0.137728 0.126326 0.194262 0.116665 0.112459 0.0938363
threshold=0.44296863085428667 0.3784027269605082 0.054232472454715693 0.94945623876872631 0.054532370873944865 0.96105535537636955 0.89137157220103858 0.13576888237079629 0.19462317426281853 0.41905416270333468 0.83589178873914849 0.54246664432504843 0.29580479901391149 0.76452781660418079 0.61481167662478153 0.7598130611538253 0.39520730645173147 0.67763275433013692 0.26198486401786558 0.65644410541607989 0.33619816792014229 0.050783489611303419 0.66272999385296449
decision_type=2 2 2 2 2 2 2 2 2 2 2 2 2 2 2 2 2 2 2 2 2 2 2
left_child=1 7 -2 4 -4 6 10 9 -9 -1 11 12 22 14 20 -16 -14 18 -10 -20 -13 -11 -6
right_child=2 -3 3 -5 5 -7 -8 8 17 21 -12 13 16 -15 15 -17 -18 -19 19 -21 -22 -23 -24
leaf_value=0.0020837559780055607 0.0052028539908033885 0.0074326635826051845 -0.0058059013879392298 -0.0055545330136304817 0.0013199075315655634 -0.004751658177978936 0.0042460534997560365 0.0066798751974905222 0.0019070748406063234 -0.00095923719694837931 -0.0035232640224797974 -0.0020345578426989078 0.0083836816996335981 0.0032603040408424062 -0.0010808449797332286 -0.0086098406091332427 0.0022099389295492855 0.003019229027753075 -0.0048620154446325616 0.00069162975395879441 0.0025470261442630242 -0.0060358312201666802 -0.0028404292610028515
leaf_weight=37 22 37 20 21 33 21 27 36 28 20 29 33 20 23 20 20 21 30 32 31 24 24 23
leaf_count=37 22 37 20 21 33 21 27 36 28 20 29 33 20 23 20 20 21 30 32 31 24 24 23
internal_value=0 0.00159407 -0.000386962 -0.000754055 -0.000433004 -6.75004e-05 0.000292819 0.00068639 0.00159431 -0.0010734 -0.000141072 0.000310926 0.00198257 -0.00104032 -0.00206006 -0.00484534 0.00522152 8.12479e-05 -0.000887317 -0.00212927 -0.00010547 -0.00372829 -0.000388802
internal_weight=0 275 357 335 314 294 273 238 157 81 246 217 97 120 97 40 41 121 91 63 57 44 56
internal_count=632 275 357 335 314 294 273 238 157 81 246 217 97 120 97 40 41 121 91 63 57 44 56
is_linear=0
shrinkage=0.05


Tree=8
num_leaves=26
num_cat=0
split_feature=2 2 0 2 1 1 2 2 1 2 2 0 2 2 2 0 2 1 0 1 2 0 0 2 1
split_gain=0.220077 0.526115 0.264453 0.186385 0.222606 0.179132 0.169045 0.14738 0.241696 0.167525 0.40547 0.554458 0.135762 0.182817 0.242155 0.321739 0.325574 0.233969 0.217886 0.152602 0.128405 0.153674 0.258946 0.136848 0.0954403
threshold=0.44296863085428667 0.3784027269605082 0.054232472454715693 0.94945623876872631 0.054532370873944865 0.96105535537636955 0.89137157220103858 0.063266321175733345 0.48322356676601835 0.19462317426281853 0.16008592362660176 0.41905416270333468 0.83589178873914849 0.74850054389596998 0.59964799862498241 0.70484678679900437 0.54603735447699975 0.33619816792014229 0.58008752125363305 0.44696162466445333 0.27917218628668156 0.20551010045117749 0.60625548708506349 0.31411702879567704 0.38530481666942384
decision_type=2 2 2 2 2 2 2 2 2 2 2 2 2 2 2 2 2 2 2 2 2 2 2 2 2
left_child=1 7 -2 4 -4 6 12 8 -1 10 11 -9 13 14 15 16 -6 -16 -19 -15 21 -11 -23 -22 -25
right_child=2 -3 3 -5 5 -7 -8 9 -10 20 -12 -13 -14 19 17 -17 -18 18 -20 -21 23 22 -24 24 -26
leaf_value=-0.0056522332893853841 0.0049427111712496054 0.0070610303241247082 -0.0055156064010225235 -0.0052768065172824124 -1.1803874553277575e-05 -0.004514075190361057 0.0040337508958246974 0.0066688245882026171 0.001942334829363972 0.0020134320482611658 0.00861259755961921 -0.0037816047959495338 -0.0033471007670821812 0.0054922940519948806 -0.0063010643779610595 -0.0026141786058856684 0.0076935191038781069 0.0033612184395592306 -0.0032792606825629875 1.2713404430542141e-05 0.0049610531755856111 -0.0073773744283244019 0.00066853248048573735 0.0024189766659401361 -0.0024657004745677114
leaf_weight=22 22 37 20 21 29 21 27 22 20 20 23 30 29 27 27 33 26 21 30 24 21 20 20 20 20
leaf_count=22 22 37 20 21 29 21 27 22 20 20 23 30 29 27 27 33 26 21 30 24 21 20 20 20 20
internal_value=0 0.00151437 -0.000367614 -0.000716352 -0.000411353 -6.41253e-05 0.000278179 0.00065207 -0.00203577 0.00122804 0.00308474 0.000639731 -0.000134018 0.00029538 -0.000509034 0.00128888 0.00363071 -0.00253745 -0.000544946 0.00291367 7.71855e-05 -0.00156514 -0.00335442 0.00169258 -2.33619e-05
internal_weight=0 275 357 335 314 294 273 238 42 196 75 52 246 217 166 88 55 78 51 51 121 60 40 61 40
internal_count=632 275 357 335 314 294 273 238 42 196 75 52 246 217 166 88 55 78 51 51 121 60 40 61 40
is_linear=0
shrinkage=0.05


Tree=9
num_leaves=24
num_cat=0
split_feature=2 0 2 0 0 1 0 2 2 0 2 1 1 2 2 0 2 1 1 1 2 0 1
split_gain=0.202335 0.392644 0.311143 0.18208 0.301214 0.287919 0.686447 0.178258 0.183494 0.131302 0.12634 0.236556 0.208234 0.187157 0.332783 0.184788 0.355192 0.117329 0.100351 0.186256 0.09664 0.0396621 0.0289651
threshold=0.65985167918452936 0.38348870564723853 0.33112251597785003 0.29371044180889389 0.20064304405882025 0.83596120910603211 0.43205885427524199 0.42982101342999746 0.54603735447699975 0.75255726093071462 0.44296863085428667 0.60397509139984751 0.2120450520334741 0.13576888237079629 0.19462317426281853 0.80691029519584967 0.33536465426449236 0.39658242690836482 0.40248764244414398 0.74679954618353306 0.050783489611303419 0.62331450956382028 0.49962755537575132
decision_type=2 2 2 2 2 2 2 2 2 2 2 2 2 2 2 2 2 2 2 2 2 2 2
left_child=1 2 18 4 22 6 -5 -4 -9 21 13 12 -12 20 -15 16 -16 -11 -1 -20 -3 -8 -2
right_child=3 10 7 5 -6 -7 9 8 -10 17 11 -13 -14 14 15 -17 -18 -19 19 -21 -22 -23 -24
leaf_value=-0.0017424223478883505 0.00098698037443682544 0.00051837295971133494 0.008367795589448954 0.0092993728901174938 -0.0073547366857528692 -0.0038507349052986899 -0.00098740260582417258 0.00019736829400062561 0.0057733935302369194 0.0038744451393457977 -0.0030585630242712797 -0.0048165911860350106 0.0030317362823552687 0.0066093011427222313 -0.0049405710014980286 0.0032055735807208457 0.0030135799944400791 -0.0014169509476050736 0.0045111042230079569 -0.0016284882911436615 -0.0039459261560329693 -0.004063896858133376 -0.0017039796523749828
leaf_weight=28 20 22 27 22 25 34 20 25 36 22 25 36 32 27 32 34 25 20 30 21 27 22 20
leaf_count=28 20 22 27 22 25 34 20 25 36 22 25 36 32 27 32 34 25 20 30 21 27 22 20
internal_value=0 0.0010486 0.00294044 -0.00086245 -0.00304936 0.000152901 0.00143709 0.00498531 0.00348814 -0.000622083 -0.000166537 -0.0016435 0.000360552 0.000655964 0.00173459 0.00028825 -0.00145191 0.00135473 0.000662621 0.00198304 -0.00194155 -0.0025989 -0.0003585
internal_weight=0 427 167 205 65 140 106 88 61 84 260 93 57 167 118 91 57 42 79 51 49 42 40
internal_count=632 427 167 205 65 140 106 88 61 84 260 93 57 167 118 91 57 42 79 51 49 42 40
is_linear=0
shrinkage=0.05


Tree=10
num_leaves=25
num_cat=0
split_feature=2 2 1 1 1 2 0 0 1 0 2 2 2 0 2 0 2 2 0 2 2 1 2 1
split_gain=0.134902 0.371784 0.183834 0.319988 0.26159 0.336016 0.41066 0.345773 0.34101 0.244379 0.24198 0.207111 0.314385 0.282909 0.182569 0.1751 0.165088 0.156904 0.352229 0.122425 0.11056 0.233691 0.0957618 0.0728539
threshold=0.19462317426281853 0.22539136444571931 0.22048692424246233 0.15922642389127098 0.43309610482525607 0.90619891764340166 0.86643594994191753 0.58008752125363305 0.76165500833573618 0.44566591066491629 0.71207553310569305 0.82223030997500735 0.6126846519406649 0.68944509643537832 0.66420674679763703 0.13400371884199649 0.13576888237079629 0.66653176328672759 0.73933276722498664 0.67115275374931693 0.080639980784645085 0.48434282765489711 0.59364308074769079 0.89208732147519354
decision_type=2 2 2 2 2 2 2 2 2 2 2 2 2 2 2 2 2 2 2 2 2 2 2 2
left_child=16 -2 3 11 9 6 7 8 15 19 23 12 13 -3 -11 -6 20 18 -9 -4 21 -1 -17 -10
right_child=1 2 4 -5 5 -7 -8 17 10 14 -12 -13 -14 -15 -16 22 -18 -19 -20 -21 -22 -23 -24 -25
leaf_value=-0.0026499197986634936 -0.0066587368375621743 0.0034379798926017953 0.0076403010393614364 -0.0068715418944171134 -0.0058542852705743701 0.0050117076598107822 0.0038052641862147563 0.0010623406502418221 0.0065202402975410223 -0.0024643214652314786 -0.0023414817638695239 0.0039021238003624603 -0.0057663496343358872 -0.0039857771652307182 0.0036141973831469104 0.0010559552349150181 0.0039992876497930603 -0.008081653914026295 -0.007804589191939504 0.0026324282507770337 -0.0026080901251622924 0.0038380215835890604 -0.0030792980579592822 0.002434203961941724
leaf_weight=23 24 33 23 26 28 25 37 24 20 30 20 20 31 21 21 28 38 24 21 26 27 35 28 24
leaf_count=23 24 33 23 26 28 25 37 24 20 30 20 20 31 21 21 28 38 24 21 26 27 35 28 24
internal_value=0 -0.000577048 -0.000290851 -0.00190551 0.000267252 -0.000519175 -0.00106355 -0.00189372 -0.000530929 0.00246139 0.00221869 -0.000675832 -0.001753 0.000550963 3.85981e-05 -0.00262588 0.00125965 -0.00481681 -0.00307556 0.00498306 3.48725e-05 0.00126522 -0.00101167 0.00429149
internal_weight=0 534 510 131 379 279 254 217 148 100 64 105 85 54 51 84 123 69 45 49 85 58 56 44
internal_count=657 534 510 131 379 279 254 217 148 100 64 105 85 54 51 84 123 69 45 49 85 58 56 44
is_linear=0
shrinkage=0.05


Tree=11
num_leaves=25
num_cat=0
split_feature=0 1 0 2 0 0 0 0 1 2 0 0 2 2 1 1 2 1 2 2 0 1 2 1
split_gain=0.128062 0.185791 0.180129 0.279708 0.240396 0.324015 0.290269 0.33563 0.252114 0.244537 0.194138 0.188356 0.35569 0.241047 0.158304 0.362019 0.151561 0.1952 0.185551 0.271618 0.234049 0.136062 0.127755 0.0997638
threshold=0.054232472454715693 0.21713534055954767 0.11992201760184097 0.49580383968463709 0.45521054766918706 0.4092305634067695 0.86643594994191753 0.73933276722498664 0.61140600447710669 0.16264762871431557 0.90309174407835768 0.17702523702330478 0.27917218628668156 0.59364308074769079 0.61481167662478153 0.41053277802295635 0.1711004386261826 0.15922642389127098 0.76652118287710602 0.6126846519406649 0.68532072280572121 0.76503727258528931 0.74850054389596998 0.5317929471511933
decision_type=2 2 2 2 2 2 2 2 2 2 2 2 2 2 2 2 2 2 2 2 2 2 2 2
left_child=-1 16 3 -3 5 11 7 9 -9 -6 -8 -4 -13 -14 15 -11 -2 18 19 20 -18 -16 -15 -12
right_child=1 2 4 -5 6 -7 10 8 -10 14 23 12 13 22 21 -17 17 -19 -20 -21 -22 -23 -24 -25
leaf_value=0.0027212547996480554 0.0018324838090768977 0.0012795826430771163 0.0043242641779429767 -0.0064506038352847104 0.0047733005305582825 0.0077328718356078577 0.0057719528712332248 -0.00097197333575579621 -0.0072363092163060284 0.0017094060616648717 0.0029086836660280825 -0.0047932251855464921 0.0053942117454676801 -0.0033061286345833826 0.0040321712736927327 -0.0066905043248472549 0.0017922602441103664 -0.0063537073282835385 0.0020733864458564381 -0.0076574161471355531 -0.0048202479389779602 -0.0012153388171767196 0.0017786731338128451 -0.0018291282802820206
leaf_weight=35 23 22 34 25 22 21 25 29 36 23 20 28 29 21 21 29 32 27 26 21 23 30 30 25
leaf_count=35 23 22 34 25 22 21 25 29 36 23 20 28 29 21 21 29 32 27 26 21 23 30 30 25
internal_value=0 -0.000387122 0.000104306 -0.00283222 0.000430587 0.001936 -0.000513194 -0.00152723 -0.00444145 -1.18419e-05 0.0022392 0.00107872 5.69753e-05 0.00175455 -0.00103391 -0.00297516 -0.00190667 -0.00257334 -0.00157266 -0.00281999 -0.00097297 0.000945401 -0.000315069 0.000276566
internal_weight=0 622 470 47 423 163 260 190 65 125 70 142 108 80 103 52 152 129 102 76 55 51 51 45
internal_count=657 622 470 47 423 163 260 190 65 125 70 142 108 80 103 52 152 129 102 76 55 51 51 45
is_linear=0
shrinkage=0.05


Tree=12
num_leaves=26
num_cat=0
split_feature=0 1 1 2 2 0 1 2 0 2 2 0 2 1 2 2 1 2 2 0 0 1 2 0 1
split_gain=0.115576 0.167677 0.163114 0.322741 0.320484 0.31038 0.385498 0.247759 0.583634 0.582834 0.241867 0.239475 0.222447 0.160352 0.144068 0.136784 0.176168 0.16746 0.245136 0.21123 0.12675 0.0927438 0.0410868 0.171564 0.0317828
threshold=0.054232472454715693 0.21713534055954767 0.45458095146667776 0.10564951125578144 0.90619891764340166 0.86456955046067507 0.87309116871323622 0.57694274852202054 0.72621364086478624 0.26484072762518074 0.55537519074254116 0.23512691713639908 0.67777388322137422 0.67763275433013692 0.82814528071298821 0.1711004386261826 0.15922642389127098 0.76652118287710602 0.6126846519406649 0.68532072280572121 0.93085301055527137 0.60978587552969132 0.20662234613728972 0.63077738627407343 0.78628281484791818
decision_type=2 2 2 2 2 2 2 2 2 2 2 2 2 2 2 2 2 2 2 2 2 2 2 2 2
left_child=-1 15 11 24 5 6 7 8 9 -5 -8 -3 22 -11 21 -2 17 18 19 -17 -7 -9 -13 -24 -4
right_child=1 2 3 4 -6 20 10 14 -10 13 -12 12 -14 -15 -16 16 -18 -19 -20 -21 -22 -23 23 -25 -26
leaf_value=0.0025851919714893618 0.0017408596493465748 0.0059955171681940556 0.0022962309460601081 -0.0056551538718243449 0.0045945048858614069 0.0051700257452293522 -0.0016750103664687939 -0.0051389936171472072 -0.0094474200791280199 0.00021096330508589748 0.0045210799667984251 0.00075311259189177128 0.003695930467566123 0.0057681732034931578 -0.0025767230583975714 0.0017026470857672395 -0.0060360220075515968 0.0019697172495608149 -0.0072745454808076223 -0.0045792355262876854 -0.00039171209558844564 -0.009794509967627086 0.0010085260383784773 -0.0049098817379369091 0.0050215742360160227
leaf_weight=35 23 25 23 30 23 21 36 20 21 25 28 21 37 27 21 32 27 26 21 23 20 23 25 24 20
leaf_count=35 23 25 23 30 23 21 36 20 21 25 28 21 37 27 21 32 27 26 21 23 20 23 25 24 20
internal_value=0 -0.000367766 9.90911e-05 -0.000483006 -0.00107288 -0.00155211 -0.00226368 -0.00352815 -0.00201006 -0.000105364 0.00103578 0.00158961 0.000560194 0.00309644 -0.00597132 -0.00181134 -0.00244468 -0.00149402 -0.00267899 -0.000924322 0.00245698 -0.00762915 -0.00109727 -0.00189029 0.00356383
internal_weight=0 622 470 338 295 272 231 167 103 82 64 132 107 52 64 152 129 102 76 55 41 43 70 49 43
internal_count=657 622 470 338 295 272 231 167 103 82 64 132 107 52 64 152 129 102 76 55 41 43 70 49 43
is_linear=0
shrinkage=0.05


Tree=13
num_leaves=27
num_cat=0
split_feature=1 1 1 0 0 0 0 1 0 0 0 0 1 0 1 0 0 0 1 1 2 0 2 0 0 1
split_gain=0.108915 0.0900719 0.30596 0.292617 0.254084 0.345869 0.292656 0.140681 0.252796 0.246834 0.198282 0.214863 0.353773 0.188706 0.226062 0.154145 0.137054 0.232269 0.134946 0.241433 0.093097 0.0897918 0.0698036 0.0589366 0.0551635 0.0370404
threshold=0.058804156257985581 0.60397509139984751 0.67763275433013692 0.076887358847647816 0.75255726093071462 0.86456955046067507 0.11992201760184097 0.27023233105499006 0.80283219171125608 0.45521054766918706 0.88937671084327186 0.68944509643537832 0.079756155626315897 0.36472218763763481 0.43309610482525607 0.34420177105110522 0.20838448957559555 0.33280733236798155 0.5317929471511933 0.39658242690836482 0.65180050998993866 0.47312172221292709 0.34110222797619089 0.90309174407835768 0.53125491554941262 0.02575077590944758
decision_type=2 2 2 2 2 2 2 2 2 2 2 2 2 2 2 2 2 2 2 2 2 2 2 2 2 2
left_child=25 3 21 -2 6 -6 -4 10 9 13 11 12 -5 14 -9 -14 -8 -18 19 -11 22 -3 -19 -10 -17 -1
right_child=1 2 4 7 5 -7 16 8 23 18 -12 -13 15 -15 -16 24 17 20 -20 -21 -22 -23 -24 -25 -26 -27
leaf_value=-0.0011785287365672133 0.0052991416377561364 -0.0069863663365443548 -0.003170882374979556 0.0042885804641991853 -0.0071267497913840294 0.00095294566600824949 0.0056337738568386572 0.0036432553026504045 0.0062577447015792131 -0.00030785887299672422 -0.0055249814896590338 0.0036500776616426619 -0.006396808654069901 0.0059748364239931113 -0.0023659303548115799 0.00037434356996700877 -0.0031578536732527226 0.0020056141251376994 0.0010463886871002615 -0.0076344009827483787 0.00029368854518378935 -0.0023051826003938915 0.0055384375211023906 0.0025826513068750502 -0.0032947887154296043 -0.0041482333614978762
leaf_weight=21 29 21 34 20 26 27 22 29 20 23 22 26 25 20 34 21 23 29 20 22 31 20 27 24 20 21
leaf_count=21 29 21 34 20 26 27 22 29 20 23 22 26 25 20 34 21 23 29 20 22 31 20 27 24 20 21
internal_value=0 -3.16965e-05 -0.000738754 0.000486148 3.38537e-06 -0.00301068 0.000965707 5.79984e-05 0.00092572 -6.35156e-05 -0.0011853 -0.000332867 -0.00153701 0.00174349 0.000400203 -0.00330235 0.00203119 0.00131068 -0.00237092 -0.00388972 0.00249201 -0.00470286 0.00370894 0.00425315 -0.00141548 -0.00266338
internal_weight=0 615 260 355 219 53 166 326 192 148 134 112 86 83 63 66 132 110 65 45 87 41 56 44 41 42
internal_count=657 615 260 355 219 53 166 326 192 148 134 112 86 83 63 66 132 110 65 45 87 41 56 44 41 42
is_linear=0
shrinkage=0.05


Tree=14
num_leaves=25
num_cat=0
split_feature=2 2 2 1 2 1 0 2 2 1 1 2 1 2 1 0 1 2 2 0 1 1 2 0
split_gain=0.110037 0.314411 0.166141 0.129832 0.0913449 0.209201 0.0880516 0.378754 0.219136 0.184789 0.286403 0.271205 0.283389 0.267514 0.370721 0.173815 0.15972 0.151763 0.127182 0.113283 0.110952 0.0859097 0.0329755 0.0104804
threshold=0.19462317426281853 0.22539136444571931 0.13576888237079629 0.050438916257417817 0.080639980784645085 0.48434282765489711 0.61542866237569316 0.32704837796348257 0.56845035691724022 0.079756155626315897 0.22048692424246233 0.90619891764340166 0.41053277802295635 0.75788171793127324 0.8013218970583057 0.75255726093071462 0.59615999712150181 0.38616646940693544 0.67115275374931693 0.92137331777746512 0.1414481073678783 0.58460992032208703 0.78555131468626282 0.26889550973264797
decision_type=2 2 2 2 2 2 2 2 2 2 2 2 2 2 2 2 2 2 2 2 2 2 2 2
left_child=2 -2 4 -3 5 -1 9 -8 16 -5 20 12 18 14 17 -10 -9 -14 -12 22 -11 -19 -17 -16
right_child=1 3 -4 6 -6 -7 7 8 15 10 11 -13 13 -15 23 19 -18 21 -20 -21 -22 -23 -24 -25
leaf_value=-0.002656332385706027 -0.0060932741966098552 -0.0035472406989096534 0.0039066909983950229 0.0049065403502688495 -0.0024726931352806454 0.0034822425499026264 0.0051326220743763062 -0.001911614624421216 -0.0030207446494482852 -0.0011190917131237009 0.0059495274701880088 0.0064098435943014927 -0.0052448772791562773 -0.0046362782116321959 0.0034405256282876839 0.0040397008982203577 -0.007054513432712366 0.0020967083294754444 0.00076137537668858257 -0.0015394089122613272 -0.0062001092032352018 -0.0017562178536676444 0.0012636928260326386 0.0050219801208004362
leaf_weight=23 24 28 38 22 27 35 23 36 38 22 27 20 21 34 22 23 26 23 21 24 21 39 20 20
leaf_count=23 24 28 38 22 27 35 23 36 38 22 27 20 21 34 22 23 26 23 21 24 21 39 20 20
internal_value=0 -0.000500491 0.00115833 -0.000237301 -7.03514e-05 0.00104798 -4.50221e-05 -0.000882802 -0.00171127 0.000500108 0.000141066 0.000849824 0.000312624 -0.000703855 0.000365764 -0.000319497 -0.00406831 -0.00157121 0.00367971 0.00121255 -0.00360052 -0.000326907 0.00274853 0.0041936
internal_weight=0 534 123 510 85 58 482 190 167 292 270 227 207 159 125 105 62 83 48 67 43 62 43 42
internal_count=657 534 123 510 85 58 482 190 167 292 270 227 207 159 125 105 62 83 48 67 43 62 43 42
is_linear=0
shrinkage=0.05


Tree=15
num_leaves=25
num_cat=0
split_feature=0 2 0 2 0 0 2 2 0 1 0 1 0 2 2 2 0 0 2 0 0 0 2 2
split_gain=0.17682 0.115765 0.11962 0.256603 0.234664 0.229384 0.256261 0.211533 0.208888 0.487601 0.41104 0.204727 0.179166 0.206247 0.261424 0.198062 0.195255 0.239191 0.166021 0.124541 0.153204 0.121911 0.106751 0.0600058
threshold=0.054232472454715693 0.042626550793469005 0.11992201760184097 0.49580383968463709 0.17460252813270202 0.24831627248397917 0.67777388322137422 0.86486183414474027 0.71827728644451971 0.61140600447710669 0.82752130803006019 0.34019170995375397 0.61131648289907392 0.59364308074769079 0.48775069358263851 0.34488189248405532 0.44566591066491629 0.34916345302814911 0.32704837796348257 0.45929126232212403 0.81787617698800374 0.42857990872270801 0.32704837796348257 0.27640017126387534
decision_type=2 2 2 2 2 2 2 2 2 2 2 2 2 2 2 2 2 2 2 2 2 2 2 2
left_child=-1 -2 3 -3 -4 11 8 19 12 10 -10 -6 13 14 16 -14 17 -7 -11 -8 -21 -9 -12 -18
right_child=1 2 4 -5 5 6 7 21 9 18 22 -13 15 -15 -16 -17 23 -19 -20 20 -22 -23 -24 -25
leaf_value=0.0034134268514154592 -0.0034932057200758545 0.0013469401342065439 0.0040373065156329956 -0.0059032264881982259 -0.0072236697857945165 -0.0023048153108296294 0.0070229987520724546 -0.0034347629972866604 -0.0052104443311691284 -0.0030025977524928749 0.0051509703606522333 -0.00024194835374752679 0.0061082075808662926 -0.0050751078607780596 0.0052104967730966486 -0.00039665514222261584 -0.0053757679602131252 0.0046833703145384795 -0.0091144454991444936 -4.7653851409753165e-05 0.0050488324257834212 0.0014992683667749648 0.00056792221514991037 -0.0015489858730385702
leaf_weight=34 27 23 35 26 21 24 20 21 24 20 24 21 25 21 22 22 20 25 25 30 29 31 27 21
leaf_count=34 27 23 35 26 21 24 20 21 24 20 24 21 25 21 22 22 20 25 25 30 29 31 27 21
internal_value=0 -0.000295803 -0.000140812 -0.00250009 8.6756e-05 -0.000205568 0.000138154 0.00198316 -0.000667498 -0.00228339 0.00018542 -0.00373281 0.000409761 -0.000527983 0.000324603 0.00306338 -0.000869726 0.00126059 -0.00639807 0.00361325 0.0024574 -0.000493321 0.00272465 -0.00341571
internal_weight=0 584 557 49 508 473 431 131 300 120 75 42 180 133 112 47 90 49 45 79 59 52 51 41
internal_count=618 584 557 49 508 473 431 131 300 120 75 42 180 133 112 47 90 49 45 79 59 52 51 41
is_linear=0
shrinkage=0.05


Tree=16
num_leaves=24
num_cat=0
split_feature=0 2 2 1 2 0 1 0 2 2 0 0 1 2 2 1 2 1 0 1 1 1 1
split_gain=0.15958 0.108146 0.221698 0.189282 0.221841 0.172733 0.118784 0.115589 0.107456 0.358973 0.254543 0.173495 0.460517 0.264135 0.354965 0.254492 0.137955 0.248913 0.273506 0.0704019 0.0580339 0.0539092 0.04665
threshold=0.054232472454715693 0.13576888237079629 0.17640002404657826 0.49962755537575132 0.073064493866381877 0.9532188898287236 0.050438916257417817 0.086968753195106233 0.74850054389596998 0.83589178873914849 0.3908498441679803 0.73933276722498664 0.58244245476047751 0.27640017126387534 0.642426705250987 0.2728195116025639 0.34488189248405532 0.22048692424246233 0.45521054766918706 0.44696162466445333 0.44092695987086306 0.56243996933608209 0.50260158478431738
decision_type=2 2 2 2 2 2 2 2 2 2 2 2 2 2 2 2 2 2 2 2 2 2 2
left_child=-1 3 -3 -2 -5 6 -4 -8 11 19 -11 13 15 22 16 -13 -15 -18 21 -10 -12 -19 -9
right_child=1 2 5 4 -6 -7 7 8 9 10 20 12 -14 14 -16 -17 17 18 -20 -21 -22 -23 -24
leaf_value=0.0032427553977707733 -0.0046137674352959603 0.004683278589315402 -0.0037459138798742343 0.0036472177755533029 -0.0033757668401283979 0.0038045109435915951 -0.0037946054659021853 -0.0052266794326715181 0.0068561257328838112 -0.0040638964897131216 -8.4060463123023511e-05 -0.0029269582494938127 -0.0073294662397294756 0.0055260658375918866 -0.0033529739971650211 0.0046100354176901639 -0.0029766942467540506 0.0069702496486050746 -0.00071234831054295823 0.002757290778681636 0.0037249371130019431 0.0036671910869578526 -0.0018116408272180707
leaf_weight=34 37 24 26 23 22 25 22 20 22 34 20 24 31 25 37 21 25 21 35 20 20 30 20
leaf_count=34 37 24 26 23 22 25 22 20 22 34 20 24 31 25 37 21 25 21 35 20 20 30 20
internal_value=0 -0.000281013 -6.01806e-06 -0.00196452 0.000213759 -0.000241464 -0.000464752 -0.000264962 -7.32283e-05 0.00121229 -0.000883175 -0.000589215 -0.00264013 0.000142566 0.000989208 0.000590305 0.00217054 0.00141479 0.00269138 0.0049043 0.00182044 0.00502727 -0.00351916
internal_weight=0 584 502 82 45 478 453 427 405 116 74 289 76 213 173 45 136 111 86 42 40 51 40
internal_count=618 584 502 82 45 478 453 427 405 116 74 289 76 213 173 45 136 111 86 42 40 51 40
is_linear=0
shrinkage=0.05


Tree=17
num_leaves=25
num_cat=0
split_feature=0 2 0 2 0 0 2 2 1 0 1 0 0 2 2 2 0 0 2 0 0 0 2 2
split_gain=0.144021 0.100145 0.101464 0.229434 0.21018 0.203089 0.217763 0.181905 0.175235 0.175196 0.408394 0.35925 0.164705 0.179086 0.232629 0.171711 0.169949 0.208993 0.142616 0.114861 0.132827 0.0999348 0.097546 0.0511451
threshold=0.054232472454715693 0.042626550793469005 0.11992201760184097 0.49580383968463709 0.17460252813270202 0.24831627248397917 0.67777388322137422 0.86486183414474027 0.34019170995375397 0.71827728644451971 0.61140600447710669 0.82752130803006019 0.61131648289907392 0.59364308074769079 0.48775069358263851 0.34488189248405532 0.44566591066491629 0.34916345302814911 0.32704837796348257 0.45929126232212403 0.81787617698800374 0.42857990872270801 0.32704837796348257 0.27640017126387534
decision_type=2 2 2 2 2 2 2 2 2 2 2 2 2 2 2 2 2 2 2 2 2 2 2 2
left_child=-1 -2 3 -3 -4 8 9 19 -6 12 11 -11 13 14 16 -14 17 -7 -12 -8 -21 -9 -13 -18
right_child=1 2 4 -5 5 6 7 21 -10 10 18 22 15 -15 -16 -17 23 -19 -20 20 -22 -23 -24 -25
leaf_value=0.0030806175734409517 -0.0032408382191702178 0.0013419996033442894 0.0038255647104233504 -0.0055136144095259765 -0.0067384425805704223 -0.0021990980293291312 0.0066205304954200994 -0.0031253469753123467 -0.00027914606034755706 -0.0048740532249212272 -0.0027076048916205766 0.0048636582214385271 0.0057567636971361941 -0.0047588264214850611 0.0048817577517845413 -0.00029993656260723423 -0.0050386790907941759 0.0043330804035067562 -0.0083722880091518168 -9.6586790556708977e-05 0.0046488915281049136 0.001341895466940778 0.00048266712455423898 -0.0015057134486380079
leaf_weight=34 27 23 35 26 21 24 20 21 21 24 20 24 25 21 22 22 20 25 25 30 29 31 27 21
leaf_count=34 27 23 35 26 21 24 20 21 21 24 20 24 25 21 22 22 20 25 25 30 29 31 27 21
internal_value=0 -0.000266962 -0.000122806 -0.00229567 8.67812e-05 -0.000189873 0.000133549 0.00183433 -0.00350879 -0.000609126 -0.00208897 0.000170434 0.000377438 -0.000521666 0.000272801 0.00292171 -0.000853832 0.00113365 -0.00585465 0.00334596 0.00223594 -0.000462183 0.00254431 -0.00322911
internal_weight=0 584 557 49 508 473 431 131 42 300 120 75 180 133 112 47 90 49 45 79 59 52 51 41
internal_count=618 584 557 49 508 473 431 131 42 300 120 75 180 133 112 47 90 49 45 79 59 52 51 41
is_linear=0
shrinkage=0.05


Tree=18
num_leaves=22
num_cat=0
split_feature=0 1 2 2 0 1 1 2 2 2 0 1 0 0 0 2 2 1 2 1 1
split_gain=0.129979 0.0943153 0.0901072 0.286964 0.228056 0.147004 0.116306 0.212937 0.154648 0.201702 0.289287 0.387818 0.323851 0.237548 0.229096 0.186127 0.4341 0.100401 0.0986354 0.229569 0.264203
threshold=0.054232472454715693 0.050438916257417817 0.74850054389596998 0.83589178873914849 0.3908498441679803 0.38530481666942384 0.87309116871323622 0.35112480922440764 0.073064493866381877 0.62780422128116287 0.6690298009605522 0.64876415478407967 0.79469479112091945 0.63077738627407343 0.8973915178926507 0.17640002404657826 0.27640017126387534 0.44092695987086306 0.35352028361925014 0.22048692424246233 0.48434282765489711
decision_type=2 2 2 2 2 2 2 2 2 2 2 2 2 2 2 2 2 2 2 2 2
left_child=-1 -2 6 5 -5 -4 8 -8 -3 10 15 12 -12 -11 -14 -10 -17 -6 -18 -20 -21
right_child=1 2 3 4 17 -7 7 -9 9 13 11 -13 14 -15 -16 16 18 -19 19 20 -22
leaf_value=0.0029265867902294679 -0.0028092359062558154 -0.0038169261196775266 0.0073452278785407542 -0.0036778029155086832 -0.0007387639333804449 0.0018111642077565195 0.0051151007213629781 -0.0007962073927792984 0.0052522093344193237 -0.0065396608715807955 -0.0048694521154242533 -0.0080714394759741574 0.0057555584067648111 0.00037522658847434368 -0.00096195664412031571 -0.0042793299769982697 0.0051828358936208217 0.0041504982415409312 -0.0028489862447199617 0.0065044303103510672 5.0919258168765478e-05
leaf_weight=34 34 38 20 37 21 30 25 39 26 27 27 21 22 23 30 34 22 21 23 29 35
leaf_count=34 34 38 20 37 21 30 25 39 26 27 27 21 22 23 30 34 22 21 23 29 35
internal_value=0 -0.000253614 -9.56299e-05 0.00106052 -0.000815599 0.00402479 -0.00044989 0.0015129 -0.000801762 -0.000442589 9.946e-05 -0.00203212 -0.000426729 -0.00335881 0.00188007 0.00136075 0.000653211 0.00170587 0.0021918 0.00143545 0.00297517
internal_weight=0 584 550 129 79 50 421 64 357 319 269 100 79 50 52 169 143 42 109 87 64
internal_count=618 584 550 129 79 50 421 64 357 319 269 100 79 50 52 169 143 42 109 87 64
is_linear=0
shrinkage=0.05


Tree=19
num_leaves=22
num_cat=0
split_feature=0 2 2 1 2 0 1 0 1 0 0 0 2 2 0 1 1 1 0 2 2
split_gain=0.117306 0.0900842 0.180671 0.160875 0.209314 0.145505 0.107314 0.395193 0.228591 0.136694 0.185188 0.173146 0.204394 0.206425 0.128163 0.0944892 0.187116 0.128836 0.105104 0.0845852 0.0702241
threshold=0.054232472454715693 0.13576888237079629 0.17640002404657826 0.49962755537575132 0.073064493866381877 0.9532188898287236 0.74256734043351325 0.59046638825472286 0.85858851559624216 0.11992201760184097 0.16579355096602669 0.24831627248397917 0.67777388322137422 0.61515549655433444 0.43205885427524199 0.1414481073678783 0.23594869944633814 0.52038144048883939 0.58788049516301555 0.56845035691724022 0.79216394909146237
decision_type=2 2 2 2 2 2 2 2 2 2 2 2 2 2 2 2 2 2 2 2 2
left_child=-1 3 -3 -2 -5 6 9 8 -8 -4 -11 -12 13 15 -14 -13 -17 18 -18 -9 -16
right_child=1 2 5 4 -6 -7 7 19 -10 10 11 12 14 -15 20 16 17 -19 -20 -21 -22
leaf_value=0.0027802573927842521 -0.0042198123341124208 0.0042432678960418945 -0.003908953402247845 0.0035658574551748843 -0.0032559674808660269 0.0035109220594167715 0.0079734284364219223 -0.0041798401194123123 0.0014420742420731365 0.0036020161986816675 -0.0042341326589367409 0.0014475124215500223 0.0042564242082680096 -0.0059704473347995772 -0.0018103539440780881 -0.0058722706045955426 -0.0015623231130164296 -0.002823695947549173 0.0030823672880771862 -0.00025237127496250745 0.0017513378703546143
leaf_weight=34 37 24 33 23 22 25 21 26 37 25 34 36 29 22 25 20 21 35 29 29 31
leaf_count=34 37 24 33 23 22 25 21 26 37 25 34 36 29 22 25 20 21 35 29 29 31
internal_value=0 -0.000240933 1.00492e-05 -0.00177743 0.000230743 -0.000202497 -0.000407432 0.00092747 0.00380687 -0.000851091 -0.000522396 -0.000888035 -0.000429296 -0.00146585 0.00155846 -0.00076301 -0.0015209 -0.000497053 0.0011316 -0.00210899 0.000161297
internal_weight=0 584 502 82 45 478 453 113 58 340 307 282 248 163 85 141 105 85 50 55 56
internal_count=618 584 502 82 45 478 453 113 58 340 307 282 248 163 85 141 105 85 50 55 56
is_linear=0
shrinkage=0.05


Tree=20
num_leaves=23
num_cat=0
split_feature=2 2 0 1 2 2 2 0 2 0 2 2 2 1 0 1 0 0 2 2 2 0
split_gain=0.135544 0.296559 0.195473 0.312096 0.253581 0.320738 0.189242 0.396801 0.276776 0.166874 0.159126 0.362628 0.156786 0.263628 0.153016 0.207815 0.279611 0.124521 0.110342 0.0453523 0.0249218 0.0122119
threshold=0.26484072762518074 0.31411702879567704 0.61131648289907392 0.80348028975517882 0.65180050998993866 0.38616646940693544 0.56845035691724022 0.75255726093071462 0.72506918588180957 0.38842149790823882 0.44296863085428667 0.54938909720813855 0.74850054389596998 0.43309610482525607 0.61131648289907392 0.74679954618353306 0.43791997069827404 0.26022232426402714 0.17640002404657826 0.14102804195849242 0.44751679131397132 0.81787617698800374
decision_type=2 2 2 2 2 2 2 2 2 2 2 2 2 2 2 2 2 2 2 2 2 2
left_child=14 -2 4 6 5 -3 20 -8 -9 12 -7 -12 -6 -14 15 16 18 -13 -1 -16 -4 -5
right_child=1 2 3 21 9 10 7 8 -10 -11 11 17 13 -15 19 -17 -18 -19 -20 -21 -22 -23
leaf_value=0.0024092424006084915 0.0047658373411877623 -0.0024961333304386719 -0.0041112383916264489 -0.0044657550472766167 -0.0050412604633461814 0.0071193767944350839 -0.0037818642936784915 0.0076369589742777567 0.00037811139180999378 0.0020690582373312544 -0.0011646628143161684 0.0028433408630503853 0.0025115941937067822 -0.0035488008447971788 0.0020162408490216844 -0.0068946336709853747 -0.0057818973257851144 0.0081631373529407105 -0.0021310323505135983 -0.00083138371079132477 -0.0018146218973453397 -0.0061921022566301491
leaf_weight=32 32 29 21 20 29 23 27 24 29 35 38 22 34 38 27 23 26 22 23 29 27 21
leaf_count=32 32 29 21 20 29 23 27 24 29 35 38 22 34 38 27 23 26 22 23 29 27 21
internal_value=0 0.000118837 -0.000219897 -0.00155348 0.000614827 0.00215853 -0.000337413 0.00115177 0.00366514 -0.000906175 0.0034441 0.00241324 -0.0019372 -0.000686948 -0.0015656 -0.00270023 -0.00150923 0.00550324 0.000510582 0.000541578 -0.00281939 -0.00534998
internal_weight=0 471 439 169 270 134 128 80 53 136 105 82 101 72 160 104 81 44 55 56 48 41
internal_count=631 471 439 169 270 134 128 80 53 136 105 82 101 72 160 104 81 44 55 56 48 41
is_linear=0
shrinkage=0.05


Tree=21
num_leaves=24
num_cat=0
split_feature=2 2 2 2 1 2 2 2 1 1 1 2 2 1 1 1 1 1 1 2 0 2 0
split_gain=0.123214 0.210929 0.253088 0.246114 0.237613 0.172143 0.330791 0.211828 0.205396 0.163186 0.130855 0.201596 0.12866 0.204749 0.283353 0.200983 0.248284 0.144846 0.125052 0.109051 0.107889 0.0879616 0.0376407
threshold=0.24635223504456663 0.65985167918452936 0.55258161759231872 0.47011841527214238 0.84400337339571996 0.4019035924229909 0.31411702879567704 0.27917218628668156 0.34887353073645361 0.22048692424246233 0.44696162466445333 0.078095226641054408 0.76652118287710602 0.20114873539751546 0.45458095146667776 0.59521747041658546 0.15922642389127098 0.32142961527745711 0.60651079499550964 0.1816577597444711 0.54619582544257816 0.50462576998694186 0.49212048970384581
decision_type=2 2 2 2 2 2 2 2 2 2 2 2 2 2 2 2 2 2 2 2 2 2 2
left_child=9 2 3 5 12 6 7 -2 -8 -1 -11 -12 13 -3 -15 16 -14 -18 -13 -20 -4 -5 -7
right_child=1 4 20 21 -6 22 8 -9 -10 10 11 18 15 14 -16 -17 17 -19 19 -21 -22 -23 -24
leaf_value=0.0022347032344744852 -0.00025292579971608663 -0.0062394517939537769 0.0053610864246653178 -0.0050286537569869932 -0.0046547224254984611 0.0053655094206554906 0.0005417867563664913 0.006848845426880178 -0.0058055928782918135 -0.0053492123192107237 0.0020831474889840547 0.00024702548821964727 0.0032861036868000941 0.0043563848594203591 -0.0033268328569829465 0.0044331318033593043 -0.0058912815572693946 -0.00043355388897320921 -0.0063194674007328493 -0.0014854245120659471 0.0015933344704344085 -0.00099673884800605237 0.002371839221034731
leaf_weight=24 21 20 38 24 38 21 25 21 26 27 29 22 28 20 30 28 20 31 28 20 38 31 21
leaf_count=24 21 20 38 24 38 21 25 21 26 27 29 22 28 20 30 28 20 31 28 20 38 31 21
internal_value=0 9.73104e-05 0.00103864 6.32173e-05 -0.00106732 0.00121184 1.19738e-05 0.00329796 -0.00269413 -0.00154402 -0.00226378 -0.0014223 -0.000297139 -0.0019638 -0.000253546 0.000793204 -0.000496897 -0.00257384 -0.00287456 -0.00430528 0.00347721 -0.00275612 0.00386867
internal_weight=0 481 266 190 215 135 93 42 51 150 126 99 177 70 50 107 79 51 70 48 76 55 42
internal_count=631 481 266 190 215 135 93 42 51 150 126 99 177 70 50 107 79 51 70 48 76 55 42
is_linear=0
shrinkage=0.05


Tree=22
num_leaves=24
num_cat=0
split_feature=2 2 1 2 1 1 1 1 0 2 2 0 1 1 1 2 2 1 1 2 1 2 0
split_gain=0.111201 0.199085 0.249023 0.241896 0.181388 0.224076 0.147275 0.130723 0.123917 0.279301 0.442431 0.359058 0.186622 0.150161 0.150557 0.218285 0.255856 0.132727 0.118097 0.181941 0.112859 0.0984181 0.0934827
threshold=0.24635223504456663 0.71207553310569305 0.85536333486311056 0.76652118287710602 0.59521747041658546 0.15922642389127098 0.22048692424246233 0.32142961527745711 0.61822655920602287 0.56845035691724022 0.32704837796348257 0.75461616204679605 0.59615999712150181 0.71589859676474321 0.58460992032208703 0.59964799862498241 0.49049354207401286 0.86710065681096216 0.44696162466445333 0.078095226641054408 0.60651079499550964 0.1816577597444711 0.42461579404841915
decision_type=2 2 2 2 2 2 2 2 2 2 2 2 2 2 2 2 2 2 2 2 2 2 2
left_child=6 8 3 -3 5 -5 -1 -7 13 10 -10 -11 -12 14 15 16 22 -15 -8 -20 -21 -22 -2
right_child=1 2 -4 4 -6 7 18 -9 9 11 12 -13 -14 17 -16 -17 -18 -19 19 20 21 -23 -24
leaf_value=0.002122968022013083 -0.0001859497468869545 -0.0043947424434510806 -0.0051860471256077291 0.003121798568671303 0.0042114751479987592 -0.005596717386506498 -0.0050817516977312398 -0.00041187612580195548 0.0044426570576615631 -0.0021605211589485408 -0.0019153848648644411 0.0068277015369385477 -0.007449380435049534 0.0070609677571892033 -0.0028609901646395094 -0.0019877214450389146 0.0078535902989096944 0.0017609390162828344 0.0019789901481748655 0.00023467425939584661 -0.0060034939819680793 -0.0014111534273251892 0.0038527798859159588
leaf_weight=24 38 29 33 28 28 20 27 31 20 20 39 25 25 21 23 31 20 27 29 22 28 20 23
leaf_count=24 38 29 33 28 28 20 27 31 20 20 39 25 25 21 23 31 20 27 29 22 28 20 23
internal_value=0 9.24449e-05 -0.00128969 -0.000344253 0.000753544 -0.000472053 -0.00146682 -0.00244515 0.000841102 -0.000345731 -0.00204859 0.00283294 -0.0040771 0.00167772 0.000823685 0.00158036 0.00294592 0.0040797 -0.00215059 -0.00135119 -0.00273083 -0.00409002 0.00133685
internal_weight=0 481 169 136 107 79 150 51 312 129 84 45 64 183 135 112 81 48 126 99 70 48 61
internal_count=631 481 169 136 107 79 150 51 312 129 84 45 64 183 135 112 81 48 126 99 70 48 61
is_linear=0
shrinkage=0.05


Tree=23
num_leaves=23
num_cat=0
split_feature=2 2 2 2 2 1 2 2 2 0 0 1 0 1 0 1 2 0 1 0 2 2
split_gain=0.104854 0.138982 0.197595 0.162199 0.370242 0.183043 0.162349 0.174272 0.150382 0.148451 0.132622 0.184674 0.247652 0.110493 0.200534 0.190001 0.0995884 0.0917314 0.0787529 0.0587703 0.0415106 0.0367312
threshold=0.92141131376096963 0.26484072762518074 0.31411702879567704 0.4019035924229909 0.44296863085428667 0.34887353073645361 0.50462576998694186 0.65985167918452936 0.55258161759231872 0.24831627248397917 0.61131648289907392 0.74679954618353306 0.43791997069827404 0.39658242690836482 0.64318638285141716 0.20114873539751546 0.17640002404657826 0.54619582544257816 0.42900335136640516 0.092808061437249692 0.15505033811103855 0.47580716059538747
decision_type=2 2 2 2 2 2 2 2 2 2 2 2 2 2 2 2 2 2 2 2 2 2
left_child=1 10 -3 5 -5 -4 21 8 -8 19 11 12 16 15 -15 -11 -1 -10 -2 -9 -12 -6
right_child=18 2 3 4 6 -7 7 9 17 13 20 -13 -14 14 -16 -17 -18 -19 -20 -21 -22 -23
leaf_value=0.0024186116643249989 -0.0049547889491077515 0.0041536983888363467 0.00049166476540267467 0.0061954629688093874 -0.0014732380444183947 -0.0055003729559337869 -0.0009309118523472739 -0.00080773509107530124 0.0049382954808319677 -0.00070707365249594054 0.0018765925453044473 -0.0063627618243512901 -0.0053071181859894968 0.0014495160136567919 -0.0039694459718321601 0.0051326750383640721 -0.0018947587368766897 0.0014641156947044166 -0.0005707877067228158 -0.0043308994925484578 -0.00085299042268441284 -0.0045035509380977603
leaf_weight=32 20 32 25 26 20 26 31 20 38 30 30 23 26 38 31 26 23 38 21 29 26 20
leaf_count=32 20 32 25 26 20 26 31 20 38 30 30 23 26 38 31 26 23 38 21 29 26 20
internal_value=0 -9.44021e-05 0.00037371 6.97911e-05 0.000456758 -0.0025631 -8.05945e-06 0.000416188 0.00200405 -0.000560257 -0.00135245 -0.00240877 -0.00128604 0.000354129 -0.00098509 0.00200424 0.000614839 0.00320121 -0.00270932 -0.00289287 0.000609286 -0.00298839
internal_weight=0 590 430 398 347 51 321 281 107 174 160 104 81 125 69 56 55 76 41 49 56 40
internal_count=631 590 430 398 347 51 321 281 107 174 160 104 81 125 69 56 55 76 41 49 56 40
is_linear=0
shrinkage=0.05


Tree=24
num_leaves=24
num_cat=0
split_feature=2 2 2 2 2 1 2 1 1 1 1 0 1 2 0 0 1 0 0 2 1 2 2
split_gain=0.0946306 0.125432 0.17833 0.14714 0.213342 0.183571 0.14652 0.161119 0.456253 0.304111 0.215655 0.282995 0.125504 0.122842 0.121339 0.119692 0.166963 0.218874 0.114996 0.0954995 0.0710745 0.0374633 0.0331499
threshold=0.92141131376096963 0.26484072762518074 0.31411702879567704 0.38616646940693544 0.44296863085428667 0.34887353073645361 0.50462576998694186 0.93518663752703701 0.80348028975517882 0.71589859676474321 0.42596809292913901 0.25764505442246782 0.088891013288746226 0.6126846519406649 0.53543197316613222 0.61131648289907392 0.76503727258528931 0.43791997069827404 0.58788049516301555 0.17640002404657826 0.42900335136640516 0.15505033811103855 0.47580716059538747
decision_type=2 2 2 2 2 2 2 2 2 2 2 2 2 2 2 2 2 2 2 2 2 2 2
left_child=1 15 -3 5 -5 -4 22 8 9 10 12 -12 -8 -14 -13 16 17 19 -15 -1 -2 -17 -6
right_child=20 2 3 4 6 -7 7 -9 -10 -11 11 14 13 18 -16 21 -18 -19 -20 -21 -22 -23 -24
leaf_value=0.0022976811364060269 -0.0047070494957733898 0.0039460134561522869 0.00057293231643381574 0.0041033403255278248 -0.0013995759841054678 -0.0060382251228605008 -0.0010416664761890258 0.0042266304939985273 -0.0051968717637161412 0.0064520455431193117 -0.0068125162362342789 0.0029989989873554028 0.0059427484730258592 -0.00036873412441070148 -0.0019564656152700386 0.0017827629136930531 -0.0061560930133881895 -0.0050417621512539113 0.0036657867150621097 -0.0018746992359713961 -0.00054224853714307151 -0.00081034073462853064 -0.0042783734411932532
leaf_weight=32 20 32 21 35 20 21 35 25 36 22 21 21 20 38 30 30 22 26 33 24 21 26 20
leaf_count=32 20 32 21 35 20 21 35 25 36 22 21 21 20 38 30 30 22 26 33 24 21 26 20
internal_value=0 -8.9682e-05 0.000355024 6.63016e-05 0.000396515 -0.00273265 -7.65648e-06 0.000395378 2.12324e-05 0.000875104 0.000255444 -0.00192747 0.00150282 0.00248147 8.40198e-05 -0.00128483 -0.00228834 -0.00125064 0.00150647 0.000509518 -0.00257386 0.000578822 -0.00283897
internal_weight=0 590 430 398 356 42 321 281 256 220 198 72 126 91 51 160 104 82 71 56 41 56 40
internal_count=631 590 430 398 356 42 321 281 256 220 198 72 126 91 51 160 104 82 71 56 41 56 40
is_linear=0
shrinkage=0.05


Tree=25
num_leaves=24
num_cat=0
split_feature=2 2 2 1 2 2 0 0 1 0 0 0 1 2 2 1 1 1 1 1 1 1 1
split_gain=0.22053 0.141079 0.25401 0.343348 0.184009 0.241912 0.148721 0.206685 0.213898 0.198834 0.261509 0.100083 0.0980359 0.106162 0.092923 0.29345 0.24747 0.246432 0.221662 0.209754 0.152303 0.134284 0.249604
threshold=0.95899040581644457 0.47011841527214238 0.38616646940693544 0.60978587552969132 0.51903804379121798 0.57369740056633489 0.61131648289907392 0.68532072280572121 0.61140600447710669 0.27968034282623455 0.1400338010607913 0.80691029519584967 0.3661898579768465 0.20319954663151615 0.77011336914269601 0.87309116871323622 0.6744582988517368 0.82168908468332502 0.5396969797487543 0.29590738345723427 0.1294752686511961 0.15922642389127098 0.5575945803319966
decision_type=2 2 2 2 2 2 2 2 2 2 2 2 2 2 2 2 2 2 2 2 2 2 2
left_child=1 2 6 -4 -3 -6 9 -8 11 10 -1 -9 -11 -14 15 16 18 21 19 20 -7 -16 -23
right_child=-2 4 3 -5 5 14 7 8 -10 12 -12 -13 13 -15 17 -17 -18 -19 -20 -21 -22 22 -24
leaf_value=-0.0023039062530733644 -0.0053792416617943675 -0.0039869084882621581 0.00018925170073858823 0.0086763608142394911 0.0034446068938720868 -0.0036179860337422448 0.0061665407428517938 -0.00015880242877063297 -0.0033157699033617978 -0.00040077071462292225 0.0040169156518661316 0.0044821043212253317 -0.0018581788364422716 -0.0065372465432367542 0.0045896721382935844 0.0035388287664814434 -0.0078191095078364008 -0.0047463782597333198 0.0028339873600218978 -0.0066033605360784203 0.0020345951970243319 -0.0021752139625067896 0.0046950676757842305
leaf_weight=30 20 39 26 22 37 26 20 21 25 32 36 26 27 22 24 22 20 20 21 26 22 39 20
leaf_count=30 20 39 26 22 37 26 20 21 25 32 36 26 27 22 24 22 20 20 21 26 22 39 20
internal_value=0 -4.2522e-05 0.000759978 0.00407918 -0.000771375 -0.000318647 9.3361e-05 0.00166996 0.000420911 -0.000893355 0.00114381 0.00240851 -0.00255327 -0.00395898 -0.000898815 -0.00175188 -0.00276402 0.00023585 -0.00169979 -0.0029864 -0.00102722 0.00143639 0.000153695
internal_weight=0 603 287 48 316 277 239 92 72 147 66 47 81 49 240 137 115 103 95 74 48 83 59
internal_count=623 603 287 48 316 277 239 92 72 147 66 47 81 49 240 137 115 103 95 74 48 83 59
is_linear=0
shrinkage=0.05


Tree=26
num_leaves=25
num_cat=0
split_feature=2 2 2 1 2 1 0 0 1 0 0 2 2 1 2 1 1 1 1 0 0 0 0 0
split_gain=0.201396 0.164873 0.195933 0.451048 0.229244 0.309871 0.13422 0.186534 0.193043 0.179448 0.236012 0.124548 0.122305 0.122679 0.126346 0.218665 0.266256 0.120104 0.1985 0.0937779 0.163131 0.0903249 0.0595326 0.00307764
threshold=0.60297126900498332 0.55537519074254116 0.47011841527214238 0.55036555834892675 0.38616646940693544 0.60978587552969132 0.61131648289907392 0.68532072280572121 0.61140600447710669 0.27968034282623455 0.1400338010607913 0.95899040581644457 0.74850054389596998 0.85536333486311056 0.77011336914269601 0.60124968191877171 0.15922642389127098 0.5396969797487543 0.2728195116025639 0.37586872993544634 0.51586519209075188 0.80691029519584967 0.57649546373676064 0.55733746905921178
decision_type=2 2 2 2 2 2 2 2 2 2 2 2 2 2 2 2 2 2 2 2 2 2 2 2
left_child=1 2 4 -4 6 -6 9 -8 21 10 -1 12 17 14 -14 16 -16 18 -2 -11 -21 -9 -18 -19
right_child=11 -3 3 -5 5 -7 7 8 -10 19 -12 -13 13 -15 15 -17 22 23 -20 20 -22 -23 -24 -25
leaf_value=-0.0021887110096092026 -0.0015517158717777806 0.0037836062868258783 0.0010526470620081656 -0.0079111512385956623 0.00017978917950621021 0.0082425427940589473 0.0058582137525081644 -0.0001508622385916256 -0.0031499813068658119 -0.0053013086939851448 0.003816069864357511 -0.0051102795987389982 -0.0028326549101620915 -0.0032193589877958098 0.0043601884894693887 0.0061561309266835451 -0.0004114659414404915 0.00013401028001680971 -0.0078644235769752407 0.00063642578363116531 -0.0047258451257062998 0.0042579991241487175 -0.0042231304943561553 -0.0007431494537740946
leaf_weight=30 33 35 36 23 26 22 20 21 25 21 36 20 20 24 24 20 21 20 20 37 23 26 20 20
leaf_count=30 33 35 36 23 26 22 20 21 25 21 36 20 20 24 24 20 21 20 20 37 23 26 20 20
internal_value=0 0.000513315 0.000182506 -0.00244171 0.000721979 0.00387522 8.8693e-05 0.00158646 0.000399866 -0.000848687 0.00108662 -0.00133115 -0.000990684 5.78321e-06 0.000742959 0.00158428 0.000177556 -0.00237288 -0.00393387 -0.00242561 -0.00141911 0.00228808 -0.00227081 -0.00030457
internal_weight=0 381 346 59 287 48 239 92 72 147 66 242 222 129 105 85 65 93 53 81 60 47 41 40
internal_count=623 381 346 59 287 48 239 92 72 147 66 242 222 129 105 85 65 93 53 81 60 47 41 40
is_linear=0
shrinkage=0.05


Tree=27
num_leaves=24
num_cat=0
split_feature=2 2 2 1 2 1 0 0 2 0 0 2 2 1 2 1 1 1 1 1 2 2 0
split_gain=0.18176 0.148798 0.176829 0.407071 0.206893 0.279659 0.121134 0.173255 0.170387 0.161951 0.213001 0.112405 0.110381 0.110718 0.114027 0.197345 0.240296 0.108394 0.179146 0.0913225 0.0581635 0.0350345 0.00277757
threshold=0.60297126900498332 0.55537519074254116 0.47011841527214238 0.55036555834892675 0.38616646940693544 0.60978587552969132 0.61131648289907392 0.72235952355858235 0.16264762871431557 0.27968034282623455 0.1400338010607913 0.95899040581644457 0.74850054389596998 0.85536333486311056 0.77011336914269601 0.60124968191877171 0.15922642389127098 0.5396969797487543 0.2728195116025639 0.52704006357890421 0.85276791439778055 0.21696536838229488 0.55733746905921178
decision_type=2 2 2 2 2 2 2 2 2 2 2 2 2 2 2 2 2 2 2 2 2 2 2
left_child=1 2 4 -4 6 -6 9 -8 -9 10 -1 12 17 14 -14 16 -16 18 -2 21 -18 -11 -19
right_child=11 -3 3 -5 5 -7 7 8 -10 19 -12 -13 13 -15 15 -17 20 22 -20 -21 -22 -23 -24
leaf_value=-0.0020792753528803588 -0.0014741300569960116 0.0035944259372938958 0.0010000147501058464 -0.0075155938165667267 0.00017079968865101156 0.0078304157047320837 0.0046264152306442459 -0.0029864976803461712 0.0022999961647604192 -0.0021131258403571944 0.0036252663548414911 -0.0048547655287620728 -0.0026910221762955194 -0.0030583910256003341 0.0041421791538596153 0.0058483245689421896 -0.00031942912333068397 0.00012730970047414303 -0.0074712024349719288 -0.00449330208512644 -0.0040870107524096965 0.00054963699630683385 -0.0007059921231120825
leaf_weight=30 33 35 36 23 26 22 30 27 35 30 36 20 20 24 24 20 21 20 20 30 20 21 20
leaf_count=30 33 35 36 23 26 22 30 27 35 30 36 20 20 24 24 20 21 20 20 30 20 21 20
internal_value=0 0.00048765 0.00017338 -0.00231963 0.00068588 0.00368146 8.42584e-05 0.00150714 -2.18664e-06 -0.000806253 0.00103229 -0.00126459 -0.00094115 5.49408e-06 0.000705811 0.00150507 0.000168678 -0.00225424 -0.00373718 -0.00230433 -0.00215727 -0.00101669 -0.000289341
internal_weight=0 381 346 59 287 48 239 92 62 147 66 242 222 129 105 85 65 93 53 81 41 51 40
internal_count=623 381 346 59 287 48 239 92 62 147 66 242 222 129 105 85 65 93 53 81 41 51 40
is_linear=0
shrinkage=0.05


Tree=28
num_leaves=24
num_cat=0
split_feature=2 0 0 1 0 2 2 0 0 1 1 2 1 2 0 2 1 0 0 0 2 2 0
split_gain=0.167084 0.150768 0.20174 0.224364 0.222304 0.151094 0.196358 0.226149 0.223553 0.190424 0.167142 0.112935 0.105235 0.171234 0.219138 0.10073 0.184615 0.241679 0.148604 0.118768 0.0532489 0.0480827 0.0243599
threshold=0.92141131376096963 0.93832263763476031 0.80691029519584967 0.55036555834892675 0.71827728644451971 0.60297126900498332 0.5411397123727596 0.61131648289907392 0.51048382401997927 0.9024331702859727 0.79705370939915032 0.88689880903575402 0.87309116871323622 0.80731941362103099 0.32492962445840357 0.42588151380276301 0.18312756017550066 0.26198486401786558 0.39313446385054723 0.1400338010607913 0.3784027269605082 0.58511224551544483 0.55019312646643759
decision_type=2 2 2 2 2 2 2 2 2 2 2 2 2 2 2 2 2 2 2 2 2 2 2
left_child=1 2 4 20 5 6 7 8 9 10 15 12 13 14 -7 16 -1 19 -19 -18 -4 -6 -16
right_child=-2 -3 3 -5 21 11 -8 -9 -10 -11 -12 -13 -14 -15 22 -17 17 18 -20 -21 -22 -23 -24
leaf_value=-0.0030716331929645756 -0.0033519502645597242 -0.0032544904642484405 0.0033701163437217479 -0.00020766508690006028 -0.0045123435571909915 -0.00077597366359371406 0.0042891183883782373 0.0039734822830084608 -0.0042614520667120818 -0.0041778659028932448 0.0051535279578751045 0.0023952865600585941 0.0016727239545434713 0.0012350793426426558 -0.0072770690917968762 -0.0025064321532845498 0.0021884127325999241 -0.0036533211113973746 0.0023688387707807125 0.0073372595033669363 0.0070187084015924488 -0.0013678297307342293 -0.0048092840658500793
leaf_weight=22 39 33 20 37 31 39 37 37 30 20 21 20 20 26 20 25 24 21 20 21 20 20 20
leaf_count=22 39 33 20 37 31 39 37 37 30 20 21 20 20 26 20 25 24 21 20 21 20 20 20
internal_value=0 2.82565e-05 0.000224864 0.00259861 -0.000160745 0.00021524 0.000897713 0.00037704 -0.000275256 0.00041202 0.00100811 -0.00109323 -0.00165139 -0.00228455 -0.00344291 0.000353569 0.00101561 0.00206118 -0.000715682 0.00459121 0.00519441 -0.0032792 -0.00604318
internal_weight=0 584 551 77 474 423 278 241 204 174 154 145 125 105 79 133 108 86 41 45 40 51 40
internal_count=623 584 551 77 474 423 278 241 204 174 154 145 125 105 79 133 108 86 41 45 40 51 40
is_linear=0
shrinkage=0.05


Tree=29
num_leaves=24
num_cat=0
split_feature=2 0 0 1 0 0 2 1 1 0 1 0 0 2 0 1 2 1 2 2 1 2 1
split_gain=0.150794 0.136068 0.18207 0.202488 0.200629 0.138557 0.13303 0.187283 0.265743 0.18619 0.159366 0.136456 0.118406 0.181575 0.113846 0.195675 0.187467 0.0916115 0.0480571 0.0433946 0.0421573 0.0265169 0.0043213
threshold=0.92141131376096963 0.93832263763476031 0.80691029519584967 0.55036555834892675 0.71827728644451971 0.66517322577288007 0.60297126900498332 0.1294752686511961 0.21713534055954767 0.44207022780542182 0.29129362594025066 0.25764505442246782 0.46394269897666235 0.22744588286034359 0.16196397952823313 0.72749803429457771 0.26484072762518074 0.44092695987086306 0.3784027269605082 0.58511224551544483 0.52373423352171322 0.43888261791166944 0.51649936676373165
decision_type=2 2 2 2 2 2 2 2 2 2 2 2 2 2 2 2 2 2 2 2 2 2 2
left_child=1 2 4 18 5 6 7 -1 -9 11 -10 17 14 -14 15 -12 -16 -8 -4 -6 -13 -18 -11
right_child=-2 -3 3 -5 19 -7 9 8 10 22 12 20 13 -15 16 -17 21 -19 -20 -21 -22 -23 -24
leaf_value=0.0040733457022510914 -0.0031843529345515448 -0.0030917660530769466 0.0032016105949878694 -0.00019728186716501777 -0.0042867261570908371 0.0033154043940488592 0.00023507270296769484 -0.0052633646509743165 0.0048838405730202801 -0.003664383259601891 0.0016844296915223822 0.00050566930493170569 0.001198166762681111 -0.0050187821754661861 -0.00059117316850461072 -0.004441165684891695 0.0055349240950106279 -0.0038468568723786763 0.0066677729692310094 -0.001299438150599599 0.0036774604674428705 0.0030455719289602715 -0.0047037700470536946
leaf_weight=34 39 33 20 37 31 33 28 21 20 20 32 22 23 24 34 22 23 27 20 20 20 20 20
leaf_count=34 39 33 20 37 31 33 28 21 20 20 32 22 23 24 34 22 23 27 20 20 20 20 20
internal_value=0 2.68436e-05 0.000213621 0.00246868 -0.000152707 0.000204478 -5.87547e-05 0.000620782 8.47677e-05 -0.00131367 0.000651994 -0.000129991 0.000176505 -0.00197645 0.000948938 -0.000811183 0.00218331 -0.00176878 0.00493469 -0.00311524 0.00201605 0.00437709 -0.00418408
internal_weight=0 584 551 77 474 423 390 253 219 137 198 97 178 47 131 54 77 55 40 51 42 43 40
internal_count=623 584 551 77 474 423 390 253 219 137 198 97 178 47 131 54 77 55 40 51 42 43 40
is_linear=0
shrinkage=0.05


Tree=30
num_leaves=25
num_cat=0
split_feature=2 2 0 1 2 2 1 0 1 1 1 0 2 2 2 1 2 0 0 0 0 2 2 0
split_gain=0.188439 0.218963 0.226813 0.229028 0.203654 0.23692 0.585984 0.311822 0.223576 0.197415 0.182179 0.154116 0.162716 0.51725 0.152986 0.202755 0.220356 0.171573 0.35363 0.124924 0.107375 0.095327 0.0926379 0.0681948
threshold=0.067604972545369249 0.70704062989251548 0.90732648148578854 0.32731645235390577 0.5961383110376649 0.44296863085428667 0.53456261679513029 0.80691029519584967 0.71589859676474321 0.48322356676601835 0.18108011587978631 0.27694177875235276 0.19462317426281853 0.27640017126387534 0.74850054389596998 0.85858851559624216 0.80731941362103099 0.29371044180889389 0.57649546373676064 0.61822655920602287 0.51048382401997927 0.65985167918452936 0.11790540628027303 0.16196397952823313
decision_type=2 2 2 2 2 2 2 2 2 2 2 2 2 2 2 2 2 2 2 2 2 2 2 2
left_child=9 2 4 -4 5 7 20 10 21 -1 -2 23 22 -14 -3 16 -16 -18 -19 -8 -7 -6 -13 -12
right_child=1 14 3 -5 8 6 19 -9 -10 -11 11 12 13 -15 15 -17 17 18 -20 -21 -22 -23 -24 -25
leaf_value=-0.0062240886866398483 -0.0022402128244617156 -0.0052715523843653508 0.0018035515514202415 -0.0052019771354805148 0.0040514550171792509 0.0050361988730728627 -0.0029724413629931713 0.0069584333077073101 0.0082195090060122305 0.0003269679925363997 0.0024542247031682303 0.00064568734494969255 -0.0067683311800162006 0.0026566085059548153 -0.003240072250585346 -0.0049221909483489791 -0.0016026438431193434 0.0077296631488328179 -0.00010577239768786563 -0.0080740011204034103 0.00012097511906176805 -7.7033717254245735e-05 0.0054581174653139906 0.0060067540246315984
leaf_weight=23 35 20 20 28 29 25 30 25 20 23 35 20 24 37 34 23 30 24 36 20 20 27 20 22
leaf_count=23 35 20 20 28 29 25 30 25 20 23 35 20 24 37 34 23 30 24 36 20 20 27 20 22
internal_value=0 0.00037126 0.000959771 -0.00228301 0.00135991 0.000796172 -0.00128767 0.00170427 0.00368161 -0.00294856 0.00102368 0.00174669 0.000573571 -0.00105156 -0.00116874 -0.000610531 0.000189212 0.00148472 0.0030284 -0.00501307 0.00285165 0.00206093 0.0030519 0.00382538
internal_weight=0 604 437 48 389 313 95 218 76 46 193 158 101 61 167 147 124 90 60 50 45 56 40 57
internal_count=650 604 437 48 389 313 95 218 76 46 193 158 101 61 167 147 124 90 60 50 45 56 40 57
is_linear=0
shrinkage=0.05


Tree=31
num_leaves=25
num_cat=0
split_feature=2 2 0 1 2 2 1 0 1 1 1 0 2 2 2 1 2 0 0 0 0 0 2 1
split_gain=0.170066 0.197614 0.204698 0.206698 0.183797 0.21382 0.52885 0.281419 0.201777 0.178167 0.167056 0.206619 0.154701 0.330634 0.13807 0.182987 0.198871 0.154844 0.319151 0.131171 0.112744 0.0969061 0.0860326 0.016679
threshold=0.067604972545369249 0.70704062989251548 0.90732648148578854 0.32731645235390577 0.5961383110376649 0.44296863085428667 0.53456261679513029 0.80691029519584967 0.71589859676474321 0.48322356676601835 0.2120450520334741 0.27694177875235276 0.34110222797619089 0.19462317426281853 0.74850054389596998 0.85858851559624216 0.80731941362103099 0.29371044180889389 0.57649546373676064 0.16196397952823313 0.61822655920602287 0.51048382401997927 0.65985167918452936 0.086168213995027013
decision_type=2 2 2 2 2 2 2 2 2 2 2 2 2 2 2 2 2 2 2 2 2 2 2 2
left_child=9 2 4 -4 5 7 21 10 22 -1 23 19 13 -13 -3 16 -16 -18 -19 -12 -8 -7 -6 -2
right_child=1 14 3 -5 8 6 20 -9 -10 -11 11 12 -14 -15 15 -17 17 18 -20 -21 -22 -23 -24 -25
leaf_value=-0.0059128841547214477 -0.00088350089383311577 -0.0050079747627023614 0.0017133737355470658 -0.0049418781651183966 0.0038488823165795925 0.0047843889296054843 -0.0028238192874899446 0.0066105117276310929 0.0078085335530340668 0.00031061951759392805 0.0023315133766404219 0.0025448236474170331 0.0041521316194640737 -0.0040085498556053567 -0.0030780686558607748 -0.0046760813697524694 -0.0015225115915139516 0.0073431798800205192 -0.00010048365996529658 0.0074075087311211976 -0.007670301003381611 0.00011492640245705845 -7.3181990430586872e-05 -0.0029254967090673748
leaf_weight=23 20 20 20 28 29 25 30 25 20 23 35 39 21 38 34 23 30 24 36 20 20 20 27 20
leaf_count=23 20 20 20 28 29 25 30 25 20 23 35 39 21 38 34 23 30 24 36 20 20 20 27 20
internal_value=0 0.000352697 0.000911782 -0.00216886 0.00129191 0.000756363 -0.00122329 0.00161905 0.00349753 -0.00280113 0.000972493 0.00172465 0.000348143 -0.000689309 -0.0011103 -0.000580004 0.000179752 0.00141048 0.00287698 0.00417733 -0.00476241 0.00270907 0.00195789 -0.0019045
internal_weight=0 604 437 48 389 313 95 218 76 46 193 153 98 77 167 147 124 90 60 55 50 45 56 40
internal_count=650 604 437 48 389 313 95 218 76 46 193 153 98 77 167 147 124 90 60 55 50 45 56 40
is_linear=0
shrinkage=0.05


Tree=32
num_leaves=24
num_cat=0
split_feature=2 0 2 1 0 1 2 1 1 2 2 1 2 2 2 1 1 1 2 1 1 0 1
split_gain=0.153485 0.186885 0.212223 0.160796 0.117649 0.204348 0.175818 0.334707 0.171369 0.353153 0.718301 0.332959 0.154742 0.152999 0.134666 0.119579 0.147854 0.116027 0.105255 0.0968171 0.085248 0.077542 0.0351918
threshold=0.067604972545369249 0.076887358847647816 0.94945623876872631 0.48322356676601835 0.90732648148578854 0.5317929471511933 0.19462317426281853 0.33619816792014229 0.55036555834892675 0.44296863085428667 0.5536630303055855 0.44696162466445333 0.27917218628668156 0.43432237909013793 0.65180050998993866 0.32394168114543148 0.16494776931517194 0.90665301641916363 0.69677566161816151 0.24041535431525776 0.60397509139984751 0.66517322577288007 0.76905024633847452
decision_type=2 2 2 2 2 2 2 2 2 2 2 2 2 2 2 2 2 2 2 2 2 2 2
left_child=3 20 4 -1 6 -6 7 -3 11 12 -11 13 -10 19 21 16 -16 18 -12 -8 -2 -15 -9
right_child=1 2 -4 -5 5 -7 8 22 9 10 17 -13 -14 14 15 -17 -18 -19 -20 -21 -22 -23 -24
leaf_value=-0.0056172400793951492 0.004948345692828298 0.0081563229096077751 -0.004527949875531098 0.00029508855760745385 0.00063797353414466254 -0.0051461547219122834 -0.0036884903122803995 -0.00073897748673334724 0.0011397988582029939 -0.0067509642139362593 0.0033909994699060919 -0.0052392897089677199 0.0066530316582066014 0.0044894705328977474 0.00052382028661668301 0.0029653708171099424 -0.0049563991938339318 0.0047396486325721656 -0.00078633272236115065 0.00021814546098226104 0.00073408363619819293 0.00054394756327383223 0.0020749454107135534
leaf_weight=23 30 21 24 23 37 26 35 25 20 31 25 35 35 33 32 20 20 28 38 29 20 20 20
leaf_count=23 30 21 24 23 37 26 35 25 20 31 25 35 35 33 32 20 20 28 38 29 20 20 20
internal_value=0 0.000335062 7.08398e-05 -0.00266108 0.000279087 -0.00174913 0.0005527 0.00294405 0.000159112 0.0013219 -0.000177667 -0.000759701 0.00464822 6.9853e-05 0.00108779 -0.000320254 -0.00158396 0.00206159 0.000871339 -0.0019183 0.00326264 0.00300059 0.000511655
internal_weight=0 604 554 46 530 63 467 66 401 177 122 224 55 189 125 72 52 91 63 64 50 53 45
internal_count=650 604 554 46 530 63 467 66 401 177 122 224 55 189 125 72 52 91 63 64 50 53 45
is_linear=0
shrinkage=0.05


Tree=33
num_leaves=24
num_cat=0
split_feature=2 0 2 1 0 1 2 1 1 2 2 1 2 2 2 1 1 1 2 1 1 0 1
split_gain=0.13852 0.168664 0.191531 0.145118 0.106178 0.184424 0.158675 0.302073 0.154661 0.318721 0.648267 0.300495 0.139655 0.138082 0.121536 0.10792 0.133438 0.104715 0.0949923 0.0873774 0.0769363 0.0699817 0.0317606
threshold=0.067604972545369249 0.076887358847647816 0.94945623876872631 0.48322356676601835 0.90732648148578854 0.5317929471511933 0.19462317426281853 0.33619816792014229 0.55036555834892675 0.44296863085428667 0.5536630303055855 0.44696162466445333 0.27917218628668156 0.43432237909013793 0.65180050998993866 0.32394168114543148 0.16494776931517194 0.90665301641916363 0.69677566161816151 0.24041535431525776 0.60397509139984751 0.66517322577288007 0.76905024633847452
decision_type=2 2 2 2 2 2 2 2 2 2 2 2 2 2 2 2 2 2 2 2 2 2 2
left_child=3 20 4 -1 6 -6 7 -3 11 12 -11 13 -10 19 21 16 -16 18 -12 -8 -2 -15 -9
right_child=1 2 -4 -5 5 -7 8 22 9 10 17 -13 -14 14 15 -17 -18 -19 -20 -21 -22 -23 -24
leaf_value=-0.0053363780207608055 0.0047009283645699429 0.0077485067503792904 -0.0043015523658444486 0.00028033411818677967 0.00060607483862219627 -0.0048888470332783002 -0.003504065804715668 -0.00070202859677374364 0.0010828090831637384 -0.0064134162032015388 0.0032214495241642003 -0.0049773251983736243 0.0063203802012971478 0.004264996900702968 0.00049762937705963848 0.0028171023260802029 -0.0047085792152211075 0.0045026662127513979 -0.00074701605756816115 0.00020723819636322304 0.00069737943878863014 0.00051675026479642845 0.00197119798976928
leaf_weight=23 30 21 24 23 37 26 35 25 20 31 25 35 35 33 32 20 20 28 38 29 20 20 20
leaf_count=23 30 21 24 23 37 26 35 25 20 31 25 35 35 33 32 20 20 28 38 29 20 20 20
internal_value=0 0.000318309 6.72978e-05 -0.00252802 0.000265133 -0.00166167 0.000525065 0.00279685 0.000151156 0.00125581 -0.000168784 -0.000721716 0.00441581 6.63604e-05 0.0010334 -0.000304242 -0.00150476 0.00195851 0.000827772 -0.00182238 0.00309951 0.00285056 0.000486072
internal_weight=0 604 554 46 530 63 467 66 401 177 122 224 55 189 125 72 52 91 63 64 50 53 45
internal_count=650 604 554 46 530 63 467 66 401 177 122 224 55 189 125 72 52 91 63 64 50 53 45
is_linear=0
shrinkage=0.05


Tree=34
num_leaves=25
num_cat=0
split_feature=2 2 0 1 2 1 2 0 0 0 1 2 2 0 0 1 1 2 2 2 0 0 2 0
split_gain=0.125014 0.153337 0.163318 0.130969 0.125792 0.174087 0.185045 0.144345 0.283338 0.124475 0.163531 0.138348 0.246211 0.365424 0.265035 0.229143 0.133966 0.407978 0.314176 0.140645 0.120044 0.117133 0.0868732 0.0211812
threshold=0.067604972545369249 0.70704062989251548 0.076887358847647816 0.48322356676601835 0.74850054389596998 0.85858851559624216 0.80731941362103099 0.29371044180889389 0.57649546373676064 0.90732648148578854 0.32731645235390577 0.5961383110376649 0.44296863085428667 0.76748089653657858 0.80691029519584967 0.58460992032208703 0.60978587552969132 0.19462317426281853 0.27917218628668156 0.30216061270095435 0.62582688589900448 0.32492962445840357 0.36849688653150059 0.46394269897666235
decision_type=2 2 2 2 2 2 2 2 2 2 2 2 2 2 2 2 2 2 2 2 2 2 2 2
left_child=3 2 -2 -1 -3 6 -6 -8 -9 11 -11 12 14 15 16 -14 17 -4 23 -19 21 -13 -21 -18
right_child=1 4 9 -5 5 -7 7 8 -10 10 -12 20 13 -15 -16 -17 18 19 -20 22 -22 -23 -24 -25
leaf_value=-0.0050695589865031448 0.0039730315349958334 -0.004706663608085364 0.0043983260455030589 0.00026631740873436565 -0.0028816405355053792 -0.0044753816626642061 -0.0013837390920768183 0.0070721384021453565 5.8538100630458869e-05 0.0015655028284527362 -0.0043541635619476441 0.0040775573856773831 0.0029863672586338177 -0.0076656941501867214 0.0060922552738338709 -0.003196921581723567 0.0009378872163194632 -0.0047967325694009888 0.0069429755560122437 0.0017136629967188293 0.0057908975822932047 -0.0010357410375339291 -0.0026361919173117105 -0.0012821400622752581
leaf_weight=23 37 20 31 23 34 23 30 24 36 20 28 21 31 21 25 29 21 34 24 22 23 24 24 22
leaf_count=23 37 20 31 23 34 23 30 24 36 20 28 21 31 21 25 29 21 34 24 22 23 24 24 22
internal_value=0 0.000302393 0.000794878 -0.00240162 -0.000986325 -0.000480157 0.000260893 0.00144807 0.00286398 0.000500899 -0.00188764 0.000826608 0.000341566 -0.00198905 0.00127151 -2.22235e-06 0.000594445 -0.000471251 0.00236 -0.00235821 0.00285238 0.00135046 -0.000555827 -0.000197941
internal_weight=0 604 437 46 167 147 124 90 60 400 48 352 284 81 203 60 178 111 67 80 68 45 46 43
internal_count=650 604 437 46 167 147 124 90 60 400 48 352 284 81 203 60 178 111 67 80 68 45 46 43
is_linear=0
shrinkage=0.05


Tree=35
num_leaves=25
num_cat=0
split_feature=0 0 1 1 2 2 1 0 2 2 2 1 1 2 1 2 0 2 1 2 0 0 2 0
split_gain=0.191132 0.158676 0.176376 0.189 0.170189 0.188866 0.131166 0.12425 0.096285 0.147173 0.248741 0.155098 0.14173 0.12354 0.0936039 0.0907314 0.0900983 0.117038 0.0713817 0.0712922 0.0639289 0.0637561 0.0588731 0.0538403
threshold=0.034777936990012366 0.79648892624982692 0.054532370873944865 0.086168213995027013 0.32704837796348257 0.64747550083202532 0.96949072842422523 0.92628833758093443 0.65180050998993866 0.27640017126387534 0.19462317426281853 0.30546363397579174 0.22048692424246233 0.87590404176910408 0.43309610482525607 0.063266321175733345 0.40309329360347868 0.46634536500565238 0.54231269536297722 0.92141131376096963 0.58788049516301555 0.54879622722197119 0.13576888237079629 0.92137331777746512
decision_type=2 2 2 2 2 2 2 2 2 2 2 2 2 2 2 2 2 2 2 2 2 2 2 2
left_child=-1 2 -2 -4 -3 23 8 -7 9 10 11 -5 -11 14 -10 -13 17 -14 -12 -15 -18 -16 -17 -6
right_child=1 4 3 6 5 7 -8 -9 13 12 18 15 16 19 21 22 20 -19 -20 -21 -22 -23 -24 -25
leaf_value=0.0047783405489532187 -0.0043490678670683076 0.0042766199300163675 0.003796836045674152 0.0039352497924119234 -0.0029787781742925293 0.0051745334640145302 0.0034364987222943455 -9.1817433990183341e-05 -0.00097437369335881064 -0.0023926459470073628 -0.0066991789532559257 -0.003801073706043618 0.0049699497365509162 0.0022096426347675531 -0.0027607755321595404 0.00218190431187395 -0.0020462800113653593 0.00086586449577129992 -0.0025253883702680471 -0.0017716295001181691 0.0013748543854388926 -0.0063868428157134493 -0.0016085902716787088 0.00027941565827599598
leaf_weight=21 28 38 27 20 32 24 20 21 34 28 21 21 32 23 27 20 22 38 20 22 36 22 21 21
leaf_count=21 28 38 27 20 32 24 20 21 34 28 21 21 32 23 27 20 22 38 20 22 36 22 21 21
internal_value=0 -7.21217e-05 -0.000497698 -0.000260168 0.00143617 0.00033477 -0.0005167 0.0027169 -0.00071096 -0.00019006 -0.00148334 0.000106587 0.000829639 -0.00184636 -0.00299012 -0.00112847 0.00153451 0.00274202 -0.00466318 0.000263243 7.71827e-05 -0.00438881 0.000240431 -0.0016878
internal_weight=0 618 482 454 136 98 427 45 407 279 123 82 156 128 83 62 128 70 41 45 58 49 41 53
internal_count=639 618 482 454 136 98 427 45 407 279 123 82 156 128 83 62 128 70 41 45 58 49 41 53
is_linear=0
shrinkage=0.05


Tree=36
num_leaves=24
num_cat=0
split_feature=0 0 1 1 2 2 1 0 0 1 1 1 0 0 0 0 1 1 0 2 0 0 0
split_gain=0.172497 0.143205 0.16065 0.212607 0.153595 0.170452 0.118377 0.112136 0.0920957 0.106379 0.245528 0.15342 0.150484 0.394847 0.128096 0.119434 0.294591 0.286925 0.125543 0.113148 0.0671283 0.0858116 0.0485908
threshold=0.034777936990012366 0.79648892624982692 0.058804156257985581 0.086168213995027013 0.32704837796348257 0.64747550083202532 0.96949072842422523 0.92628833758093443 0.076887358847647816 0.55036555834892675 0.59615999712150181 0.46023185528358795 0.30778336848694743 0.41296404789662755 0.16196397952823313 0.58788049516301555 0.20114873539751546 0.27965670900244999 0.29580479901391149 0.39719919068350595 0.69324043800210411 0.61542866237569316 0.92137331777746512
decision_type=2 2 2 2 2 2 2 2 2 2 2 2 2 2 2 2 2 2 2 2 2 2 2
left_child=-1 2 -2 -4 -3 22 8 -7 -5 11 -11 15 14 -14 -12 16 -10 -17 -18 -13 21 -15 -6
right_child=1 4 3 6 5 7 -8 -9 9 10 12 19 13 20 -16 17 18 -19 -20 -21 -22 -23 -24
leaf_value=0.0045394236321694087 -0.0039545365879612585 0.0040627889653765846 0.0043455946558727497 0.0023291853415382019 -0.0028298392418946608 0.0049158066549959282 0.0032646736898459499 -8.7226466054008125e-05 -0.0060190508108315692 0.0048246851899539644 -0.00098848268033430837 -0.0017833730182610454 -0.0074497815454378728 -0.00068344059526114853 0.0037110425692437029 0.0042650189539738771 0.001737931602371809 -0.0034091379194121276 -0.002386991006455251 -0.0071019368432462225 -0.00233394480496645 0.0033182784648878236 0.00026544477081014996
leaf_weight=21 31 38 24 24 32 24 20 21 31 23 29 20 24 37 29 29 39 21 35 20 25 21 21
leaf_count=21 31 38 24 24 32 24 20 21 31 23 29 20 24 37 29 29 39 21 35 20 25 21 21
internal_value=0 -6.85157e-05 -0.000472813 -0.000233492 0.00136436 0.000318032 -0.000490865 0.00258106 -0.000675412 -0.00086369 -1.50257e-05 -0.00168189 -0.000689652 -0.00180137 0.00136128 -0.000969434 -0.0019272 0.00104187 -0.000213045 -0.00444265 -0.000168097 0.000765458 -0.00160341
internal_weight=0 618 482 451 136 98 427 45 407 383 188 195 165 107 58 155 105 50 74 40 83 58 53
internal_count=639 618 482 451 136 98 427 45 407 383 188 195 165 107 58 155 105 50 74 40 83 58 53
is_linear=0
shrinkage=0.05


Tree=37
num_leaves=26
num_cat=0
split_feature=0 1 1 0 2 1 2 0 0 2 0 2 0 0 2 2 2 1 1 0 0 0 2 0 0
split_gain=0.155678 0.133194 0.168371 0.219287 0.185262 0.382704 0.307836 0.197024 0.463981 0.23123 0.179057 0.164532 0.164286 0.281722 0.195143 0.104473 0.103826 0.241646 0.16143 0.125771 0.0941868 0.0844825 0.0881497 0.127863 0.0357034
threshold=0.034777936990012366 0.86710065681096216 0.80348028975517882 0.96370592066562655 0.82433651046451784 0.42900335136640516 0.90619891764340166 0.90309174407835768 0.80691029519584967 0.62780422128116287 0.32492962445840357 0.30216061270095435 0.54619582544257816 0.30778336848694743 0.54309874791078272 0.43432237909013793 0.19462317426281853 0.22989066584435233 0.45458095146667776 0.52026030921717215 0.61542866237569316 0.70271212566902663 0.47011841527214238 0.45231579035142566 0.27968034282623455
decision_type=2 2 2 2 2 2 2 2 2 2 2 2 2 2 2 2 2 2 2 2 2 2 2 2 2
left_child=-1 2 3 4 7 6 -6 8 9 11 -11 16 13 -3 -14 -10 17 -2 -18 -19 -12 22 24 -24 -13
right_child=1 12 -4 -5 5 -7 -8 -9 15 10 20 21 14 -15 -16 -17 18 19 -20 -21 -22 -23 23 -25 -26
leaf_value=0.0043124523080353234 0.0035797154375662409 0.0027081397393097484 -0.0036394905273777409 0.0047371395948258323 0.003813079008832574 0.007464119614186613 -0.0047578553838486023 -0.00498500879173382 0.0019463120377622547 -0.00067175126544410187 -0.0078389008084069119 0.0045464439532952386 0.0068834574582676104 -0.0048427050024093619 0.00063117205863818528 0.0069957171821789371 -0.0069594743568450225 -0.0044988203089639184 -0.0010327531576708512 0.00058686972595751292 -0.0031473082327283923 -0.0020664857057411047 -0.0017810605155924959 0.0030572463282045317 0.0018534428945713444
leaf_weight=21 24 30 37 22 20 22 22 26 20 31 23 20 24 21 26 21 20 31 27 20 20 21 36 22 32
leaf_count=21 24 30 37 22 20 22 22 26 20 31 23 20 24 21 26 21 20 31 27 20 20 21 36 22 32
internal_value=0 -6.50899e-05 -0.000389529 -0.000139011 -0.000373236 0.00212187 -0.000676458 -0.000778532 -0.000481336 -0.00110999 -0.00356845 -0.000390919 0.00159565 -0.000401032 0.00363227 0.00453259 -0.00171219 -0.000557505 -0.00355476 -0.00250443 -0.00565676 0.000839573 0.00139437 5.41593e-05 0.00288921
internal_weight=0 618 517 480 458 64 42 394 368 327 74 253 101 51 50 41 122 75 47 51 43 131 110 58 52
internal_count=639 618 517 480 458 64 42 394 368 327 74 253 101 51 50 41 122 75 47 51 43 131 110 58 52
is_linear=0
shrinkage=0.05


Tree=38
num_leaves=27
num_cat=0
split_feature=0 1 1 0 2 2 1 2 0 0 2 0 1 1 1 2 1 1 1 1 2 0 1 2 0 0
split_gain=0.145217 0.149107 0.186468 0.206005 0.161741 0.140947 0.286792 0.289715 0.170971 0.435203 0.182132 0.170114 0.120485 0.209824 0.124064 0.200614 0.246628 0.124795 0.223574 0.228222 0.0942873 0.0850036 0.0507995 0.0456096 0.0349205 0.0269655
threshold=0.076887358847647816 0.86710065681096216 0.80348028975517882 0.96370592066562655 0.75788171793127324 0.82433651046451784 0.42900335136640516 0.90619891764340166 0.90309174407835768 0.80691029519584967 0.62780422128116287 0.32492962445840357 0.073430407394807676 0.1414481073678783 0.2120450520334741 0.09603489201505451 0.32394168114543148 0.67763275433013692 0.52038144048883939 0.44696162466445333 0.43432237909013793 0.61542866237569316 0.96105535537636955 0.47923360231832307 0.58008752125363305 0.47571803699640969
decision_type=2 2 2 2 2 2 2 2 2 2 2 2 2 2 2 2 2 2 2 2 2 2 2 2 2 2
left_child=23 2 3 5 22 8 7 -7 9 10 12 -12 -2 -14 -15 -16 -17 18 19 -18 -11 -13 24 -1 -3 -20
right_child=1 4 -4 -5 -6 6 -8 -9 -10 20 11 21 13 14 15 16 17 -19 25 -21 -22 -23 -24 -25 -26 -27
leaf_value=0.001068450022569817 -0.0038683581359994913 0.0049223165797929354 -0.0039576785638928413 0.0045002826404842459 -0.002217792985694749 0.0036224249470978979 0.0065009378961154406 -0.0047861506231129175 -0.0047357583687139245 0.0018489964725449681 -0.00036602287021066462 -0.0074469557760850251 0.0042720044933957984 -0.0042207780040123249 -0.0042583877489400599 0.0055197443269814055 -0.0019634764408692717 0.0024314032029360538 -0.0026079566927538034 0.0051408988347975545 0.0066459313500672581 -0.0029899428272619844 0.00084978546462176991 0.0041250976037610181 0.0023051064759492877 -0.0051128391176462175
leaf_weight=23 24 26 36 22 21 20 21 21 26 20 28 23 24 22 26 21 26 30 21 20 21 20 24 26 25 22
leaf_count=23 24 26 36 22 21 20 21 21 26 20 28 23 24 22 26 21 26 30 21 20 21 20 24 26 25 22
internal_value=0 -0.000142386 -0.000492787 -0.000220438 0.00166072 -0.000458639 0.00174934 -0.000684406 -0.000824667 -0.00053246 -0.00117863 -0.00339898 -0.000510648 -0.00013053 -0.000692555 -0.00022496 0.000524105 -0.000357478 -0.00129755 0.00112538 0.00430596 -0.00537393 0.0027467 0.00269034 0.00363937 -0.00388952
internal_weight=0 590 494 458 96 436 62 41 374 348 307 71 236 212 188 166 140 119 89 46 41 43 75 49 51 43
internal_count=639 590 494 458 96 436 62 41 374 348 307 71 236 212 188 166 140 119 89 46 41 43 75 49 51 43
is_linear=0
shrinkage=0.05


Tree=39
num_leaves=24
num_cat=0
split_feature=0 1 1 0 1 0 0 1 1 0 0 0 0 2 2 1 2 2 1 0 2 2 2
split_gain=0.13109 0.114907 0.128034 0.104639 0.161774 0.258604 0.411911 0.147788 0.171456 0.116102 0.0793005 0.114423 0.216019 0.0915712 0.111658 0.147231 0.067305 0.322673 0.14889 0.157399 0.181286 0.0898164 0.0812188
threshold=0.034777936990012366 0.93518663752703701 0.96105535537636955 0.80691029519584967 0.61140600447710669 0.90309174407835768 0.96370592066562655 0.054532370873944865 0.086168213995027013 0.89554303831401971 0.076887358847647816 0.11992201760184097 0.17702523702330478 0.87590404176910408 0.71563784702004085 0.44696162466445333 0.27640017126387534 0.19462317426281853 0.22048692424246233 0.32344108421249951 0.5536630303055855 0.09603489201505451 0.43432237909013793
decision_type=2 2 2 2 2 2 2 2 2 2 2 2 2 2 2 2 2 2 2 2 2 2 2
left_child=-1 3 -3 7 5 -5 -7 -2 -9 -6 -10 -12 -13 14 16 -16 17 21 -18 -20 22 -14 -21
right_child=1 2 -4 4 9 6 -8 8 10 -11 11 12 13 -15 15 -17 18 -19 19 20 -22 -23 -24
leaf_value=0.0039560745120979851 -0.0040825463157018712 0.0048621534418392311 -2.2261621310345589e-06 0.0053902261173100893 -0.0042786765703931454 -0.004727234290718722 0.0048615356818551107 0.003461940696945897 0.0021232590700189275 0.0011088514962466435 -0.003914691032176571 0.0033880912518549351 -0.0014619298848427007 0.0014910625434960381 -0.00056307623162865639 -0.0064905225002968858 -0.0034717403990389023 -0.0061613203274707004 0.0046833951212465769 -4.3385784590133916e-05 -0.0027742669595262181 0.0023946804737743853 0.0040492503438144924
leaf_weight=21 29 24 31 37 20 24 21 27 24 20 28 31 36 33 20 22 27 30 20 27 39 26 22
leaf_count=21 29 24 31 37 20 24 21 27 24 20 28 31 36 33 20 22 27 30 20 27 39 26 22
internal_value=0 -6.09213e-05 0.00212041 -0.000274018 0.00102197 0.00229362 -0.000252475 -0.000632545 -0.000389705 -0.00158491 -0.000659821 -0.000844846 -0.000586721 -0.000994731 -0.00129968 -0.00366793 -0.000861501 -0.00190443 -0.000150766 0.000679478 -0.000230504 0.000155358 0.00179412
internal_weight=0 618 55 563 122 82 45 441 412 40 385 361 333 302 269 42 227 92 135 108 88 62 49
internal_count=639 618 55 563 122 82 45 441 412 40 385 361 333 302 269 42 227 92 135 108 88 62 49
is_linear=0
shrinkage=0.05


Tree=40
num_leaves=26
num_cat=0
split_feature=0 2 0 1 1 0 1 0 0 0 1 1 0 2 2 0 0 1 0 2 2 0 2 2 1
split_gain=0.153194 0.229953 0.18746 0.158754 0.145902 0.132999 0.114866 0.244918 0.140797 0.210292 0.15058 0.120064 0.110336 0.215296 0.223303 0.152713 0.105878 0.0913178 0.0895991 0.0867746 0.0833945 0.16826 0.0448592 0.0338295 0.0206765
threshold=0.24831627248397917 0.92607806903413548 0.20551010045117749 0.95378059241613855 0.88614094463929549 0.15995234991481774 0.56243996933608209 0.59046638825472286 0.80691029519584967 0.88937671084327186 0.24203354792170237 0.84586428676006931 0.34420177105110522 0.63394669981629104 0.54603735447699975 0.6690298009605522 0.57649546373676064 0.8347510135274635 0.076887358847647816 0.48333504699992641 0.60588589331395648 0.76748089653657858 0.53320943926382858 0.20319954663151615 0.27965670900244999
decision_type=2 2 2 2 2 2 2 2 2 2 2 2 2 2 2 2 2 2 2 2 2 2 2 2 2
left_child=2 3 4 6 5 18 8 17 12 -10 -11 20 -2 14 15 23 -15 22 -1 -20 21 -9 -8 -14 -25
right_child=1 -3 -4 -5 -6 -7 7 11 9 10 -12 -13 13 16 -16 -17 -18 -19 19 -21 -22 -23 -24 24 -26
leaf_value=0.00077984460916083595 0.0029461655759119563 -0.0039011880530622498 -0.0058875339367659768 0.0040863732021534814 -0.004675571576226503 0.0027602525953684125 0.001502395212827694 0.0012867056205868722 0.0067953760153613985 -0.0020921848193254499 0.0037053626651565234 0.00053054321366029656 0.002798687279224396 -0.0058684014494065203 0.005606002502498173 -0.0027326474578252863 -0.00084182794036513024 -0.00078289877299381335 -0.0002678742650896311 -0.0043559228001093424 -0.0059792445529074896 -0.0047640938742983122 0.0047705384592215223 0.001639162627980113 -0.0005821327509527857
leaf_weight=39 35 29 20 32 20 31 21 20 24 21 24 28 25 20 21 35 22 23 25 27 21 27 21 20 22
leaf_count=39 35 29 20 32 20 31 21 20 24 21 24 28 25 20 21 35 22 23 25 27 21 27 21 20 22
internal_value=0 0.000417689 -0.00135548 0.000688788 -0.000717158 -6.82377e-05 0.000435944 -0.000620375 0.00106816 0.00301568 0.000999841 -0.00222506 0.000396272 -0.000144614 0.000910788 -5.5874e-05 -0.00323543 0.00174961 -0.00103179 -0.00239051 -0.00335971 -0.00218929 0.00313647 0.00134244 0.000475627
internal_weight=0 491 162 462 142 122 430 161 269 69 45 96 200 165 123 102 42 65 91 52 68 47 42 67 42
internal_count=653 491 162 462 142 122 430 161 269 69 45 96 200 165 123 102 42 65 91 52 68 47 42 67 42
is_linear=0
shrinkage=0.05


Tree=41
num_leaves=26
num_cat=0
split_feature=0 2 0 1 1 0 0 1 1 1 0 1 1 2 2 0 0 2 0 1 2 2 1 2 0
split_gain=0.138258 0.20844 0.169182 0.15157 0.155958 0.134443 0.176513 0.131676 0.127212 0.259749 0.120032 0.115862 0.105812 0.0894714 0.165254 0.159425 0.0854366 0.0843059 0.146864 0.0867932 0.0744991 0.0927158 0.0479238 0.0347533 0.134011
threshold=0.24831627248397917 0.92141131376096963 0.20551010045117749 0.90665301641916363 0.83115990205378243 0.9532188898287236 0.54246664432504843 0.88614094463929549 0.30546363397579174 0.071433783862780389 0.15995234991481774 0.66181615764048418 0.16494776931517194 0.59964799862498241 0.41620321565314022 0.72235952355858235 0.61542866237569316 0.5411397123727596 0.080591163021819137 0.5714630301043887 0.60996128731512866 0.37400309425614331 0.58927497870358181 0.64747550083202532 0.39313446385054723
decision_type=2 2 2 2 2 2 2 2 2 2 2 2 2 2 2 2 2 2 2 2 2 2 2 2 2
left_child=2 3 7 4 5 6 11 10 9 -8 17 12 -2 14 15 -10 -5 19 -19 -1 21 -11 -15 24 -14
right_child=1 -3 -4 16 -6 -7 8 -9 13 20 -12 -13 23 22 -16 -17 -18 18 -20 -21 -22 -23 -24 -25 -26
leaf_value=-0.0049857350066304209 0.0033735269835839668 -0.0035048697871388869 -0.0055931572755798702 0.0057865513314027343 -0.0027948339417990711 0.0044430006294119686 -0.0039183156620267601 -0.0044417930464260283 0.00087109445766718301 0.0032225362394518891 0.0026222398865126794 0.0049926506627040604 -0.0035982343156568033 -0.004902166192946227 0.0029625550940788042 -0.0043458640982862564 0.001594938110665387 0.0031142245228402317 -0.00248715617609295 -0.0005259025638224557 0.0050010646178270694 -0.0011398406211464178 -0.0015555874723941088 0.0015728364204987883 0.0017040493665263058
leaf_weight=20 36 32 20 20 36 22 21 20 27 29 31 24 22 23 24 32 31 25 22 24 20 21 20 25 26
leaf_count=20 36 32 20 20 36 22 21 20 27 29 31 24 22 23 24 32 31 25 22 24 20 21 20 25 26
internal_value=0 0.000396805 -0.0012877 0.000668817 0.00034758 0.000651685 0.000413374 -0.0006813 -0.00046569 0.00095883 -6.48258e-05 0.00184764 0.00115516 -0.00149451 -0.000535503 -0.00195844 0.00323871 -0.0009802 0.000492302 -0.0025531 0.00242197 0.00139034 -0.00334562 6.11649e-05 -0.000726164
internal_weight=0 491 162 459 408 372 350 142 217 91 122 133 109 126 83 59 51 91 47 44 70 50 43 73 48
internal_count=653 491 162 459 408 372 350 142 217 91 122 133 109 126 83 59 51 91 47 44 70 50 43 73 48
is_linear=0
shrinkage=0.05


Tree=42
num_leaves=25
num_cat=0
split_feature=0 2 0 1 1 0 1 0 0 0 1 0 2 0 2 0 0 0 2 2 0 1 2 2
split_gain=0.124777 0.188267 0.152687 0.132286 0.118838 0.108329 0.101623 0.212674 0.128092 0.196876 0.138104 0.100632 0.190681 0.103934 0.10786 0.0910943 0.0772204 0.14853 0.112708 0.0760861 0.132545 0.0783308 0.0459137 0.0657065
threshold=0.24831627248397917 0.92607806903413548 0.20551010045117749 0.95378059241613855 0.88614094463929549 0.15995234991481774 0.56243996933608209 0.77679718121358088 0.80691029519584967 0.88937671084327186 0.24203354792170237 0.34420177105110522 0.73154300604784728 0.65832136686327358 0.35507580200852523 0.86851634595127247 0.45929126232212403 0.35118084389680781 0.51112909978761312 0.5411397123727596 0.080591163021819137 0.5714630301043887 0.43432237909013793 0.20319954663151615
decision_type=2 2 2 2 2 2 2 2 2 2 2 2 2 2 2 2 2 2 2 2 2 2 2 2
left_child=2 3 4 6 5 19 8 16 11 -10 -11 -2 13 22 -15 -9 17 -8 -18 21 -21 -1 23 -13
right_child=1 -3 -4 -5 -6 -7 7 15 9 10 -12 12 -14 14 -16 -17 18 -19 -20 20 -22 -23 -24 -25
leaf_value=-0.0047364482260309169 0.002780432486906648 -0.0035308851603547049 -0.0053134993906132875 0.0037237148855638227 -0.0042197032971307636 0.0024911279294399487 -0.0010226095095276833 -0.0059676275146193806 0.0065008368420725066 -0.0020679579914680553 0.0034842294175177813 0.0028446081350684046 -0.0039310874567101044 -0.0034352126925324016 0.0010767949814045872 -0.0015494586026761682 0.0015546117991428166 0.0047583366744220262 -0.0025165959836586436 0.0029585132496431472 -0.0023627983829514546 -0.00049960761001178371 0.0032593777143241215 -0.00068256214801822946
leaf_weight=20 35 29 20 32 20 31 20 20 24 21 24 23 28 26 27 28 34 25 34 25 22 24 30 31
leaf_count=20 35 29 20 32 20 31 20 20 24 21 24 23 28 26 27 28 34 25 34 25 22 24 30 31
internal_value=0 0.000376964 -0.00122332 0.000622262 -0.000647235 -6.15845e-05 0.000391457 -0.000602103 0.000986115 0.00284369 0.000893209 0.000345253 -0.000171301 0.000597123 -0.00113664 -0.00339036 0.00058229 0.00218903 -0.000480992 -0.00093119 0.000467687 -0.00242544 0.00169105 0.000819751
internal_weight=0 491 162 462 142 122 430 161 269 69 45 200 165 137 53 48 113 45 68 91 47 44 84 54
internal_count=653 491 162 462 142 122 430 161 269 69 45 200 165 137 53 48 113 45 68 91 47 44 84 54
is_linear=0
shrinkage=0.05


Tree=43
num_leaves=26
num_cat=0
split_feature=0 2 0 1 1 0 0 1 1 1 0 1 1 0 0 2 2 0 2 0 1 1 1 0 1
split_gain=0.112612 0.169911 0.1378 0.123951 0.133872 0.122785 0.170418 0.107251 0.0988457 0.111811 0.0977667 0.0957487 0.213678 0.0986046 0.0789792 0.0775496 0.147346 0.143741 0.0686677 0.119622 0.0706936 0.0474519 0.0340292 0.064254 0.016779
threshold=0.24831627248397917 0.92607806903413548 0.20551010045117749 0.90665301641916363 0.83115990205378243 0.9532188898287236 0.54246664432504843 0.88614094463929549 0.66181615764048418 0.16494776931517194 0.15995234991481774 0.30546363397579174 0.071433783862780389 0.69956542273943267 0.61542866237569316 0.59964799862498241 0.41620321565314022 0.72235952355858235 0.5411397123727596 0.080591163021819137 0.5714630301043887 0.58927497870358181 0.52038144048883939 0.39313446385054723 0.19960811654375246
decision_type=2 2 2 2 2 2 2 2 2 2 2 2 2 2 2 2 2 2 2 2 2 2 2 2 2
left_child=2 3 7 4 5 6 8 10 9 -2 18 12 -8 -14 -5 16 17 -13 20 -20 -1 -17 23 -11 -15
right_child=1 -3 -4 14 -6 -7 11 -9 -10 22 -12 15 13 24 -16 21 -18 -19 19 -21 -22 -23 -24 -25 -26
