tree
version=v4
num_class=1
num_tree_per_iteration=1
label_index=0
max_feature_idx=4
objective=regression
feature_names=Column_0 Column_1 Column_2 Column_3 Column_4
feature_infos=[0.00022703821825553749:0.9955689004906878] [3.0718845382415871e-05:0.99971767328613059] [1.1634755366141114e-05:0.99889261203329061] none none
tree_sizes=2098 2210 2302 2308 2318 2218 2227 2314 2299 2219 2312 2400 2400 2397 2324 2405 2322 2226 2232 2323 2304 2313 2230 2233 2145 2390 2395 2228 2398 2149 2390 2389 2220 2315 2306 2321 2320 2403 2144 2320 2317 2316 2318 2232 2410 2220 2224 2128 2321 2147 2314 2316 2325 2398 2323 2414 2160 2410 2323 2420 2235 2332 2329 2334 2328 2420 2242 2335 2324 2423 2230 2151 2237 2423 2230 2336 2248 2333 2347 2254 2332 2421 2424 2429 2337 2428 2337 2254 2345 2424 2145 2243 2244 2330 2330 2409 2502 2329 2502 2346

Tree=0
num_leaves=24
num_cat=0
split_feature=0 2 1 1 1 0 2 1 2 0 1 0 1 1 1 2 1 1 0 0 2 1 2
split_gain=0.874757 0.516637 0.96784 0.521028 0.484842 0.582028 0.355109 0.340452 0.305022 0.299299 0.289074 0.30178 0.229621 0.264902 0.248446 0.207584 0.180823 0.166686 0.160027 0.153597 0.138119 0.136812 0.056464
threshold=0.092808061437249692 0.21354969136169846 0.18108011587978631 0.92961445567101997 0.30546363397579174 0.51893516862781053 0.66420674679763703 0.57851758584446678 0.09603489201505451 0.26889550973264797 0.38404896717950587 0.88937671084327186 0.59521747041658546 0.73209270514669822 0.39269433264993198 0.097877347395314243 0.27023233105499006 0.71912384172825472 0.67755508351302918 0.39520730645173147 0.57369740056633489 0.1034364601312472 0.43888261791166944
decision_type=2 2 2 2 2 2 2 2 2 2 2 2 2 2 2 2 2 2 2 2 2 2 2
left_child=20 2 -2 6 -4 15 7 10 -7 -9 11 18 14 -14 16 -6 21 -11 19 -3 -1 -8 -12
right_child=1 3 4 -5 5 8 12 9 -10 17 22 -13 13 -15 -16 -17 -18 -19 -20 -21 -22 -23 -24
leaf_value=0.50078507969767894 0.51180891877621681 0.50395248763401468 0.49329559084355423 0.5115679209780587 0.5096954683503282 0.50192661600161281 0.50200334233277921 0.50382410092373897 0.49433900594376051 0.51377154493053967 0.50328794325865467 0.51192942952598963 0.49612290601500719 0.50323208978580003 0.50845539119159155 0.50302596523055398 0.49919678972064241 0.50854147975009723 0.50164323573793812 0.50881415690164211 0.49619143882967665 0.50723843713600492 0.49987553717366773
leaf_weight=36 22 32 20 34 20 27 24 22 26 25 27 20 20 38 31 28 21 39 24 33 30 26 22
leaf_count=36 22 32 20 34 20 27 24 22 26 25 27 20 20 38 31 28 21 39 24 33 30 26 22
internal_value=0.504454 0.504771 0.502162 0.505623 0.500408 0.501817 0.505123 0.506324 0.498204 0.508855 0.504946 0.50638 0.503293 0.500781 0.504721 0.505805 0.50309 0.510584 0.505132 0.506421 0.498697 0.504726 0.501756
internal_weight=0 581 143 438 121 101 404 244 53 86 158 109 160 58 102 48 71 64 89 65 66 50 49
internal_count=647 581 143 438 121 101 404 244 53 86 158 109 160 58 102 48 71 64 89 65 66 50 49
is_linear=0
shrinkage=1


Tree=1
num_leaves=24
num_cat=0
split_feature=0 2 1 1 1 0 2 2 1 1 2 0 0 0 1 1 1 1 1 1 2 1 2
split_gain=0.789468 0.466265 0.873476 0.470228 0.43757 0.52528 0.320486 0.32943 0.403296 0.300994 0.275282 0.251495 0.221528 0.251909 0.207233 0.239074 0.224223 0.203178 0.163192 0.15784 0.124653 0.123473 0.115267
threshold=0.092808061437249692 0.21354969136169846 0.18108011587978631 0.92961445567101997 0.30546363397579174 0.51893516862781053 0.66420674679763703 0.62780422128116287 0.5714630301043887 0.33095075830495924 0.09603489201505451 0.26889550973264797 0.39520730645173147 0.64318638285141716 0.59521747041658546 0.73209270514669822 0.39269433264993198 0.73209270514669822 0.27023233105499006 0.71912384172825472 0.57369740056633489 0.1034364601312472 0.43888261791166944
decision_type=2 2 2 2 2 2 2 2 2 2 2 2 2 2 2 2 2 2 2 2 2 2 2
left_child=20 2 -2 6 -4 17 7 8 9 12 -7 -10 -3 -14 16 -16 18 -6 21 -13 -1 -8 -11
right_child=1 3 4 -5 5 10 14 -9 11 22 -12 19 13 -15 15 -17 -18 -19 -20 -21 -22 -23 -24
leaf_value=-0.0034851480171912246 0.0069874990943141965 -0.0026958374853205424 -0.010600162566406654 0.0067585512516362706 0.0040330155153891871 -0.0024006887166588397 -0.0023277984951467563 0.0076124821704897016 -0.00041450508262800135 -0.0014389715669676662 -0.0096089180845480709 0.0089818382473743474 0.0073405425656925555 0.00064920766446261834 -0.0079142130538821225 -0.0011604883928636187 0.0038016478936638565 -0.0025653300806879999 -0.0049940233606667744 0.0036497913087493675 -0.0078491068646932647 0.002645541591426501 -0.0060576237547634686
leaf_weight=36 22 23 20 34 28 27 24 22 23 35 26 23 22 39 20 38 31 20 21 35 30 26 22
leaf_count=36 22 23 20 34 28 27 24 22 23 35 26 23 22 39 20 38 31 20 21 35 30 26 22
internal_value=0 0.000301948 -0.002177 0.00111128 -0.00384327 -0.00250527 0.000636019 0.0017764 0.00119805 -0.000417198 -0.0059368 0.00400977 0.00148579 0.00306248 -0.00110306 -0.00348936 0.000253858 0.0012837 -0.00129518 0.00576422 -0.00546877 0.000258338 -0.00322161
internal_weight=0 581 143 438 121 101 404 244 222 141 53 81 84 61 160 58 102 48 71 58 66 50 57
internal_count=647 581 143 438 121 101 404 244 222 141 53 81 84 61 160 58 102 48 71 58 66 50 57
is_linear=0
shrinkage=0.05


Tree=2
num_leaves=25
num_cat=0
split_feature=0 2 1 1 1 0 2 2 1 1 2 0 0 0 0 1 2 2 2 0 0 1 2 2
split_gain=0.712495 0.420804 0.788312 0.424381 0.394907 0.474065 0.289239 0.29731 0.363975 0.271647 0.248442 0.226974 0.199929 0.227347 0.1927 0.320042 0.185121 0.161219 0.148519 0.250786 0.241336 0.14245 0.112499 0.104029
threshold=0.092808061437249692 0.21354969136169846 0.18108011587978631 0.92961445567101997 0.30546363397579174 0.51893516862781053 0.66420674679763703 0.62780422128116287 0.5714630301043887 0.33095075830495924 0.09603489201505451 0.26889550973264797 0.39520730645173147 0.64318638285141716 0.20838448957559555 0.81179918026152931 0.097877347395314243 0.91496256136883558 0.84977182634260739 0.75701724198206799 0.48111714911916637 0.71912384172825472 0.57369740056633489 0.43888261791166944
decision_type=2 2 2 2 2 2 2 2 2 2 2 2 2 2 2 2 2 2 2 2 2 2 2 2
left_child=22 2 -2 6 -4 16 7 8 9 12 -7 -10 -3 -14 -8 17 -6 18 19 20 -16 -13 -1 -11
right_child=1 3 4 -5 5 10 14 -9 11 23 -12 21 13 -15 15 -17 -18 -19 -20 -21 -22 -23 -24 -25
leaf_value=-0.0033108905889093878 0.0066381243650208829 -0.0025610457538910534 -0.01007015435374342 0.0064206239007249038 0.0048935416899621486 -0.00228065419252272 0.0034163478052332292 0.0072318579832261259 -0.00039377970540005231 -0.0013670230131330235 -0.0091284722233047864 0.0085327460147116493 0.0069735151461579594 0.00061674722924064378 -0.0019495362394351375 -0.0071104069971704084 -0.0014047814632898994 0.0030941975545947971 -0.0052808040043427831 -0.0052601177338510753 0.0048680558651685718 0.0034673020250297021 -0.007456651550407211 -0.0057547426105222926
leaf_weight=36 22 23 20 34 20 27 21 22 23 35 26 23 22 39 27 23 28 23 21 20 25 35 30 22
leaf_count=36 22 23 20 34 20 27 21 22 23 35 26 23 22 39 27 23 28 23 21 20 25 35 30 22
internal_value=0 0.00028685 -0.00206815 0.00105572 -0.00365111 -0.00238001 0.000604218 0.00168758 0.00113814 -0.000396338 -0.00563996 0.00380928 0.00141151 0.00290935 -0.00104791 -0.00172236 0.00121952 -0.000654041 -0.00158102 -0.000501923 0.00132815 0.00547601 -0.00519533 -0.00306053
internal_weight=0 581 143 438 121 101 404 244 222 141 53 81 84 61 160 139 48 116 93 72 52 58 66 57
internal_count=647 581 143 438 121 101 404 244 222 141 53 81 84 61 160 139 48 116 93 72 52 58 66 57
is_linear=0
shrinkage=0.05


Tree=3
num_leaves=25
num_cat=0
split_feature=0 2 1 1 1 0 2 2 1 1 2 0 1 0 0 0 1 2 1 1 1 2 2 0
split_gain=0.643027 0.379775 0.711451 0.383003 0.356404 0.427844 0.261038 0.268322 0.328487 0.245162 0.224219 0.204844 0.181269 0.180436 0.205181 0.173912 0.288838 0.145501 0.13557 0.204237 0.128561 0.10153 0.093886 0.0764319
threshold=0.092808061437249692 0.21354969136169846 0.18108011587978631 0.92961445567101997 0.30546363397579174 0.51893516862781053 0.66420674679763703 0.62780422128116287 0.5714630301043887 0.33095075830495924 0.09603489201505451 0.26889550973264797 0.73209270514669822 0.39520730645173147 0.64318638285141716 0.20838448957559555 0.81179918026152931 0.91496256136883558 0.39269433264993198 0.60124968191877171 0.71912384172825472 0.57369740056633489 0.43888261791166944 0.44207022780542182
decision_type=2 2 2 2 2 2 2 2 2 2 2 2 2 2 2 2 2 2 2 2 2 2 2 2
left_child=21 2 -2 6 -4 12 7 8 9 13 -7 -10 -6 -3 -15 -8 17 18 23 -20 -13 -1 -11 -17
right_child=1 3 4 -5 5 10 15 -9 11 22 -12 20 -14 14 -16 16 -18 -19 19 -21 -22 -23 -24 -25
leaf_value=-0.0031453461334523232 0.0063062179833650589 -0.0024329935888881271 -0.0095666467287810527 0.0060995923134375034 0.0037553931220567654 -0.0021666214214982808 0.0032455301887932275 0.0068702649748460815 -0.00037409067153930668 -0.0012986719934269786 -0.0086720483950697459 0.0081061089006455051 -0.0024770451523363594 0.0066248397681523451 0.00058590999255195644 -0.0055912055235932626 -0.0067548865343585772 0.0029394877284927216 0.0039191182829778305 -0.0028939244845374067 0.0032939366743500748 -0.0070838189800269905 -0.0054670055481520572 -0.0016008036078086923
leaf_weight=36 22 23 20 34 28 27 21 22 23 35 26 23 20 22 39 21 23 23 22 22 35 30 22 28
leaf_count=36 22 23 20 34 28 27 21 22 23 35 26 23 20 22 39 21 23 23 22 22 35 30 22 28
internal_value=0 0.000272508 -0.00196474 0.00100293 -0.00346855 -0.00226101 0.000574007 0.0016032 0.00108124 -0.000376521 -0.00535796 0.00361882 0.00115854 0.00134093 0.00276388 -0.00099551 -0.00163624 -0.000621339 -0.00150197 0.000512597 0.00520221 -0.00493556 -0.0029075 -0.00331098
internal_weight=0 581 143 438 121 101 404 244 222 141 53 81 48 84 61 160 139 116 93 44 58 66 57 49
internal_count=647 581 143 438 121 101 404 244 222 141 53 81 48 84 61 160 139 116 93 44 58 66 57 49
is_linear=0
shrinkage=0.05


Tree=4
num_leaves=25
num_cat=0
split_feature=0 2 1 1 1 2 0 1 1 0 0 2 1 1 1 2 0 0 0 1 0 2 1 0
split_gain=0.580332 0.342747 0.642085 0.345661 0.321654 0.398977 0.364453 0.246938 0.191562 0.291597 0.206483 0.395301 0.188646 0.395242 0.26801 0.199812 0.162282 0.153287 0.150892 0.353006 0.142876 0.0916311 0.0844442 0.0509361
threshold=0.092808061437249692 0.21354969136169846 0.18108011587978631 0.92961445567101997 0.30546363397579174 0.1711004386261826 0.51893516862781053 0.87722051707551396 0.73209270514669822 0.35660894259917458 0.87927230654108635 0.29580030993004353 0.60124968191877171 0.46023185528358795 0.33095075830495924 0.42982101342999746 0.67755508351302918 0.55019312646643759 0.44207022780542182 0.13558858537764021 0.93085301055527137 0.57369740056633489 0.39166279087574657 0.72621364086478624
decision_type=2 2 2 2 2 2 2 2 2 2 2 2 2 2 2 2 2 2 2 2 2 2 2 2
left_child=21 2 -2 7 -4 6 -6 8 10 -10 11 -3 13 14 15 -13 18 -15 19 -17 -12 -1 -16 -8
right_child=1 3 4 -5 5 -7 23 -9 9 -11 20 12 -14 17 22 16 -18 -19 -20 -21 -22 -23 -24 -25
leaf_value=-0.0029880787045436191 0.0059909073000943124 0.0055679555085522163 -0.0090883143711835146 0.0057946129818446934 0.0032775165797728628 -0.0077768531007071338 -0.0054226938122883444 -0.0041680779845382166 0.0080484831684523011 0.00074191842900796071 0.0064580321797014523 -0.0044665385392450149 -0.0040966309556687208 0.0071556417448889647 -0.0067909120119028638 -0.0031209250429162275 -0.0023685835025928641 0.0010393260139971972 0.0058635391155257826 0.0054113690487363128 0.0011165670419652615 -0.0067296278694023689 -0.0025023002177476886 -0.0018969567891742502
leaf_weight=36 22 27 20 34 36 24 20 26 22 36 21 21 37 21 22 27 27 20 20 22 31 30 24 21
leaf_count=36 22 27 20 34 36 24 20 26 22 36 21 21 37 21 22 27 27 20 20 22 31 30 24 21
internal_value=0 0.000258882 -0.0018665 0.000952787 -0.00329513 -0.00214796 -0.000393498 0.000545307 0.000869508 0.00351337 0.000390307 -0.000169157 -0.000811904 -0.000216144 -0.00131993 -4.86593e-05 0.000917752 0.00417207 0.00220371 0.000709901 0.0032737 -0.00468878 -0.00455338 -0.00361683
internal_weight=0 581 143 438 121 101 77 404 378 58 320 268 241 204 163 117 96 41 69 49 52 66 46 41
internal_count=647 581 143 438 121 101 77 404 378 58 320 268 241 204 163 117 96 41 69 49 52 66 46 41
is_linear=0
shrinkage=0.05


Tree=5
num_leaves=24
num_cat=0
split_feature=0 0 0 0 0 2 1 0 1 1 0 2 2 2 0 1 1 1 1 2 2 0 2
split_gain=0.38186 0.428455 0.212761 0.560075 0.478261 0.318383 0.324548 0.484162 0.296017 0.449177 0.252299 0.251702 0.223038 0.223315 0.241797 0.217227 0.166575 0.495968 0.47961 0.184545 0.160497 0.151299 0.0466741
threshold=0.062157261419219963 0.030038731041998449 0.67755508351302918 0.61131648289907392 0.72621364086478624 0.37400309425614331 0.69658594306659671 0.88937671084327186 0.85858851559624216 0.78329281664723227 0.37586872993544634 0.17640002404657826 0.078095226641054408 0.29868641193376255 0.33280733236798155 0.066739931763741059 0.55426602751359721 0.43309610482525607 0.33095075830495924 0.70704062989251548 0.642426705250987 0.34916345302814911 0.5536630303055855
decision_type=2 2 2 2 2 2 2 2 2 2 2 2 2 2 2 2 2 2 2 2 2 2 2
left_child=1 -1 3 8 -4 11 7 20 9 12 -10 -6 -2 14 -14 -15 17 18 19 -17 -7 -18 -5
right_child=2 -3 4 22 5 6 -8 -9 10 -11 -12 -13 13 15 -16 16 21 -19 -20 -21 -22 -23 -24
leaf_value=0.00075067474681418396 -0.0042298896653253744 -0.0093609484759244049 -0.0065210703032789752 0.0046707156215510933 0.001073145226109773 -0.00092794407074424368 0.0053583939344837121 0.0040270322726832499 -0.0058432919235201558 0.0082464682124555114 0.0012098184986306089 -0.005574990590768201 0.0065269276965409517 -0.0045258936664575476 0.00038032599622397358 0.00031068773336104445 -0.0048576344862918961 0.0084228784613184296 -0.0053787117740804599 0.0059403138933703309 -0.0071166849171277139 0.0011511469818651675 0.007856080490771843
leaf_weight=20 23 22 32 23 24 22 39 36 32 20 21 35 32 23 32 37 22 22 28 24 20 20 23
leaf_count=20 23 22 32 23 24 22 39 36 32 20 21 35 32 23 32 37 22 22 28 24 20 20 23
internal_value=0 -0.00454589 0.00038846 0.00108909 -0.000898276 0.00012405 0.00163421 -0.000227889 0.000380704 0.00102295 -0.00304866 -0.00287066 0.000473637 0.000924391 0.00345363 4.66933e-06 0.000685734 0.00170056 3.88657e-05 0.00252562 -0.00387496 -0.00199631 0.0062634
internal_weight=0 42 590 382 208 176 117 78 336 283 53 59 263 240 64 176 153 111 89 61 42 42 46
internal_count=632 42 590 382 208 176 117 78 336 283 53 59 263 240 64 176 153 111 89 61 42 42 46
is_linear=0
shrinkage=0.05


Tree=6
num_leaves=24
num_cat=0
split_feature=0 0 0 0 0 2 1 0 1 1 0 0 2 2 0 1 1 2 0 1 1 1 2
split_gain=0.344629 0.386681 0.192016 0.505468 0.431631 0.287341 0.292905 0.437516 0.267155 0.405382 0.247846 0.227699 0.201292 0.201541 0.218221 0.196047 0.159066 0.153866 0.124123 0.150563 0.356739 0.23854 0.0421234
threshold=0.062157261419219963 0.030038731041998449 0.67755508351302918 0.61131648289907392 0.72621364086478624 0.37400309425614331 0.69658594306659671 0.88542954477845048 0.85858851559624216 0.78329281664723227 0.82752130803006019 0.37586872993544634 0.078095226641054408 0.29868641193376255 0.33280733236798155 0.066739931763741059 0.1414481073678783 0.63394669981629104 0.49633304010731294 0.61140600447710669 0.45458095146667776 0.33095075830495924 0.5536630303055855
decision_type=2 2 2 2 2 2 2 2 2 2 2 2 2 2 2 2 2 2 2 2 2 2 2
left_child=1 -1 3 8 -4 10 7 17 9 12 -6 -10 -2 14 -14 -15 -17 -7 19 20 21 -18 -5
right_child=2 -3 4 22 5 6 -8 -9 11 -11 -12 -13 13 15 -16 16 18 -19 -20 -21 -22 -23 -24
leaf_value=0.00071314114611595878 -0.0040183950984931513 -0.0088929009835489788 -0.0061950167551913186 0.0044371796699757089 0.0016321701529834953 -0.00063519675750285394 0.0050904741779399607 0.0037254508043563853 -0.0055511274069431245 0.0078341446549165996 -0.0051362182136232915 0.0011493275052912178 0.0062005814630538229 -0.0042995989034154821 0.00036130972230239425 0.0043891342667241899 0.002324911684639031 -0.006763061219161111 -0.0033735240364204284 -0.0029012225811248242 0.0063913317535210547 -0.0042394709838554263 0.0074632764743317081
leaf_weight=20 23 22 32 23 21 20 39 37 32 20 38 21 32 23 32 24 31 21 23 23 27 25 23
leaf_count=20 23 22 32 23 21 20 39 37 32 20 38 21 32 23 32 24 31 21 23 23 27 25 23
internal_value=0 -0.0043186 0.000369037 0.00103464 -0.000853362 0.000117848 0.0015525 -0.000216494 0.000361669 0.000971806 -0.00272713 -0.00289623 0.000449955 0.000878172 0.00328095 4.43591e-06 0.000651448 -0.00377386 -4.39359e-05 0.000678522 0.0016705 -0.000605616 0.00595023
internal_weight=0 42 590 382 208 176 117 78 336 283 59 53 263 240 64 176 153 41 129 106 83 56 46
internal_count=632 42 590 382 208 176 117 78 336 283 59 53 263 240 64 176 153 41 129 106 83 56 46
is_linear=0
shrinkage=0.05


Tree=7
num_leaves=25
num_cat=0
split_feature=0 0 0 0 0 2 1 0 1 1 2 1 0 2 0 0 2 1 1 2 2 1 2 0
split_gain=0.311027 0.348979 0.173295 0.456185 0.389547 0.259325 0.264346 0.395383 0.241108 0.365858 0.224676 0.21084 0.188752 0.151979 0.279265 0.255928 0.37914 0.23753 0.480179 0.132683 0.0672158 0.0596254 0.0380164 0.0162107
threshold=0.062157261419219963 0.030038731041998449 0.67755508351302918 0.61131648289907392 0.72621364086478624 0.37400309425614331 0.69658594306659671 0.88937671084327186 0.85858851559624216 0.78329281664723227 0.17640002404657826 0.93655518039684249 0.56538566507926735 0.078095226641054408 0.45929126232212403 0.36472218763763481 0.37400309425614331 0.55426602751359721 0.40248764244414398 0.642426705250987 0.22539136444571931 0.092983850935946924 0.5536630303055855 0.41695771752632904
decision_type=2 2 2 2 2 2 2 2 2 2 2 2 2 2 2 2 2 2 2 2 2 2 2 2
left_child=1 -1 3 8 -4 10 7 19 9 12 -6 -10 13 -2 15 16 20 18 21 -7 -15 -18 -5 -17
right_child=2 -3 4 22 5 6 -8 -9 11 -11 -12 -13 -14 14 -16 23 17 -19 -20 -21 -22 -23 -24 -25
leaf_value=0.00067748385597951718 -0.0032318469824358115 -0.0084482560061257001 -0.0058852659152762504 0.0042153207160046564 0.0011352910291558753 -0.00082193312489173623 0.0048359504441181436 0.0036394081595871181 -0.0059651052615103811 0.0074424375867238272 -0.0051457904438887321 0.00034324239585893575 -0.0040059272623197599 0.0031162332817621062 0.0051187148440237111 -0.0041331775533035393 -0.00333236336906945 -0.0049051590094512168 0.0074263239872553169 -0.0064489188918378211 0.0070409787508348629 -1.2804093139786875e-05 0.0070901126443894333 -0.0021200498845428228
leaf_weight=20 21 22 32 23 24 22 39 36 26 20 35 27 22 20 38 20 24 22 21 20 24 31 23 20
leaf_count=20 21 22 32 23 24 22 39 36 26 20 35 27 22 20 38 20 24 22 21 20 24 31 23 20
internal_value=0 -0.00410267 0.000350585 0.000982905 -0.000810694 0.000111956 0.00147487 -0.000205669 0.000343586 0.000923216 -0.00259077 -0.00275142 0.000427457 0.000832164 0.00122009 0.000406095 0.00140122 -0.000329942 0.000994463 -0.00350145 0.005257 -0.00146134 0.00565272 -0.00312661
internal_weight=0 42 590 382 208 176 117 78 336 283 59 53 263 241 220 182 142 98 76 42 44 55 46 40
internal_count=632 42 590 382 208 176 117 78 336 283 59 53 263 241 220 182 142 98 76 42 44 55 46 40
is_linear=0
shrinkage=0.05


Tree=8
num_leaves=25
num_cat=0
split_feature=1 0 2 1 2 0 2 1 2 2 1 1 1 2 1 1 2 1 0 1 1 0 2 0
split_gain=0.291326 0.569605 0.248406 0.19872 0.454885 0.311098 0.315574 0.214801 0.30997 0.205415 0.175631 0.401531 0.171457 0.168376 0.283344 0.239841 0.225232 0.163617 0.155655 0.136292 0.113304 0.110798 0.103423 0.167173
threshold=0.95378059241613855 0.062157261419219963 0.53519345181469513 0.088891013288746226 0.48333504699992641 0.35660894259917458 0.34488189248405532 0.39658242690836482 0.16008592362660176 0.61515549655433444 0.81179918026152931 0.66972524105987785 0.050438916257417817 0.46393193175033454 0.55426602751359721 0.40248764244414398 0.19462317426281853 0.42596809292913901 0.58788049516301555 0.29590738345723427 0.5714630301043887 0.68944509643537832 0.53519345181469513 0.79343980415206772
decision_type=2 2 2 2 2 2 2 2 2 2 2 2 2 2 2 2 2 2 2 2 2 2 2 2
left_child=1 -1 -2 4 -3 13 7 -7 -9 18 11 17 -6 16 15 -15 -5 19 -8 -11 -18 -10 23 -20
right_child=2 3 -4 5 12 6 9 8 21 10 -12 -13 -14 14 -16 -17 20 -19 22 -21 -22 -23 -24 -25
leaf_value=-0.0063256256625108011 0.00013962331227958201 0.0074510732023366569 0.0079256979016853243 -1.2124805944040419e-05 -0.0040414156718179585 -0.0063226881562858011 -0.0015437278139870615 0.0021841986540464624 -0.0018801802245434374 -0.0026569165139725165 -0.0046577355178105163 0.0055348653121061785 0.0023551374144682832 -0.00044782033988407681 -0.0034266069010995773 0.00672117649577558 0.0030156239041719927 -0.0055341186649773434 0.0052456509042531256 0.0027472867816686632 0.0080346951504116481 -0.0067365821957102298 0.0061597180448006847 -0.00088737256079912197
leaf_weight=36 20 29 21 30 20 37 24 31 24 28 29 23 22 28 34 20 22 23 20 20 23 23 20 25
leaf_count=36 20 29 21 30 20 37 24 31 24 28 29 23 22 28 34 20 22 23 20 20 23 23 20 25
internal_value=0 -0.000230838 0.00412761 0.0001645 0.00263473 -0.000197869 -0.00107623 -0.00318517 -0.00169687 6.7776e-05 -0.00125614 -0.00020671 -0.00069084 0.00163158 6.56089e-05 0.00253926 0.00334371 -0.00206666 0.00189746 -0.000405165 0.00558093 -0.00425672 0.00316805 0.00183842
internal_weight=0 591 41 555 71 484 327 115 78 212 123 94 42 157 82 48 75 71 89 48 45 47 65 45
internal_count=632 591 41 555 71 484 327 115 78 212 123 94 42 157 82 48 75 71 89 48 45 47 65 45
is_linear=0
shrinkage=0.05


Tree=9
num_leaves=24
num_cat=0
split_feature=1 0 2 1 2 0 2 0 1 1 1 2 0 1 1 1 0 0 1 1 0 0 2
split_gain=0.262921 0.514069 0.224187 0.179345 0.410534 0.280766 0.284805 0.198845 0.193858 0.292174 0.218606 0.185991 0.166659 0.331685 0.15474 0.145308 0.143101 0.359144 0.244242 0.141824 0.111812 0.107869 0.0168797
threshold=0.95378059241613855 0.062157261419219963 0.53519345181469513 0.088891013288746226 0.48333504699992641 0.35660894259917458 0.34488189248405532 0.93832263763476031 0.39658242690836482 0.52704006357890421 0.66181615764048418 0.61515549655433444 0.26645940714171928 0.6936148419304502 0.050438916257417817 0.46023185528358795 0.68532072280572121 0.47312172221292709 0.69658594306659671 0.42021189675298631 0.58788049516301555 0.77543688354907314 0.54938909720813855
decision_type=2 2 2 2 2 2 2 2 2 2 2 2 2 2 2 2 2 2 2 2 2 2 2
left_child=1 -1 -2 4 -3 12 8 11 -7 -10 -11 20 13 15 -6 22 17 -13 -18 -14 -8 -22 -5
right_child=2 3 -4 5 14 6 7 -9 9 10 -12 16 19 -15 -16 -17 18 -19 -20 -21 21 -23 -24
leaf_value=-0.0060093443291003093 0.00013264211826026438 0.0070785194635391239 0.0075294128885226592 0.0011851422814652323 -0.0038393447268754246 -0.0060065537930239707 -0.0014665413609084984 0.0044540024645950485 0.002978211734443903 -0.007640090873021455 -0.0011143320832740177 -0.0048243811445148749 0.00078907084418460742 -0.0038095244584837929 0.0022373806166631929 0.0045054217548789206 -0.0066431980238606542 0.0033147333768393963 0.00012402922584442422 0.0063018561873052804 0.0050492603250313559 0.00060224427065501613 -0.00086910264566540717
leaf_weight=36 20 29 21 20 20 37 24 23 24 21 33 23 20 32 22 37 30 33 24 28 25 30 20
leaf_count=36 20 29 21 20 20 37 24 23 24 21 33 23 20 32 22 37 30 33 24 28 25 30 20
internal_value=0 -0.000219296 0.00392123 0.000156275 0.00250299 -0.000187976 -0.00102242 6.43872e-05 -0.00302592 -0.00161202 -0.00365213 -0.000469799 0.00155 0.00046896 -0.000656298 0.00224703 -0.00179903 -2.81172e-05 -0.00363554 0.00400486 0.00138104 0.00262362 0.00015802
internal_weight=0 591 41 555 71 484 327 212 115 78 54 189 157 109 42 77 110 56 54 48 79 55 40
internal_count=632 591 41 555 71 484 327 212 115 78 54 189 157 109 42 77 110 56 54 48 79 55 40
is_linear=0
shrinkage=0.05


Tree=10
num_leaves=25
num_cat=0
split_feature=0 1 2 1 1 1 2 0 2 1 0 0 0 2 2 1 0 1 1 1 1 1 1 1
split_gain=0.269379 0.280208 0.278074 0.772174 0.361529 0.283269 0.233522 0.257307 0.187075 0.158948 0.131197 0.122599 0.224009 0.268142 0.19272 0.232365 0.167602 0.246096 0.190132 0.140501 0.0974954 0.0797534 0.0587982 0.137887
threshold=0.062157261419219963 0.60651079499550964 0.25205689752105293 0.18108011587978631 0.92961445567101997 0.85858851559624216 0.057968200763755202 0.45521054766918706 0.30216061270095435 0.066739931763741059 0.67755508351302918 0.94625297345908554 0.69324043800210411 0.70704062989251548 0.6126846519406649 0.57851758584446678 0.54246664432504843 0.57698723176030342 0.40248764244414398 0.22048692424246233 0.21049037264573014 0.64876415478407967 0.34019170995375397 0.59615999712150181
decision_type=2 2 2 2 2 2 2 2 2 2 2 2 2 2 2 2 2 2 2 2 2 2 2 2
left_child=1 -1 3 -2 5 8 -5 21 -4 -10 -9 12 14 22 15 19 17 18 20 -11 -16 -8 -14 -24
right_child=2 -3 4 6 -6 -7 7 10 9 11 -12 -13 13 -15 16 -17 -18 -19 -20 -21 -22 -23 23 -25
leaf_value=-0.0078645609425042166 0.0068160647111337475 0.00031271097017452124 0.0048831614271666003 0.00070418641722250382 0.0057514535954824707 -0.0038499436337992342 -0.0095784109830856327 0.00040534569847363016 -0.0026605556033448214 0.0013503531785681844 -0.0042335192273770068 0.0046331474184989931 -0.0016363431734498592 -0.0048059750904536087 0.0040644347947090863 0.0031823473940180108 0.0063387128002769149 -0.0022477306201695822 0.0074164997453668299 -0.003804169657329718 -0.0008134256311071417 -0.0051666517342839925 0.0044114383117465133 -0.0012528424106893086
leaf_weight=22 23 20 26 31 34 36 20 27 36 20 35 20 20 36 20 33 27 26 21 39 21 21 22 21
leaf_count=22 23 20 26 31 34 36 20 27 36 20 35 20 20 36 20 33 27 26 21 39 21 21 22 21
internal_value=0 -0.00397062 0.00016816 -0.00164775 0.000790646 0.000392846 -0.0031005 -0.0042456 0.000786507 0.000492272 -0.00221337 0.000840437 0.000592547 -0.00136364 0.00152811 -0.000177588 0.00289267 0.00183537 0.00354763 -0.00205687 0.00156602 -0.00731873 0.000603414 0.00164516
internal_weight=0 42 615 157 458 424 134 103 388 362 62 326 306 99 207 92 115 88 62 59 41 41 63 43
internal_count=657 42 615 157 458 424 134 103 388 362 62 326 306 99 207 92 115 88 62 59 41 41 63 43
is_linear=0
shrinkage=0.05


Tree=11
num_leaves=26
num_cat=0
split_feature=0 1 2 1 1 1 2 0 2 1 2 0 1 2 1 2 1 2 2 2 0 2 0 1 0
split_gain=0.243115 0.252888 0.250962 0.696887 0.32628 0.255651 0.210753 0.232219 0.168835 0.14345 0.124739 0.15642 0.153711 0.141072 0.355724 0.304859 0.243539 0.287412 0.232405 0.13197 0.14181 0.122776 0.118405 0.0719774 0.064969
threshold=0.062157261419219963 0.60651079499550964 0.25205689752105293 0.18108011587978631 0.92961445567101997 0.85858851559624216 0.057968200763755202 0.45521054766918706 0.30216061270095435 0.066739931763741059 0.88092188241929303 0.11787243453409675 0.57698723176030342 0.70704062989251548 0.27023233105499006 0.78555131468626282 0.33619816792014229 0.42588151380276301 0.642426705250987 0.55919904004440413 0.76748089653657858 0.46393193175033454 0.67755508351302918 0.64876415478407967 0.64318638285141716
decision_type=2 2 2 2 2 2 2 2 2 2 2 2 2 2 2 2 2 2 2 2 2 2 2 2 2
left_child=1 -1 3 -2 5 8 -5 23 -4 -10 11 -11 -12 16 -15 -16 17 -13 19 20 21 -18 -9 -8 -19
right_child=2 -3 4 6 -6 -7 7 22 9 10 12 13 -14 14 15 -17 18 24 -20 -21 -22 -23 -24 -25 -26
leaf_value=-0.0074713329128413041 0.0064752615401116407 0.00029707520734518767 0.0046390032109159696 0.00066897719948282161 0.0054638808567046108 -0.0036574464386932154 -0.0090994904376566401 0.00038507836870849133 -0.0025275280815549197 -0.0035527679861685185 0.0056423356765191316 -0.0054257239700983406 -0.00014094053534790876 0.0042076774703508077 -0.0076642419302674104 0.00010469771389450347 0.0020027078650891781 0.0033031450685761543 0.0071605334795312968 -0.0017594579540725266 -0.00043826245743295423 0.0071886219660795871 -0.0040218433237064997 -0.0049083190925774123 -0.00049747146814214916
leaf_weight=22 23 20 26 31 34 36 20 27 36 23 27 23 20 22 23 28 25 23 25 21 23 21 35 21 22
leaf_count=22 23 20 26 31 34 36 20 27 36 23 27 23 20 22 23 28 25 23 25 21 23 21 35 21 22
internal_value=0 -0.00377209 0.000159752 -0.00156537 0.000751114 0.000373203 -0.00294547 -0.00403332 0.000747181 0.000467658 0.000798415 0.000396986 0.00318137 0.000751846 -0.00110654 -0.00339894 0.00149317 -0.000878878 0.00289577 0.00171111 0.00276737 0.00437019 -0.0021027 -0.00695279 0.00144507
internal_weight=0 42 615 157 458 424 134 103 388 362 326 279 47 256 73 51 183 68 115 90 69 46 62 41 45
internal_count=657 42 615 157 458 424 134 103 388 362 326 279 47 256 73 51 183 68 115 90 69 46 62 41 45
is_linear=0
shrinkage=0.05


Tree=12
num_leaves=26
num_cat=0
split_feature=0 1 2 2 1 0 1 1 0 0 1 1 1 1 1 1 2 1 0 0 1 0 0 2 2
split_gain=0.220967 0.423189 0.319419 0.23784 0.404487 0.340473 0.226916 0.384006 0.201795 0.183434 0.13497 0.376465 0.237897 0.104273 0.0821654 0.168707 0.171957 0.198855 0.0964006 0.109727 0.0757061 0.107252 0.1117 0.0638804 0.0121234
threshold=0.28858052468967393 0.050438916257417817 0.88092188241929303 0.34488189248405532 0.93655518039684249 0.85654492122209847 0.82168908468332502 0.66181615764048418 0.066769169969747202 0.38348870564723853 0.6936148419304502 0.43309610482525607 0.21713534055954767 0.58927497870358181 0.33619816792014229 0.25787990994126991 0.70477588639001432 0.14675486876592705 0.79648892624982692 0.48354841241348628 0.83903924071311653 0.55396899974501401 0.69324043800210411 0.45148941008121601 0.65761596969135983
decision_type=2 2 2 2 2 2 2 2 2 2 2 2 2 2 2 2 2 2 2 2 2 2 2 2 2
left_child=2 -2 8 5 6 9 7 13 -1 -3 11 12 -10 14 15 16 17 -5 19 -16 21 -11 -23 -12 -9
right_child=1 3 -4 4 -6 -7 -8 24 10 20 23 -13 -14 -15 18 -17 -18 -19 -20 -21 -22 22 -24 -25 -26
leaf_value=-0.0053925646468997003 0.0072870911734009341 0.0040514808474108582 0.0038204216286540035 -0.0045456739102044839 0.007392701751593015 -0.0066248763692923459 -0.0031513084780198301 0.0062325551374150176 0.0002685282932361588 -0.0030391094574172585 -0.0056263178054775514 0.0038485392289502283 -0.0060422905754031883 -0.003330248184502125 0.0034037796658230946 -0.0045312570468013296 0.0035572925427307688 0.0022713338187895717 0.0047413746407255529 -0.0014824993175419944 -0.0038575246564245651 0.0033352273632772269 -0.0011477952696044337 -0.0017263663027690546 0.0045335800320442229
leaf_weight=39 22 20 25 23 23 26 37 21 32 28 21 35 28 20 20 20 30 20 20 27 21 24 33 21 21
leaf_count=39 22 20 25 23 23 26 37 21 32 28 21 35 28 20 20 20 30 20 20 27 21 24 33 21 21
internal_value=0 0.00052177 -0.00146815 0.000178827 0.00103817 -0.00141547 0.000473864 0.00107806 -0.00221937 -0.000340518 -0.00131605 -0.000272551 -0.00267652 7.35581e-05 0.000499034 -0.00046269 0.000651986 -0.00137497 0.00183396 0.000596768 -0.0011692 -0.000505022 0.000739793 -0.00367634 0.00538307
internal_weight=0 456 201 434 282 152 259 222 176 126 137 95 60 180 160 93 73 43 67 47 106 85 57 42 42
internal_count=657 456 201 434 282 152 259 222 176 126 137 95 60 180 160 93 73 43 67 47 106 85 57 42 42
is_linear=0
shrinkage=0.05


Tree=13
num_leaves=26
num_cat=0
split_feature=2 0 2 1 1 1 1 1 1 2 1 0 1 1 1 0 0 1 0 1 2 0 1 1 2
split_gain=0.200801 0.376551 0.139396 0.587327 0.263216 0.318932 0.386177 0.191874 0.334255 0.170774 0.166808 0.30522 0.269828 0.138422 0.126813 0.0800393 0.110848 0.383469 0.203993 0.16417 0.14 0.129988 0.0865842 0.0565882 0.0542468
threshold=0.88092188241929303 0.066769169969747202 0.25205689752105293 0.18108011587978631 0.90937530460931282 0.83115990205378243 0.73464576194355635 0.9024331702859727 0.58244245476047751 0.094430929208204686 0.59615999712150181 0.54619582544257816 0.56243996933608209 0.75211272187310041 0.71589859676474321 0.82524885824495608 0.41695771752632904 0.40248764244414398 0.15470875757418426 0.39658242690836482 0.43432237909013793 0.64318638285141716 0.27965670900244999 0.37691327183735024 0.60297126900498332
decision_type=2 2 2 2 2 2 2 2 2 2 2 2 2 2 2 2 2 2 2 2 2 2 2 2 2
left_child=1 -1 3 -3 5 6 10 8 9 -5 12 -12 15 23 -10 16 17 18 -4 20 -18 -22 -17 -2 -20
right_child=13 2 4 7 -6 -7 -8 -9 14 -11 11 -13 -14 -15 -16 22 19 -19 24 -21 21 -23 -24 -25 -26
leaf_value=-0.0051229366531165754 0.0024388242917864223 0.0060722572648006937 0.0013577868836000563 -0.0006904464331455529 0.0045358070560420549 -0.0047128891671491153 0.0056461568762615297 -0.0070952128944918513 0.0040653913304032315 -0.0063984989752306756 -0.0070511766709387309 0.0013761502202777635 0.0060063125612214207 -0.00070523274639113388 -0.00087639268022030601 0.00021186939072019109 -0.00081218603022751353 0.0045517238245035207 -0.0065670181997120386 -0.0024305638298392296 0.0064621572796669281 0.0015998525969085416 -0.0040812081373904066 0.0060287507073510261 -0.0030872675745437545
leaf_weight=39 23 23 20 20 36 32 33 20 21 38 22 21 20 22 34 24 21 24 21 20 27 28 23 21 24
leaf_count=39 23 23 20 20 36 32 33 20 21 38 22 21 20 22 34 24 21 24 21 20 27 28 23 21 24
internal_value=0 -0.000374779 -3.93111e-05 -0.00130525 0.00045939 5.17488e-05 0.000516592 -0.00258105 -0.00178209 -0.0044302 -5.72243e-05 -0.00293551 0.000433911 0.00253305 0.00101047 -4.64684e-05 0.000421634 -0.000849491 -0.00284379 0.00160007 0.00266077 0.0039868 -0.001889 0.0041522 -0.00471115
internal_weight=0 591 552 156 396 360 328 133 113 58 295 43 252 66 55 232 185 89 65 96 76 55 47 44 45
internal_count=657 591 552 156 396 360 328 133 113 58 295 43 252 66 55 232 185 89 65 96 76 55 47 44 45
is_linear=0
shrinkage=0.05


Tree=14
num_leaves=25
num_cat=0
split_feature=0 1 2 2 1 0 0 2 2 1 1 1 1 1 1 1 2 1 1 2 1 2 2 2
split_gain=0.183146 0.365643 0.269403 0.190927 0.360386 0.161751 0.157566 0.190706 0.211852 0.140068 0.41427 0.18146 0.117414 0.319805 0.214716 0.105762 0.0791516 0.0646343 0.166484 0.102137 0.0997633 0.0531279 0.0368137 0.0140973
threshold=0.28858052468967393 0.050438916257417817 0.88092188241929303 0.26484072762518074 0.93655518039684249 0.066769169969747202 0.83062345277180227 0.094430929208204686 0.16640424312767552 0.82168908468332502 0.67763275433013692 0.59615999712150181 0.6936148419304502 0.43309610482525607 0.21713534055954767 0.11085934605881527 0.62318627086146161 0.20364373981634395 0.33619816792014229 0.55919904004440413 0.44696162466445333 0.45148941008121601 0.65180050998993866 0.047830407587492414
decision_type=2 2 2 2 2 2 2 2 2 2 2 2 2 2 2 2 2 2 2 2 2 2 2 2
left_child=2 -2 5 6 9 -1 7 23 -9 10 11 15 13 14 -7 -5 -11 -17 -19 -20 -21 -14 -12 -3
right_child=1 3 -4 4 -6 12 -8 8 -10 16 22 -13 21 -15 -16 17 -18 18 19 20 -22 -23 -24 -25
leaf_value=-0.0048667898019536951 0.0067642455116253015 0.0010362659837119283 0.003520973261445761 -0.0023450703329096238 0.0068304571242112193 0.00033838046001619663 -0.0053634314903650776 -0.0063783061097968706 -0.00015046104057950694 -4.9305596621707079e-06 0.0068397031121310743 -0.0045294468180232103 -0.0051968367326827277 0.0035545124033732078 -0.0056570937258324456 0.0027547443020416217 -0.0043057899800655634 -0.0023447977486424723 0.0036669074743986133 0.0026233150845482237 -0.002051394939888269 -0.0016402240365832336 0.0038423196889925751 0.0029135878721717745
leaf_weight=39 22 20 25 30 23 32 22 22 36 20 21 21 21 35 28 36 23 39 35 21 25 21 20 20
leaf_count=39 22 20 25 30 23 32 22 22 36 20 21 21 21 35 28 36 23 39 35 21 25 21 20 20
internal_value=0 0.000475711 -0.00133593 0.000156937 0.00080525 -0.00202583 -0.00153948 -0.000681043 -0.00251275 0.000329031 0.000785806 -0.000123673 -0.00121709 -0.000243816 -0.00245951 0.000373753 -0.00230539 0.000896604 0.000339162 0.00163144 8.27118e-05 -0.00341853 0.00537756 0.00197493
internal_weight=0 456 201 434 314 176 120 98 58 291 248 207 137 95 60 186 43 156 120 81 46 42 41 40
internal_count=657 456 201 434 314 176 120 98 58 291 248 207 137 95 60 186 43 156 120 81 46 42 41 40
is_linear=0
shrinkage=0.05


Tree=15
num_leaves=26
num_cat=0
split_feature=2 1 1 0 1 2 0 1 1 1 1 0 2 2 2 0 0 1 1 2 1 2 2 2 0
split_gain=0.140428 0.352787 0.268464 0.297417 0.248211 0.45306 0.164248 0.223044 0.248882 0.126151 0.376626 0.147337 0.237652 0.30179 0.264297 0.164886 0.14745 0.147062 0.107292 0.102152 0.0856572 0.0807215 0.0699158 0.0416986 0.0178987
threshold=0.21354969136169846 0.18108011587978631 0.93655518039684249 0.10520680293960528 0.2814034675060812 0.057968200763755202 0.15248171120330248 0.83115990205378243 0.69658594306659671 0.52038144048883939 0.45191327023118449 0.24831627248397917 0.42588151380276301 0.50162917032984644 0.30899794888790594 0.57260516800305405 0.86643594994191753 0.57851758584446678 0.89208732147519354 0.56845035691724022 0.58244245476047751 0.48588167688214046 0.70704062989251548 0.14102804195849242 0.38842149790823882
decision_type=2 2 2 2 2 2 2 2 2 2 2 2 2 2 2 2 2 2 2 2 2 2 2 2 2
left_child=1 -1 3 21 -3 -6 -5 8 9 10 11 -8 14 -14 -13 24 22 -11 -9 -10 -7 -2 -17 -22 -15
right_child=2 4 -4 6 5 20 7 18 19 17 -12 12 13 15 -16 16 -18 -19 -20 -21 23 -23 -24 -25 -26
leaf_value=0.0041694849699168753 -0.0008273293796394552 -0.0076760896714404229 0.0047328496031695984 0.0047961120493710046 0.0035480678539412721 -0.0064911470593263703 -0.0035073378812879898 -0.005864186543039978 0.0065695199099454014 -0.0054455869799130601 0.007197444271296264 0.0020374669786542656 0.0072908538766205322 0.0040518408286429591 -0.0053829058546883369 -0.00061329470830969509 0.0020970520805567504 -4.2249558849588915e-05 -0.0006850836705416442 0.0018038524086992054 -0.0040169650772586473 -0.0046900134092490928 -0.0046979559416120706 -0.00099471874002899459 0.0020328558738464896
leaf_weight=23 21 20 32 21 30 21 26 20 22 20 20 20 20 21 30 20 25 34 20 23 25 38 22 21 23
leaf_count=23 21 20 32 21 30 21 26 20 22 20 20 20 20 21 30 20 25 34 20 23 25 38 22 21 23
internal_value=0 -0.00149149 0.000309093 -8.30627e-06 -0.00260433 -0.00155861 0.000495839 0.000249102 0.000681463 0.000128608 0.000645317 1.22617e-05 0.00051784 0.00163715 -0.00241476 0.000618466 -0.000943203 -0.00204349 -0.00327464 0.00413373 -0.00384518 -0.00331516 -0.00275288 -0.00263724 0.00299646
internal_weight=0 140 478 446 117 97 387 366 326 281 227 207 181 131 50 111 67 54 40 45 67 59 42 46 44
internal_count=618 140 478 446 117 97 387 366 326 281 227 207 181 131 50 111 67 54 40 45 67 59 42 46 44
is_linear=0
shrinkage=0.05


Tree=16
num_leaves=25
num_cat=0
split_feature=2 1 1 0 1 2 0 1 1 1 0 1 1 1 2 0 2 2 0 2 2 0 0 0
split_gain=0.126737 0.31839 0.242288 0.268419 0.225479 0.268219 0.148234 0.201297 0.224616 0.117359 0.183168 0.208024 0.0968314 0.0963916 0.109485 0.139289 0.13348 0.0921919 0.075732 0.0679067 0.0630485 0.0799652 0.0421826 0.0408252
threshold=0.21354969136169846 0.18108011587978631 0.93655518039684249 0.10520680293960528 0.48322356676601835 0.057968200763755202 0.15248171120330248 0.83115990205378243 0.69658594306659671 0.073430407394807676 0.21737352669549978 0.52373423352171322 0.89208732147519354 0.43309610482525607 0.42588151380276301 0.86643594994191753 0.33536465426449236 0.56845035691724022 0.034777936990012366 0.14102804195849242 0.84977182634260739 0.41695771752632904 0.7598130611538253 0.67755508351302918
decision_type=2 2 2 2 2 2 2 2 2 2 2 2 2 2 2 2 2 2 2 2 2 2 2 2
left_child=1 -1 3 18 -3 -6 -5 8 9 -8 -11 13 -9 14 16 20 -12 -10 -2 -7 21 -16 -13 -23
right_child=2 4 -4 6 5 19 7 12 17 10 11 22 -14 -15 15 -17 -18 -19 -20 -21 -22 23 -24 -25
leaf_value=0.0039610107733017725 -0.00073968566776741115 -0.0056389591117438527 0.0044962071198824559 0.0045563063717314178 0.0035942322711217342 -0.0044989261748108631 -0.0024617848452946518 -0.0055709773441776633 0.0062410439279946411 0.0047718598082175726 0.0012959804068668748 -0.0015211818139785184 -0.00065082948887720707 0.0040590354630867728 -0.0014552019625192598 0.0044814399927138133 -0.0042891547569762108 0.0017136596325460986 -0.0044810869461415631 -0.0010144354008069193 -0.0021582507342100144 0.0039585752319544554 -0.0045341128461240309 0.00083729775982316248
leaf_weight=23 21 38 32 21 23 29 38 20 22 23 20 26 20 21 21 26 23 23 38 27 20 20 21 22
leaf_count=23 21 38 32 21 23 29 38 20 22 23 20 26 20 21 21 26 23 23 38 27 20 20 21 22
internal_value=0 -0.00141692 0.000293639 -7.89099e-06 -0.00247412 -0.000951788 0.000471047 0.000236647 0.00064739 0.000122178 0.000526254 8.23952e-05 -0.0031109 0.000883781 0.000445094 0.00128794 -0.00169142 0.00392705 -0.0031494 -0.0028189 0.000287564 0.00106401 -0.00286739 0.00232362
internal_weight=0 140 478 446 117 79 387 366 326 281 243 220 40 173 152 109 43 45 59 56 83 63 47 42
internal_count=618 140 478 446 117 79 387 366 326 281 243 220 40 173 152 109 43 45 59 56 83 63 47 42
is_linear=0
shrinkage=0.05


Tree=17
num_leaves=24
num_cat=0
split_feature=2 2 0 1 1 1 1 0 1 1 2 0 1 1 1 2 0 0 2 1 0 2 1
split_gain=0.117031 0.288956 0.307646 0.370967 0.307899 0.26719 0.233542 0.193109 0.180477 0.555478 0.193474 0.173036 0.147655 0.125625 0.11936 0.176376 0.14824 0.167528 0.107263 0.0682017 0.0618585 0.0499672 0.0483152
threshold=0.26484072762518074 0.30216061270095435 0.26645940714171928 0.64876415478407967 0.46614556950843433 0.18108011587978631 0.92961445567101997 0.31223873033601274 0.81179918026152931 0.69197287536621921 0.39719919068350595 0.10298323049670467 0.8347510135274635 0.48322356676601835 0.42596809292913901 0.49768922472021399 0.64318638285141716 0.86643594994191753 0.097877347395314243 0.59521747041658546 0.57649546373676064 0.71207553310569305 0.20766420374536607
decision_type=2 2 2 2 2 2 2 2 2 2 2 2 2 2 2 2 2 2 2 2 2 2 2
left_child=5 -2 3 4 11 -1 8 19 9 10 -4 -3 -5 -9 15 -12 21 -18 -15 -7 -16 -17 -13
right_child=1 2 6 12 -6 7 -8 13 -10 -11 14 22 -14 18 20 16 17 -19 -20 -21 -22 -23 -24
leaf_value=0.0037629601262185886 0.0053407481181676746 -0.0057708188542164862 -0.0035665134749104897 -0.0089399505034089086 0.0048306478673349265 -0.001293779392116925 0.0053163870617195415 -0.0057308742283459979 -0.0028051226818304811 0.0076996881066373106 0.0054020079590069749 -0.0018125613662414255 -0.0031229451531544329 0.00035103617680891022 0.00063466725354690277 0.00086226382525637739 -0.0034579206330818124 0.0020682852513952336 -0.003775209486613878 0.0026898679154163056 -0.0028375623787849631 0.0041864823299245192 0.0016628944582771513
leaf_weight=23 27 20 31 20 23 21 27 34 37 27 24 20 24 28 23 20 32 24 36 22 29 26 20
leaf_count=23 27 20 31 20 23 21 27 34 37 27 24 20 24 28 23 20 32 24 36 22 29 26 20
internal_value=0 0.000324369 7.17446e-06 -0.00205555 -8.80098e-05 -0.00123398 0.000880393 -0.00204908 0.000441669 0.0009507 7.88206e-05 -0.0019735 -0.00576704 -0.00327478 0.000713682 0.00154546 0.000638031 -0.00108955 -0.00196998 0.000744366 -0.00130177 0.00274117 -7.48335e-05
internal_weight=0 454 427 127 83 164 300 141 273 236 209 60 44 98 178 126 102 56 64 43 52 46 40
internal_count=618 454 427 127 83 164 300 141 273 236 209 60 44 98 178 126 102 56 64 43 52 46 40
is_linear=0
shrinkage=0.05


Tree=18
num_leaves=24
num_cat=0
split_feature=2 1 1 0 1 2 0 1 1 1 0 1 1 2 0 1 0 0 0 2 0 1 1
split_gain=0.10672 0.261476 0.202306 0.225408 0.198321 0.375472 0.143409 0.166846 0.187935 0.105523 0.157194 0.1793 0.0850689 0.0825695 0.0719527 0.0699794 0.0594996 0.0829952 0.0920008 0.13856 0.186829 0.039588 0.0361186
threshold=0.21354969136169846 0.18108011587978631 0.93655518039684249 0.10520680293960528 0.2814034675060812 0.057968200763755202 0.15248171120330248 0.83115990205378243 0.69658594306659671 0.073430407394807676 0.21737352669549978 0.52038144048883939 0.89208732147519354 0.56845035691724022 0.034777936990012366 0.58244245476047751 0.86643594994191753 0.75255726093071462 0.59468022403576848 0.74698117162589039 0.43205885427524199 0.58927497870358181 0.76905024633847452
decision_type=2 2 2 2 2 2 2 2 2 2 2 2 2 2 2 2 2 2 2 2 2 2 2
left_child=1 -1 3 14 -3 -6 -5 8 9 -8 -11 16 -9 -10 -2 -7 17 18 19 20 -12 -13 -17
right_child=2 4 -4 6 5 15 7 12 13 10 11 21 -14 -15 -16 22 -18 -19 -20 -21 -22 -23 -24
leaf_value=0.003574812125779041 -0.00053466919842841366 -0.0067903500329703093 0.0041110690639470709 0.0044524570128747394 0.0033267765249668929 -0.0057953067506397414 -0.0023529891563157435 -0.0051497887284494941 0.0057674727021631879 0.0044134525460717477 0.0011595839501491614 -0.0042859309632331134 -0.00053814874961972243 0.0014828676150342368 -0.0041815200109819048 -0.00071444953326135882 0.0025867111601033492 -0.0023181771995344509 0.003285541608929634 0.0028434949893770475 -0.004997673813274808 -0.0014140848190678905 -0.0035407118522785964
leaf_weight=23 21 20 32 21 30 21 38 20 22 23 28 20 20 23 38 20 38 24 30 28 22 30 26
leaf_count=23 21 20 32 21 30 21 38 20 22 23 28 20 20 23 38 20 38 24 30 28 22 30 26
internal_value=0 -0.0012988 0.000270876 -4.6537e-06 -0.00225686 -0.00132212 0.000434238 0.000203685 0.00057763 9.72137e-05 0.000480373 6.91875e-05 -0.00284397 0.00357756 -0.00288349 -0.00340372 0.000843308 0.00034142 0.000932441 2.74024e-05 -0.00154961 -0.00256282 -0.0023119
internal_weight=0 140 478 446 117 97 387 366 326 281 243 220 40 45 59 67 170 132 108 78 50 50 46
internal_count=618 140 478 446 117 97 387 366 326 281 243 220 40 45 59 67 170 132 108 78 50 50 46
is_linear=0
shrinkage=0.05


Tree=19
num_leaves=25
num_cat=0
split_feature=2 2 0 1 1 1 1 0 0 2 1 1 0 1 0 0 2 0 0 1 2 2 0 1
split_gain=0.0977761 0.260788 0.278133 0.334785 0.281956 0.218905 0.194128 0.173606 0.156774 0.194458 0.252163 0.281658 0.143241 0.134582 0.119582 0.0966548 0.0961923 0.302863 0.238603 0.130566 0.109742 0.0888756 0.0605865 0.0417243
threshold=0.26484072762518074 0.30216061270095435 0.26645940714171928 0.64876415478407967 0.46614556950843433 0.18108011587978631 0.92961445567101997 0.31223873033601274 0.35660894259917458 0.36027078639572824 0.83115990205378243 0.69197287536621921 0.10298323049670467 0.8347510135274635 0.65938370637244825 0.78479071730290551 0.67115275374931693 0.88937671084327186 0.69595346118747348 0.33095075830495924 0.82433651046451784 0.097877347395314243 0.15995234991481774 0.20766420374536607
decision_type=2 2 2 2 2 2 2 2 2 2 2 2 2 2 2 2 2 2 2 2 2 2 2 2
left_child=5 -2 3 4 12 -1 8 22 -4 -10 11 16 -3 -5 21 -16 17 19 -18 -11 -20 -9 -7 -14
right_child=1 2 6 13 -6 7 -8 14 9 10 -12 -13 23 -15 15 -17 18 -19 20 -21 -22 -23 -24 -25
leaf_value=0.0033960715427225376 0.0050631236336711382 -0.0053552560904063283 0.003603228190502919 -0.0085201545158633957 0.0046109009372151417 -0.0010497067758644168 0.0048708431629670996 -0.0023779816366732119 -0.0042941823271879309 0.0019775163713156396 -0.0040673955313481943 0.0065575637721589633 -0.0017876679671462625 -0.0029666279869464537 0.0013426311669172721 -0.0030882835446391257 0.0023857213884184605 0.0069451796752400697 -0.0055680929353305458 -0.0023214699904201552 -0.00055318617552984511 -0.0068113990307140816 0.0027049590018577876 0.0014420506451278926
leaf_weight=23 27 20 34 20 23 22 27 20 24 38 27 21 20 24 20 32 32 20 24 33 20 26 21 20
leaf_count=23 27 20 34 20 23 22 27 20 24 38 27 21 20 24 20 32 32 20 24 33 20 26 21 20
internal_value=0 0.000297517 -3.82146e-06 -0.00196511 -9.59849e-05 -0.00112688 0.000826457 -0.00186467 0.000426463 -2.54618e-05 0.000451046 0.00109997 -0.00190029 -0.00549096 -0.00302682 -0.00138409 0.000413688 0.00151034 -0.000899406 -2.06041e-05 -0.00328859 -0.00488383 0.000783967 -0.000172809
internal_weight=0 454 427 127 83 164 300 141 273 239 215 188 60 44 98 52 167 91 76 71 44 46 43 40
internal_count=618 454 427 127 83 164 300 141 273 239 215 188 60 44 98 52 167 91 76 71 44 46 43 40
is_linear=0
shrinkage=0.05


Tree=20
num_leaves=25
num_cat=0
split_feature=1 1 1 2 1 1 1 1 2 1 2 2 1 2 1 1 0 2 1 0 0 2 0 0
split_gain=0.1994 0.3289 0.255629 0.169886 0.114118 0.277315 0.209896 0.308515 0.165095 0.0997864 0.375881 0.189116 0.324135 0.231794 0.166904 0.367784 0.382569 0.0934001 0.143809 0.324104 0.246903 0.164963 0.0667376 0.0553286
threshold=0.28742696912441457 0.33619816792014229 0.24203354792170237 0.057968200763755202 0.79705370939915032 0.72749803429457771 0.85754647270660389 0.89699059128987602 0.36027078639572824 0.57851758584446678 0.24635223504456663 0.69677566161816151 0.61481167662478153 0.31183999550107144 0.53456261679513029 0.46023185528358795 0.42461579404841915 0.16008592362660176 0.066739931763741059 0.48111714911916637 0.69956542273943267 0.67115275374931693 0.3742305829300881 0.48111714911916637
decision_type=2 2 2 2 2 2 2 2 2 2 2 2 2 2 2 2 2 2 2 2 2 2 2 2
left_child=2 -2 17 -3 5 9 -6 -8 -9 10 -5 12 -11 -14 15 16 -12 -1 19 -19 21 22 -20 -10
right_child=1 3 -4 4 6 -7 7 8 23 11 14 -13 13 -15 -16 -17 -18 18 20 -21 -22 -23 -24 -25
leaf_value=-0.0024871629130627428 -0.0061487240474671131 0.0037524053081870084 0.0059596390284311317 -0.006898528341203929 0.0038834980852599887 -0.0055551060163716399 -0.00574922071629606 -0.0025428596803027653 0.00091365750950689502 0.0063042747408703532 -0.0054077719306123671 -0.003491810013074428 0.0028240340973504567 -0.004613332018489018 -0.00398116134615107 0.0057327288336603451 0.0026458553317934277 -0.0059809279371984304 0.0038708260748535396 0.0030205233069136739 -0.0011377110181806178 0.00090925739745476421 0.007955480886157603 0.004175576490636628
leaf_weight=21 25 25 26 25 37 31 22 23 26 27 29 20 22 20 22 27 30 20 20 20 39 28 20 26
leaf_count=21 25 25 26 25 37 31 22 23 26 27 29 20 22 20 22 27 30 20 20 20 39 28 20 26
internal_value=0 -0.000580203 0.00134601 -0.000242308 -0.000500364 -0.00112522 0.00067941 -0.000542768 0.000984457 -0.000506637 -0.0013738 0.000789228 0.00203011 -0.000717569 -9.49222e-05 0.000899232 -0.00131271 0.000632001 0.0010776 -0.0014802 0.00203378 0.00385273 0.00591315 0.00254462
internal_weight=0 437 194 412 387 253 134 97 75 222 133 89 69 42 108 86 59 168 147 40 107 68 40 52
internal_count=631 437 194 412 387 253 134 97 75 222 133 89 69 42 108 86 59 168 147 40 107 68 40 52
is_linear=0
shrinkage=0.05


Tree=21
num_leaves=25
num_cat=0
split_feature=1 1 1 2 1 1 1 1 2 1 2 2 1 2 1 1 0 2 1 0 0 2 0 0
split_gain=0.179958 0.296832 0.230705 0.153322 0.102991 0.250277 0.189431 0.278435 0.148999 0.0900572 0.339233 0.170678 0.292532 0.209194 0.150631 0.331925 0.345269 0.0842936 0.129788 0.292504 0.22283 0.148879 0.0602307 0.0499341
threshold=0.28742696912441457 0.33619816792014229 0.24203354792170237 0.057968200763755202 0.79705370939915032 0.72749803429457771 0.85754647270660389 0.89699059128987602 0.36027078639572824 0.57851758584446678 0.24635223504456663 0.69677566161816151 0.61481167662478153 0.31183999550107144 0.53456261679513029 0.46023185528358795 0.42461579404841915 0.16008592362660176 0.066739931763741059 0.48111714911916637 0.69956542273943267 0.67115275374931693 0.3742305829300881 0.48111714911916637
decision_type=2 2 2 2 2 2 2 2 2 2 2 2 2 2 2 2 2 2 2 2 2 2 2 2
left_child=2 -2 17 -3 5 9 -6 -8 -9 10 -5 12 -11 -14 15 16 -12 -1 19 -19 21 22 -20 -10
right_child=1 3 -4 4 6 -7 7 8 23 11 14 -13 13 -15 -16 -17 -18 18 20 -21 -22 -23 -24 -25
leaf_value=-0.0023628047090910732 -0.0058412877544760707 0.0035647851452231408 0.0056616570496071991 -0.0065536018237471591 0.0036893231504772969 -0.005277350777760148 -0.0054617596536197452 -0.0024157166966925496 0.00086797457546568832 0.0059890610890256032 -0.0051373833453218489 -0.0033172194287180903 0.0026828323914246128 -0.0043826653409632854 -0.0037821034435182813 0.0054460924726703929 0.0025135624812295042 -0.0056818814761936667 0.0036772847361862663 0.0028694970805372578 -0.0010808254818981276 0.00086379445690129477 0.0075577068327402231 0.003966797512167922
leaf_weight=21 25 25 26 25 37 31 22 23 26 27 29 20 22 20 22 27 30 20 20 20 39 28 20 26
leaf_count=21 25 25 26 25 37 31 22 23 26 27 29 20 22 20 22 27 30 20 20 20 39 28 20 26
internal_value=0 -0.000551193 0.00127871 -0.000230192 -0.000475346 -0.00106896 0.000645439 -0.00051563 0.000935235 -0.000481305 -0.00130511 0.000749767 0.0019286 -0.00068169 -9.01761e-05 0.00085427 -0.00124707 0.000600401 0.00102372 -0.00140619 0.00193209 0.00366009 0.0056175 0.00241739
internal_weight=0 437 194 412 387 253 134 97 75 222 133 89 69 42 108 86 59 168 147 40 107 68 40 52
internal_count=631 437 194 412 387 253 134 97 75 222 133 89 69 42 108 86 59 168 147 40 107 68 40 52
is_linear=0
shrinkage=0.05


Tree=22
num_leaves=24
num_cat=0
split_feature=1 1 1 2 1 1 1 1 2 2 0 0 2 1 1 2 2 1 0 0 2 0 0
split_gain=0.162412 0.267891 0.208212 0.138373 0.0929495 0.225875 0.170961 0.251288 0.134471 0.089509 0.220613 0.269515 0.185655 0.238079 0.194264 0.197974 0.076075 0.117133 0.263985 0.201104 0.134363 0.0543582 0.0450655
threshold=0.28742696912441457 0.33619816792014229 0.24203354792170237 0.057968200763755202 0.79705370939915032 0.72749803429457771 0.85754647270660389 0.89699059128987602 0.36027078639572824 0.86009867916944993 0.15032063591151959 0.22290713237979212 0.34488189248405532 0.60253777024076005 0.60397509139984751 0.55919904004440413 0.16008592362660176 0.066739931763741059 0.48111714911916637 0.69956542273943267 0.67115275374931693 0.3742305829300881 0.48111714911916637
decision_type=2 2 2 2 2 2 2 2 2 2 2 2 2 2 2 2 2 2 2 2 2 2 2
left_child=2 -2 16 -3 5 9 -6 -8 -9 10 -5 -12 13 -13 15 -14 -1 18 -18 20 21 -19 -10
right_child=1 3 -4 4 6 -7 7 8 22 -11 11 12 14 -15 -16 -17 17 19 -20 -21 -22 -23 -24
leaf_value=-0.002244664462549346 -0.0055492234490811827 0.0033865457549691197 0.005378574235902097 -0.0042625564943394954 0.0035048570235360517 -0.0050134831543771491 -0.005188671715388244 -0.0022949308561890022 0.00082457593570535003 0.0027334720036014913 0.0054504422191530471 -0.0053457723175351687 0.005343555693549139 0.0013197490745889291 -0.0034689695701845703 -0.00022614882387316383 -0.0053977873921394349 0.0034934204444289209 0.0027260223374469209 -0.0010267841862514615 0.00082060473838022779 0.0071798215131275355 0.0037684577620194222
leaf_weight=21 25 25 26 37 37 31 22 23 26 20 20 37 27 21 21 39 20 20 20 39 28 20 26
leaf_count=21 25 25 26 37 37 31 22 23 26 20 20 37 27 21 21 39 20 20 20 39 28 20 26
internal_value=0 -0.000523633 0.00121478 -0.000218683 -0.000451579 -0.00101551 0.000613167 -0.000489849 0.000888473 -0.00045724 -0.000773152 9.32023e-06 -0.000741179 -0.00293239 0.00071963 0.00205237 0.000570381 0.00097253 -0.00133588 0.00183549 0.00347708 0.00533662 0.00229652
internal_weight=0 437 194 412 387 253 134 97 75 222 202 165 145 58 87 66 168 147 40 107 68 40 52
internal_count=631 437 194 412 387 253 134 97 75 222 202 165 145 58 87 66 168 147 40 107 68 40 52
is_linear=0
shrinkage=0.05


Tree=23
num_leaves=24
num_cat=0
split_feature=1 1 1 2 1 0 1 1 0 0 1 0 1 1 0 2 1 0 0 0 0 1 0
split_gain=0.146577 0.241772 0.187911 0.124882 0.0838869 0.208835 0.50176 0.372461 0.311857 0.184391 0.154735 0.260605 0.154293 0.226787 0.133494 0.12136 0.115724 0.0773914 0.298621 0.351576 0.190921 0.169154 0.0406716
threshold=0.28742696912441457 0.33619816792014229 0.24203354792170237 0.057968200763755202 0.79705370939915032 0.47312172221292709 0.6936148419304502 0.43309610482525607 0.30471511724208711 0.15032063591151959 0.42596809292913901 0.68944509643537832 0.85754647270660389 0.89699059128987602 0.80283219171125608 0.36027078639572824 0.66181615764048418 0.86851634595127247 0.69956542273943267 0.44207022780542182 0.35660894259917458 0.068654755031203676 0.48111714911916637
decision_type=2 2 2 2 2 2 2 2 2 2 2 2 2 2 2 2 2 2 2 2 2 2 2
left_child=2 -2 17 -3 5 6 7 -5 9 -9 -7 16 -6 -14 -13 -15 -12 18 19 20 21 -1 -17
right_child=1 3 -4 4 12 10 -8 8 -10 -11 11 14 13 15 -16 22 -18 -19 -20 -21 -22 -23 -24
leaf_value=-0.0028311881748959425 -0.0052717622816562653 0.0032172185704112052 0.0051096455288643485 -0.0056479670604070026 0.0033296141353423231 0.0043118954890153625 -0.0090620358677014051 0.00026079801221688589 -0.0036696927752345801 0.0062200243659317495 0.00019223683683032339 -0.0053306026849895723 -0.0049292380752211269 -0.0021801843854558213 -0.00048902545257338461 0.00078334704829523196 0.0054473208938725301 0.0029942503479240394 -0.0043538481804231803 0.0055947203810016314 -0.0047744091419735929 0.0028497262220633659 0.0035800347590478712
leaf_weight=20 25 25 26 30 37 22 23 27 25 25 22 24 22 23 35 26 20 27 30 33 20 38 26
leaf_count=20 25 25 26 30 37 22 23 27 25 25 22 24 22 23 35 26 20 27 30 33 20 38 26
internal_value=0 -0.000497452 0.00115404 -0.000207749 -0.000429 -0.000964739 -0.00236205 -0.000921861 0.000919478 0.00312581 0.000512089 -0.000315591 0.000582509 -0.000465356 -0.00245848 0.000844049 0.00269466 0.000541862 7.22552e-05 0.0012685 -0.000561825 0.00089079 0.00218169
internal_weight=0 437 194 412 387 253 130 107 77 52 123 101 134 97 59 75 42 168 141 111 78 58 52
internal_count=631 437 194 412 387 253 130 107 77 52 123 101 134 97 59 75 42 168 141 111 78 58 52
is_linear=0
shrinkage=0.05


Tree=24
num_leaves=23
num_cat=0
split_feature=1 1 1 2 1 1 1 1 2 1 2 0 1 2 1 2 0 0 0 0 1 0
split_gain=0.132286 0.218199 0.16959 0.112706 0.0757079 0.191525 0.139249 0.204675 0.109528 0.0820699 0.27912 0.148845 0.348266 0.147714 0.256097 0.173316 0.0698457 0.269506 0.317298 0.172375 0.158183 0.0367061
threshold=0.28742696912441457 0.33619816792014229 0.24203354792170237 0.057968200763755202 0.79705370939915032 0.72749803429457771 0.85754647270660389 0.89699059128987602 0.36027078639572824 0.57851758584446678 0.27640017126387534 0.59468022403576848 0.43309610482525607 0.69677566161816151 0.61481167662478153 0.31183999550107144 0.86851634595127247 0.69956542273943267 0.44207022780542182 0.34916345302814911 0.068654755031203676 0.48111714911916637
decision_type=2 2 2 2 2 2 2 2 2 2 2 2 2 2 2 2 2 2 2 2 2 2
left_child=2 -2 16 -3 5 9 -6 -8 -9 10 -5 12 -12 14 -11 -16 17 18 19 20 -1 -10
right_child=1 3 -4 4 6 -7 7 8 21 13 11 -13 -14 -15 15 -17 -18 -19 -20 -21 -22 -23
leaf_value=-0.0026896288385614754 -0.0050081741213798521 0.0030563576146960258 0.0048541632713750005 -0.0053437326463960837 0.0031631333860442849 -0.0045979446190739836 -0.0046827762303027235 -0.0020711752181143865 0.00074417989056270862 0.0056686435360461477 -0.004858032194212737 0.002716571069987757 0.002352489773748499 -0.0030107285315170884 0.0024895615854554558 -0.0039415644691325729 0.0028445378928962685 -0.0041361557537068928 0.0053149842770036431 -0.004406204849614629 0.0028295038318311848 0.0034010330537477367
leaf_weight=20 25 25 26 31 37 31 22 23 26 27 34 35 33 20 22 20 27 30 33 21 37 26
leaf_count=20 25 25 26 31 37 31 22 23 26 27 34 35 33 20 22 20 27 30 33 21 37 26
internal_value=0 -0.000472579 0.00109634 -0.000197361 -0.00040755 -0.000916502 0.000553383 -0.000442088 0.000801847 -0.000402427 -0.00118885 7.39123e-05 -0.00130658 0.000772785 0.00186946 -0.000572879 0.000514768 6.86424e-05 0.00120507 -0.000533734 0.000892966 0.00207261
internal_weight=0 437 194 412 387 253 134 97 75 222 133 102 67 89 69 42 168 141 111 78 57 52
internal_count=631 437 194 412 387 253 134 97 75 222 133 102 67 89 69 42 168 141 111 78 57 52
is_linear=0
shrinkage=0.05


Tree=25
num_leaves=26
num_cat=0
split_feature=2 2 0 0 0 1 1 1 1 1 0 2 2 0 0 1 0 1 1 2 0 2 2 2 0
split_gain=0.106486 0.239794 0.230273 0.148324 0.247102 0.238822 0.191339 0.2225 0.277769 0.214057 0.295171 0.187281 0.176932 0.229331 0.167633 0.154346 0.155025 0.112313 0.103191 0.100362 0.06921 0.063387 0.0403555 0.0340078 0.028467
threshold=0.88092188241929303 0.91367013672517761 0.066769169969747202 0.56538566507926735 0.61542866237569316 0.81179918026152931 0.54103193296361141 0.38404896717950587 0.29129362594025066 0.20114873539751546 0.41695771752632904 0.77523929536700276 0.29868641193376255 0.83062345277180227 0.86851634595127247 0.64876415478407967 0.26889550973264797 0.45458095146667776 0.063147056370998447 0.5536630303055855 0.37129010052725236 0.46634536500565238 0.642426705250987 0.50462576998694186 0.42857990872270801
decision_type=2 2 2 2 2 2 2 2 2 2 2 2 2 2 2 2 2 2 2 2 2 2 2 2 2
left_child=2 -2 -1 6 -5 11 7 8 9 10 18 12 13 -6 22 -8 21 -9 -4 -7 -18 -17 23 -14 -3
right_child=1 24 3 4 5 19 15 17 -10 -11 -12 -13 14 -15 -16 16 20 -19 -20 -21 -22 -23 -24 -25 -26
leaf_value=-0.0039172978101608656 0.0063345919447866357 -0.0013403250327841804 -0.0035672782454639674 -0.0054999223832661905 0.0013235435955912659 -0.0057517597411313789 0.0063903333403037069 -0.0058096272959595636 0.0063708386219514072 -0.00419030193782722 0.0064055632986128336 -0.0039017824688926343 0.0015136144764255734 -0.0052911276521626863 0.0052420790100263228 0.0012921644177717659 0.0058642872818745681 -0.00075210243180070244 0.0011350949710634138 -0.00090880934149026879 0.002136763848477241 -0.002354473171925003 0.00269257087175819 -0.0013672746939673312 0.0012333542130710114
leaf_weight=36 22 22 20 24 38 23 21 21 20 24 20 20 20 20 36 26 20 23 28 20 33 22 22 21 21
leaf_count=36 22 22 20 24 38 23 21 21 20 24 20 20 20 20 36 26 20 23 28 20 33 22 22 21 21
internal_value=0 0.00208884 -4.95501e-05 0.000217191 -0.000682448 -0.000156906 0.0010068 -0.000153222 0.00103034 -0.00013064 0.00130218 0.00065507 0.00123556 -0.000957378 0.00252031 0.00249011 0.00167918 -0.00316592 -0.000824227 -0.00349922 0.00354338 -0.000379211 0.000965017 3.80371e-05 -8.34119e-05
internal_weight=0 65 558 522 244 220 278 156 112 92 68 177 157 58 99 122 101 44 48 43 53 48 63 41 43
internal_count=623 65 558 522 244 220 278 156 112 92 68 177 157 58 99 122 101 44 48 43 53 48 63 41 43
is_linear=0
shrinkage=0.05


Tree=26
num_leaves=26
num_cat=0
split_feature=2 2 0 0 0 1 1 1 1 1 0 2 0 2 0 0 1 0 1 2 0 2 2 2 0
split_gain=0.0961034 0.216414 0.207821 0.133863 0.22301 0.215537 0.172684 0.200936 0.27228 0.22739 0.187415 0.169021 0.164363 0.159681 0.206971 0.151289 0.139297 0.13991 0.114971 0.0905767 0.062462 0.0572067 0.0364208 0.030692 0.0256915
threshold=0.88092188241929303 0.91367013672517761 0.066769169969747202 0.56538566507926735 0.61542866237569316 0.81179918026152931 0.54103193296361141 0.3661898579768465 0.2814034675060812 0.18849979975321088 0.4092305634067695 0.77523929536700276 0.32344108421249951 0.29868641193376255 0.83062345277180227 0.86851634595127247 0.64876415478407967 0.26889550973264797 0.063147056370998447 0.5536630303055855 0.37129010052725236 0.46634536500565238 0.642426705250987 0.50462576998694186 0.42857990872270801
decision_type=2 2 2 2 2 2 2 2 2 2 2 2 2 2 2 2 2 2 2 2 2 2 2 2 2
left_child=2 -2 -1 6 -5 11 7 8 9 10 18 13 -9 14 -6 22 -8 21 -4 -7 -19 -18 23 -15 -3
right_child=1 24 3 4 5 19 16 12 -10 -11 -12 -13 -14 15 -16 -17 17 20 -20 -21 -22 -23 -24 -25 -26
leaf_value=-0.0037214328056304822 0.0060178622688082141 -0.0012733087028292094 -0.0033889143308624622 -0.0052249263506382706 0.0012573663831541414 -0.0054641717477985057 0.0060708166809663889 -0.0060302817770703275 0.0060022845335135407 -0.0047555414516301381 0.00525879105553031 -0.0037066934257745745 -0.00010458601079881192 0.0014379338041180746 -0.0050265714162378572 0.0049799750668979769 0.0012275562729113379 0.0055710730212740608 0.0016535351876742566 -0.00086336893495172259 0.0020299256313592198 -0.0022367495101537896 0.0025579423897645693 -0.0012989109426382044 0.001171686573486243
leaf_weight=36 22 22 20 24 38 23 21 22 22 21 20 20 25 20 20 36 26 20 26 20 33 22 22 21 21
leaf_count=36 22 22 20 24 38 23 21 22 22 21 20 20 25 20 20 36 26 20 26 20 33 22 22 21 21
internal_value=0 0.00198439 -4.70726e-05 0.000206332 -0.000648326 -0.000149061 0.000956463 -0.000145561 0.00103278 -0.000223873 0.00121802 0.000622316 -0.00287832 0.00117378 -0.000909509 0.0023943 0.00236561 0.00159522 -0.000538834 -0.00332426 0.00336621 -0.000360251 0.000916766 3.61353e-05 -7.92412e-05
internal_weight=0 65 558 522 244 220 278 156 109 87 66 177 47 157 58 99 122 101 46 43 53 48 63 41 43
internal_count=623 65 558 522 244 220 278 156 109 87 66 177 47 157 58 99 122 101 46 43 53 48 63 41 43
is_linear=0
shrinkage=0.05


Tree=27
num_leaves=24
num_cat=0
split_feature=2 1 1 2 1 1 1 0 0 1 0 1 1 1 1 1 1 2 2 0 0 0 0
split_gain=0.0892261 0.0868816 0.0761053 0.341271 0.195909 0.21327 0.12308 0.0962672 0.265932 0.246913 0.204535 0.201355 0.158577 0.140954 0.301248 0.22875 0.130539 0.216155 0.134055 0.127868 0.0682415 0.0786923 0.0435175
threshold=0.078095226641054408 0.4736407995892562 0.14675486876592705 0.30216061270095435 0.20114873539751546 0.23594869944633814 0.28742696912441457 0.57649546373676064 0.79469479112091945 0.81179918026152931 0.91880378842760024 0.66403193913470149 0.49552632259502055 0.47801037768142773 0.38404896717950587 0.59521747041658546 0.90937530460931282 0.44751679131397132 0.87122630035885973 0.33280733236798155 0.20551010045117749 0.56538566507926735 0.18482697409749851
decision_type=2 2 2 2 2 2 2 2 2 2 2 2 2 2 2 2 2 2 2 2 2 2 2
left_child=1 -1 3 -2 -4 -6 -7 13 11 10 -10 12 -9 14 -8 -15 17 19 22 -17 -5 -22 -19
right_child=2 -3 4 20 5 6 7 8 9 -11 -12 -13 -14 15 -16 16 -18 18 -20 -21 21 -23 -24
leaf_value=-0.0044313563965260984 0.0045500608171214875 -0.00011655707577509539 0.005326994317805484 -0.0048653062444645916 -0.0043036305831502314 0.0036215765285305679 0.0028211422955039247 -0.0019228360748716764 0.0058610565052014977 -0.0023796318431517911 -0.00045119458809494972 0.00013982631798301425 -0.0080674552281076711 0.0060261037373156466 -0.0040699712539623897 0.0051991672944277532 0.0038045073306420818 -0.0049622872312154089 0.0015398543239349412 -0.0001646214444190264 9.3465644334043789e-05 -0.0033658741102103266 -0.0017433891283525601
leaf_weight=20 23 28 21 20 23 32 29 21 33 28 21 35 21 27 35 25 32 21 21 20 35 31 21
leaf_count=20 23 28 21 20 23 32 29 21 33 28 21 35 21 27 35 25 32 21 21 20 35 31 21
internal_value=0 -0.00191439 0.00032952 -0.000859867 0.000607724 0.000385017 0.000640559 0.000395963 -0.000550894 0.00143061 0.00340629 -0.00266107 -0.00499515 0.0010477 -0.000947435 0.0018123 0.000999634 0.00016856 -0.00172194 0.00281526 -0.00230671 -0.00153138 -0.00335284
internal_weight=0 48 575 109 466 445 422 390 159 82 54 77 42 231 64 167 140 108 63 45 86 66 42
internal_count=623 48 575 109 466 445 422 390 159 82 54 77 42 231 64 167 140 108 63 45 86 66 42
is_linear=0
shrinkage=0.05


Tree=28
num_leaves=26
num_cat=0
split_feature=2 2 0 0 0 1 2 1 1 1 1 0 2 0 0 1 1 2 1 2 1 1 2 2 0
split_gain=0.0867132 0.194439 0.185514 0.112514 0.194505 0.187709 0.154367 0.149944 0.175335 0.226994 0.176178 0.244603 0.146147 0.196914 0.132418 0.119649 0.12162 0.0942027 0.088125 0.081151 0.0785788 0.0415828 0.0315573 0.0278641 0.0224882
threshold=0.88092188241929303 0.91367013672517761 0.066769169969747202 0.56538566507926735 0.61542866237569316 0.81179918026152931 0.77523929536700276 0.54103193296361141 0.38404896717950587 0.29129362594025066 0.20114873539751546 0.41695771752632904 0.29868641193376255 0.83062345277180227 0.86851634595127247 0.67268946563586451 0.90937530460931282 0.46634536500565238 0.45458095146667776 0.5536630303055855 0.063147056370998447 0.78628281484791818 0.642426705250987 0.50462576998694186 0.42857990872270801
decision_type=2 2 2 2 2 2 2 2 2 2 2 2 2 2 2 2 2 2 2 2 2 2 2 2 2
left_child=2 -2 -1 7 -5 6 12 8 9 10 11 20 13 -6 22 -9 17 21 -10 -7 -4 -17 23 -14 -3
right_child=1 24 3 4 5 19 -8 15 18 -11 -12 -13 14 -15 -16 16 -18 -19 -20 -21 -22 -23 -24 -25 -26
leaf_value=-0.003524091743909392 0.0057003473947671336 -0.0011960673738609662 -0.0031806738139130175 -0.0048707678293188417 0.0012370116395973847 -0.005119045961486257 -0.003547625145874918 0.0049297713581472639 -0.0051684696759496419 0.005726134760770947 -0.003834151732735336 0.0057944280141964555 0.0014177528512664139 -0.0048923550592735419 0.0047031893517770294 6.3362587243318556e-05 0.0041899779453300513 -0.0021904769358046068 -0.00068852854538304004 -0.00076420542318373925 0.00092277877359135489 0.0032875970192253593 0.0024294937304644424 -0.0011899620937626987 0.0010914306821567673
leaf_weight=36 22 22 20 24 38 23 20 30 21 20 24 20 20 20 36 20 26 26 23 20 28 20 22 21 21
leaf_count=36 22 22 20 24 38 23 20 30 21 20 24 20 20 20 36 20 26 26 23 20 28 20 22 21 21
internal_value=0 0.00187714 -5.25273e-05 0.000186891 -0.000596657 -0.00013039 0.000589471 0.000874609 -0.000152295 0.000898357 -0.00015116 0.00114872 0.00111649 -0.000876563 0.00228414 0.0021877 0.00129355 0.000152527 -0.00282668 -0.00309354 -0.000786993 0.00167548 0.000901821 8.2094e-05 -7.89172e-05
internal_weight=0 65 558 522 244 220 177 278 156 112 92 68 157 58 99 122 92 66 44 43 48 40 63 41 43
internal_count=623 65 558 522 244 220 177 278 156 112 92 68 157 58 99 122 92 66 44 43 48 40 63 41 43
is_linear=0
shrinkage=0.05


Tree=29
num_leaves=23
num_cat=0
split_feature=2 1 1 2 1 1 1 1 1 2 2 2 1 1 2 2 1 2 0 0 1 2
split_gain=0.0796271 0.076498 0.0707771 0.315736 0.177258 0.183992 0.115095 0.0941857 0.232243 0.141693 0.162859 0.161062 0.11728 0.262505 0.117325 0.106341 0.0696757 0.189767 0.0558979 0.0695327 0.0488995 0.0463832
threshold=0.078095226641054408 0.4736407995892562 0.14675486876592705 0.30216061270095435 0.20114873539751546 0.23594869944633814 0.28742696912441457 0.33619816792014229 0.38404896717950587 0.78215836260483884 0.7352447452821379 0.89137157220103858 0.5714630301043887 0.71912384172825472 0.20662234613728972 0.42588151380276301 0.52704006357890421 0.43888261791166944 0.20551010045117749 0.56538566507926735 0.85754647270660389 0.4019035924229909
decision_type=2 2 2 2 2 2 2 2 2 2 2 2 2 2 2 2 2 2 2 2 2 2
left_child=1 -1 3 -2 -4 -6 -7 -8 -9 10 12 -11 16 21 -15 -16 17 -10 -5 -20 -17 -14
right_child=2 -3 4 18 5 6 7 8 9 11 -12 -13 13 14 15 20 -18 -19 19 -21 -22 -23
leaf_value=-0.0041768667101860042 0.0043612911654433801 -0.00012810932073209965 0.0050619803665627149 -0.0045496385899605231 -0.0039937999970077178 0.003481185712735169 -0.0024319088286054984 0.0053307513745191196 0.0018058077629768488 0.0052986634205336933 -0.0040149036123274034 0.00019003799599077968 0.0047905816390994005 -0.003772116079926491 0.0024321304086376643 0.00063357599403547204 -0.0039528519425186372 -0.0042742859683043899 -4.905235920367497e-06 -0.0032566883255757636 -0.0023889132753538433 0.0020539865083992483
leaf_weight=20 23 28 21 20 23 32 28 24 33 27 26 36 32 23 34 23 21 21 35 31 32 30
leaf_count=20 23 28 21 20 23 32 28 24 33 27 26 36 32 23 34 23 21 21 35 31 32 30
internal_value=0 -0.00181509 0.000304684 -0.000842313 0.000572973 0.000361132 0.000598486 0.000361957 0.000578057 0.000240587 -0.000249406 0.00237945 0.000143778 0.000856201 -0.000588743 0.000233926 -0.00150904 -0.000558673 -0.00223397 -0.00153226 -0.00112496 0.00346642
internal_weight=0 48 575 109 466 445 422 390 362 338 275 63 249 174 112 89 75 54 86 66 55 62
internal_count=623 48 575 109 466 445 422 390 362 338 275 63 249 174 112 89 75 54 86 66 55 62
is_linear=0
shrinkage=0.05


Tree=30
num_leaves=26
num_cat=0
split_feature=2 1 1 1 0 1 2 0 2 0 2 0 0 2 2 0 2 2 2 0 2 2 0 2 0
split_gain=0.0809937 0.102081 0.221627 0.12095 0.115977 0.180936 0.170023 0.375724 0.282622 0.199509 0.160071 0.125153 0.102326 0.0988151 0.134129 0.179496 0.351532 0.185862 0.394514 0.159157 0.109461 0.0983013 0.0634198 0.0333402 0.00232875
threshold=0.029965884553365022 0.51390164888328238 0.5714630301043887 0.02575077590944758 0.27968034282623455 0.40248764244414398 0.42588151380276301 0.88937671084327186 0.30216061270095435 0.67755508351302918 0.41357960260429727 0.11992201760184097 0.42461579404841915 0.91367013672517761 0.84552114558688352 0.26889550973264797 0.3784027269605082 0.63394669981629104 0.27917218628668156 0.76748089653657858 0.10564951125578144 0.12379664978171091 0.66517322577288007 0.47580716059538747 0.10994797363241433
decision_type=2 2 2 2 2 2 2 2 2 2 2 2 2 2 2 2 2 2 2 2 2 2 2 2 2
left_child=-1 3 -3 -2 5 10 8 9 21 12 -5 -12 -8 14 15 16 -4 18 20 23 -17 -6 -19 -20 -18
right_child=1 2 13 4 6 -7 7 -9 -10 -11 11 -13 -14 -15 -16 17 24 22 19 -21 -22 -23 -24 -25 -26
leaf_value=-0.0028989163832738997 -0.0026276674460281027 -0.0039501002278632012 0.002330080587395329 0.0046745315901935104 -0.0014819124247878791 0.0069260939303785567 0.00011330323449025551 0.0071541526319029245 -0.0047337338779911853 -0.0025626194792696174 -0.0029810685156421227 0.0024839221313595772 0.0042784341661147134 -0.0032041605655103926 0.0042725351993881519 0.0013893196359276772 -0.005435187108814717 0.00011028922628611327 0.0077927155154091975 0.001608797024625043 -0.0034188915246792526 0.002626821362866542 -0.003823851055598685 0.0049402449547778816 -0.0046721744071692231
leaf_weight=20 22 37 27 25 24 20 30 26 33 36 22 20 29 20 21 20 20 20 21 30 29 37 21 20 20
leaf_count=20 22 37 27 25 24 20 30 26 33 36 22 20 29 20 21 20 20 20 21 30 29 37 21 20 20
internal_value=0 0.000333052 -0.000321861 0.00095158 0.00121232 0.00275264 0.000589026 0.00182833 -0.00100624 0.00037073 0.00150684 -0.000378692 0.00216057 0.000177191 0.000448785 9.65975e-05 -0.00207814 0.00100161 0.00199462 0.00437628 -0.00145636 0.00101027 -0.00190476 0.00640127 -0.00505368
internal_weight=0 630 306 324 302 87 215 121 94 95 67 42 59 269 249 228 67 161 120 71 49 61 41 41 40
internal_count=650 630 306 324 302 87 215 121 94 95 67 42 59 269 249 228 67 161 120 71 49 61 41 41 40
is_linear=0
shrinkage=0.05


Tree=31
num_leaves=26
num_cat=0
split_feature=2 1 1 1 0 1 2 0 2 0 2 0 1 2 2 0 2 2 2 0 2 2 0 2 0
split_gain=0.0730968 0.0921598 0.213693 0.108876 0.10518 0.163295 0.150501 0.340695 0.244733 0.177895 0.144464 0.112951 0.10258 0.0891807 0.121051 0.161995 0.317257 0.16774 0.356049 0.143639 0.0987885 0.0887169 0.0572364 0.0300895 0.0021017
threshold=0.029965884553365022 0.51649936676373165 0.5714630301043887 0.02575077590944758 0.27968034282623455 0.40248764244414398 0.42588151380276301 0.88937671084327186 0.30216061270095435 0.67755508351302918 0.41357960260429727 0.11992201760184097 0.34684466031240202 0.91367013672517761 0.84552114558688352 0.26889550973264797 0.3784027269605082 0.63394669981629104 0.27917218628668156 0.76748089653657858 0.10564951125578144 0.12379664978171091 0.66517322577288007 0.47580716059538747 0.10994797363241433
decision_type=2 2 2 2 2 2 2 2 2 2 2 2 2 2 2 2 2 2 2 2 2 2 2 2 2
left_child=-1 3 -3 -2 5 10 8 9 21 12 -5 -12 -8 14 15 16 -4 18 20 23 -17 -6 -19 -20 -18
right_child=1 2 13 4 6 -7 7 -9 -10 -11 11 -13 -14 -15 -16 17 24 22 19 -21 -22 -23 -24 -25 -26
leaf_value=-0.0027539705624803901 -0.0024962841025130316 -0.0039849554594340066 0.0022135765744476683 0.0044408051893115048 -0.0014078167771610121 0.0065797892282716932 0.003528478864031152 0.0067964450098001034 -0.0043341193265993803 -0.0024344884195468494 -0.0028320151508193126 0.002359726168215275 -0.00080598867027133344 -0.0030439524818211793 0.004058908498180764 0.0013198536913841964 -0.0051634276844561107 0.00010477475356310608 0.0074030797928571705 0.001528356980221967 -0.0032479469102389851 0.002495480375993695 -0.0036326585165668461 0.0046932326657224618 -0.0044385657773818822
leaf_weight=20 22 35 27 25 24 20 39 26 34 36 22 20 21 20 21 20 20 20 21 30 29 37 21 20 20
leaf_count=20 22 35 27 25 24 20 39 26 34 36 22 20 21 20 21 20 20 20 21 30 29 37 21 20 20
internal_value=0 0.000316399 -0.000309843 0.00090038 0.00114619 0.00261501 0.000557309 0.00171927 -0.000934894 0.000344201 0.0014315 -0.000359757 0.00201142 0.000168331 0.000426346 9.17676e-05 -0.00197423 0.00095153 0.00189489 0.00415747 -0.00138354 0.000959757 -0.00180952 0.0060812 -0.004801
internal_weight=0 630 304 326 304 87 217 122 95 96 67 42 60 269 249 228 67 161 120 71 49 61 41 41 40
internal_count=650 630 304 326 304 87 217 122 95 96 67 42 60 269 249 228 67 161 120 71 49 61 41 41 40
is_linear=0
shrinkage=0.05


Tree=32
num_leaves=24
num_cat=0
split_feature=2 0 0 1 1 1 0 0 1 0 1 2 2 0 1 1 2 1 2 1 0 1 0
split_gain=0.0659699 0.0841739 0.130165 0.0786044 0.100919 0.176986 0.262823 0.304809 0.262163 0.234845 0.215694 0.180553 0.207421 0.142557 0.121323 0.0996219 0.0959052 0.0819491 0.0683441 0.134061 0.161263 0.154692 0.0696248
threshold=0.029965884553365022 0.94625297345908554 0.9137267070118672 0.040461250257551713 0.51390164888328238 0.66181615764048418 0.26889550973264797 0.14505876418321142 0.8083369750549847 0.30471511724208711 0.59521747041658546 0.63926477435027274 0.31411702879567704 0.27968034282623455 0.40248764244414398 0.30546363397579174 0.47580716059538747 0.14675486876592705 0.80731941362103099 0.39903898943354965 0.42461579404841915 0.29590738345723427 0.70780080551421676
decision_type=2 2 2 2 2 2 2 2 2 2 2 2 2 2 2 2 2 2 2 2 2 2 2
left_child=-1 2 3 -2 13 9 7 -7 16 -6 -11 12 -10 14 15 17 -8 -5 19 20 -15 22 -22
right_child=1 -3 -4 4 5 6 8 -9 11 10 -12 -13 -14 18 -16 -17 -18 -19 -20 -21 21 -23 -24
leaf_value=-0.0026162721030414107 -0.0024757264337191983 0.0026143206472231729 -0.0031106467936830276 0.0011324865804256303 0.0013537051757016489 0.00062072936527650152 0.0023313375180199123 -0.007040807115672146 -0.0016097385931061583 -0.0016826583548476372 -0.0082264787610620265 -0.002798188456588171 0.0045816935655180252 -0.0015068014297867196 0.0062507997371722013 -0.0010334653225505636 0.0066753255112821028 0.0055086880456656218 -0.0018692163429383575 -0.0022630971715914025 0.002744639130603326 0.0061614023116619695 -0.00061322895881648254
leaf_weight=20 24 37 29 23 31 34 24 21 24 34 20 33 31 32 20 21 27 20 29 29 38 23 26
leaf_count=20 24 37 29 23 31 34 24 21 24 34 20 33 31 32 20 21 27 20 29 29 38 23 26
internal_value=0 0.000300579 0.000156214 0.000324191 0.000448632 -0.000212483 0.000621094 -0.00230458 0.00177874 -0.002115 -0.0041063 0.000125665 0.00187998 0.00115534 0.0028516 0.00178935 0.0046311 0.00316793 0.000350338 0.000785251 0.00152813 0.00264442 0.00138051
internal_weight=0 630 593 564 540 279 194 55 139 85 54 88 55 261 84 64 51 43 177 148 119 87 64
internal_count=650 630 593 564 540 279 194 55 139 85 54 88 55 261 84 64 51 43 177 148 119 87 64
is_linear=0
shrinkage=0.05


Tree=33
num_leaves=25
num_cat=0
split_feature=2 2 2 1 2 2 0 0 2 0 2 1 0 1 1 1 2 1 1 1 1 1 2 0
split_gain=0.0606637 0.281548 0.210396 0.131526 0.170397 0.151601 0.169808 0.168528 0.19603 0.166336 0.164577 0.130822 0.128772 0.0772125 0.0740571 0.207542 0.105711 0.0885204 0.0754793 0.216889 0.149734 0.125264 0.21802 0.0741207
threshold=0.88092188241929303 0.91367013672517761 0.8191825495158479 0.083438400306619379 0.33536465426449236 0.25205689752105293 0.31223873033601274 0.45521054766918706 0.050783489611303419 0.16579355096602669 0.1711004386261826 0.054532370873944865 0.062157261419219963 0.59521747041658546 0.28432440388032371 0.1294752686511961 0.57694274852202054 0.90937530460931282 0.80617116252904075 0.71363871584492589 0.60397509139984751 0.56243996933608209 0.63136765862291599 0.44207022780542182
decision_type=2 2 2 2 2 2 2 2 2 2 2 2 2 2 2 2 2 2 2 2 2 2 2 2
left_child=2 -2 3 4 -1 6 9 -8 -9 -5 -10 -6 -7 -3 15 -14 -17 18 19 20 21 22 23 -16
right_child=1 13 -4 5 11 12 7 8 10 -11 -12 -13 14 -15 17 16 -18 -19 -20 -21 -22 -23 -24 -25
leaf_value=0.0061236799827643802 0.0065648588165640835 0.0014462824378694808 -0.0035039459188015037 -0.0015640416613314301 -0.0020531445148993621 -0.0031715866089576765 -0.0059730159156024462 -0.0055879008024930961 0.0024426628000048158 0.0043971148827536546 -0.0027337816286100345 0.0035342395002953709 -0.0019195267604663968 -0.0028946316335350278 0.00010316675459897077 0.006584038672482838 0.0018404272035695613 0.0027239609308339456 -0.002012216831402232 0.0049145575462413646 -0.0034311461198175777 0.0041847770009189843 0.0030193387331174954 -0.0033422917715978588
leaf_weight=21 20 21 39 25 22 21 25 20 34 22 28 20 20 20 27 23 24 37 36 24 29 20 35 37
leaf_count=21 20 21 39 25 22 21 25 20 34 22 28 20 20 20 27 23 24 37 36 24 29 20 35 37
internal_value=0 0.00170125 4.48404e-05 0.000296482 0.00244624 1.83819e-05 -0.00127885 -0.00237924 -0.00128358 0.00122629 0.000104914 0.000607515 0.000618304 -0.000671237 0.000873393 0.00234646 0.00416177 0.000470555 6.97088e-05 0.000505461 -0.000209528 0.000575572 -0.00015356 -0.00188874
internal_weight=0 61 589 550 63 487 154 107 82 47 62 42 333 41 312 67 47 245 208 172 148 119 99 64
internal_count=650 61 589 550 63 487 154 107 82 47 62 42 333 41 312 67 47 245 208 172 148 119 99 64
is_linear=0
shrinkage=0.05


Tree=34
num_leaves=25
num_cat=0
split_feature=0 0 2 2 0 0 0 0 0 2 2 0 2 0 2 1 1 0 0 2 2 2 0 1
split_gain=0.0550244 0.10022 0.256324 0.486139 0.224993 0.118232 0.254277 0.233265 0.120895 0.229025 0.123061 0.236626 0.273339 0.236204 0.234585 0.265594 0.406236 0.357135 0.191978 0.13829 0.11542 0.0665595 0.0474356 0.0787049
threshold=0.96019070799944095 0.82524885824495608 0.37400309425614331 0.63507924898296986 0.80283219171125608 0.67601198503989868 0.72621364086478624 0.61822655920602287 0.51893516862781053 0.43432237909013793 0.37400309425614331 0.31223873033601274 0.27007144895075763 0.42461579404841915 0.6126846519406649 0.55426602751359721 0.39903898943354965 0.30471511724208711 0.17702523702330478 0.78215836260483884 0.42982101342999746 0.16264762871431557 0.25383198218228109 0.65445397276647321
decision_type=2 2 2 2 2 2 2 2 2 2 2 2 2 2 2 2 2 2 2 2 2 2 2 2
left_child=1 4 -3 -4 5 7 -7 8 10 -10 11 12 18 14 22 16 19 -17 -1 -16 -8 -13 23 -12
right_child=-2 2 3 -5 -6 6 20 -9 9 -11 13 21 -14 -15 15 17 -18 -19 -20 -21 -22 -23 -24 -25
leaf_value=-0.0010924631396533344 0.0024000748491811532 -0.0048760731452496073 0.0056699990473974213 -0.0035345465046702886 0.0054305118686031736 -0.0050700232935014357 -0.0021852273117041305 0.0042774014527330526 -0.0058432330741830501 0.00089046408954475604 -0.0022568612625556337 -0.0027907270588912072 0.0085182145144790423 0.004396235639190612 0.0031110105769974845 0.0013726693185701691 0.008499961198831443 -0.0074426535377278922 0.0048864733502268793 -0.0022565301108573165 0.0026820523471667852 0.00074196374819924431 -0.0012397815392393135 -0.0063061647560624856
leaf_weight=29 27 34 26 32 21 32 21 37 23 28 28 24 20 24 21 27 20 20 25 28 29 30 23 21
leaf_count=29 27 34 26 32 21 32 21 37 23 28 28 24 20 24 21 27 20 20 25 28 29 30 23 21
internal_value=0 9.45042e-05 -0.00142904 0.000591629 0.000358471 0.000149622 -0.00158965 0.000482847 0.000123771 -0.0021463 0.000464282 0.00168849 0.00352493 -0.00027486 -0.00087117 0.000520316 0.00249489 -0.00237853 0.00167556 4.38445e-05 0.000637795 -0.000828121 -0.00311301 -0.00399228
internal_weight=0 623 92 58 531 510 82 428 391 51 340 128 74 212 188 116 69 47 54 49 50 54 72 49
internal_count=650 623 92 58 531 510 82 428 391 51 340 128 74 212 188 116 69 47 54 49 50 54 72 49
is_linear=0
shrinkage=0.05


Tree=35
num_leaves=25
num_cat=0
split_feature=1 2 1 2 0 1 0 0 1 2 0 2 2 1 1 1 2 0 1 0 0 1 2 0
split_gain=0.122144 0.270092 0.146022 0.194245 0.255227 0.256006 0.163441 0.183397 0.160792 0.124344 0.170504 0.162214 0.109023 0.108776 0.0925463 0.280949 0.104693 0.149305 0.16567 0.0896246 0.0644364 0.0452154 0.0441542 0.0332409
threshold=0.083438400306619379 0.51112909978761312 0.66181615764048418 0.14718722514502738 0.94056891473412751 0.59521747041658546 0.89069140786152101 0.2755743712533878 0.83115990205378243 0.27007144895075763 0.51586519209075188 0.3707554328879924 0.50605937622351604 0.92961445567101997 0.46614556950843433 0.38404896717950587 0.87122630035885973 0.3742305829300881 0.27137920611030519 0.41905416270333468 0.15032063591151959 0.3661898579768465 0.61515549655433444 0.54619582544257816
decision_type=2 2 2 2 2 2 2 2 2 2 2 2 2 2 2 2 2 2 2 2 2 2 2 2
left_child=1 -1 3 21 5 9 7 20 23 10 -5 -11 -10 -14 15 16 17 -13 22 -16 -4 -2 -19 -9
right_child=2 -3 6 4 -6 -7 -8 8 12 11 -12 14 13 -15 19 -17 -18 18 -20 -21 -22 -23 -24 -25
leaf_value=0.0054973005827876828 -0.0022385048192171825 -0.00086964774972228857 0.00053226567847146225 -0.0059114209209967941 0.0045867366037176307 -0.0049234789076515219 -0.0031485004067097022 0.0028723089532418688 0.0029470108845271173 0.0034165332265033879 0.00046010198559434646 -0.0022585576589874649 -0.0033854174416600952 0.0016455386849966915 0.0041179974307306117 -0.0057765044551342723 -0.0030800697526761466 -0.0013818175776395946 0.0056812900499525398 -0.00050668522175824772 -0.0027288373348710593 -0.0054474761304648027 0.0019406127464026213 0.0053666131249081126
leaf_weight=31 21 36 33 21 24 33 23 22 35 34 21 27 21 22 20 25 21 20 22 22 28 23 20 34
leaf_count=31 21 36 33 21 24 33 23 22 35 34 21 27 21 22 20 25 21 20 22 22 28 23 20 34
internal_value=0 0.00207625 -0.000180168 -0.000807083 -0.000365828 -0.000781428 0.000837848 0.00130803 0.00234261 -0.00024116 -0.00272566 0.000253385 0.000875044 -0.00081144 -0.000354226 -0.000991932 9.54706e-05 0.000844755 0.0021962 0.00169554 -0.000964634 -0.00391592 0.000279398 0.00438671
internal_weight=0 67 572 354 310 286 218 195 134 253 42 211 78 43 177 135 110 89 62 42 61 44 40 56
internal_count=639 67 572 354 310 286 218 195 134 253 42 211 78 43 177 135 110 89 62 42 61 44 40 56
is_linear=0
shrinkage=0.05


Tree=36
num_leaves=25
num_cat=0
split_feature=1 2 1 2 0 1 0 0 1 2 0 2 2 1 1 1 2 0 1 0 1 0 0 2
split_gain=0.110235 0.243758 0.131785 0.175306 0.230343 0.231046 0.148075 0.161532 0.12652 0.112221 0.15388 0.146398 0.0859957 0.123453 0.0835231 0.253556 0.0944853 0.134747 0.149517 0.0808862 0.0607224 0.0472751 0.044632 0.0398491
threshold=0.083438400306619379 0.51112909978761312 0.66181615764048418 0.14718722514502738 0.94056891473412751 0.59521747041658546 0.89554303831401971 0.2755743712533878 0.81742570452227525 0.27007144895075763 0.51586519209075188 0.3707554328879924 0.50605937622351604 0.92961445567101997 0.46614556950843433 0.38404896717950587 0.87122630035885973 0.3742305829300881 0.27137920611030519 0.41905416270333468 0.8013218970583057 0.59468022403576848 0.41695771752632904 0.61515549655433444
decision_type=2 2 2 2 2 2 2 2 2 2 2 2 2 2 2 2 2 2 2 2 2 2 2 2
left_child=1 -1 3 22 5 9 7 20 21 10 -5 -11 -10 -14 15 16 17 -13 23 -16 -4 -9 -2 -19
right_child=2 -3 6 4 -6 -7 -8 8 12 11 -12 14 13 -15 19 -17 -18 18 -20 -21 -22 -23 -24 -25
leaf_value=0.0052224355216528625 -0.002053564170464164 -0.00082616528395899685 -0.0027467221308213018 -0.0056158498738936727 0.0043573997871135363 -0.0046773049042023946 -0.0031952647891427786 0.002490192030866941 0.0026988697405426931 0.0032457064998144395 0.00043709686114674527 -0.0021456297745721209 -0.0031866784403312277 0.0020523615788830365 0.003912097539287061 -0.0054876792072318494 -0.0029260662694772085 -0.0013127266825176777 0.0053972256496887319 -0.00048135096784046095 0.00044326373109860088 0.0055143416601432758 -0.0052417684022499174 0.0018435821961611512
leaf_weight=31 21 36 26 21 24 33 21 24 39 34 21 27 22 23 20 25 21 20 22 22 35 28 23 20
leaf_count=31 21 36 26 21 24 33 21 24 39 34 21 27 22 23 20 25 21 20 22 22 35 28 23 20
internal_value=0 0.00197244 -0.00017116 -0.000766728 -0.000347537 -0.000742356 0.000795956 0.00122142 0.00218029 -0.000229102 -0.00258938 0.000240715 0.000980397 -0.000508947 -0.000336515 -0.000942336 9.06971e-05 0.000802518 0.00208639 0.00161077 -0.000916402 0.00411858 -0.00372013 0.000265428
internal_weight=0 67 572 354 310 286 218 197 136 253 42 211 84 45 177 135 110 89 62 42 61 52 44 40
internal_count=639 67 572 354 310 286 218 197 136 253 42 211 84 45 177 135 110 89 62 42 61 52 44 40
is_linear=0
shrinkage=0.05


Tree=37
num_leaves=26
num_cat=0
split_feature=1 2 1 2 0 1 0 0 1 2 1 1 0 2 0 2 1 1 2 0 1 0 1 2 0
split_gain=0.0994867 0.219992 0.118936 0.158214 0.207884 0.208519 0.134162 0.152416 0.171386 0.341865 0.292622 0.14104 0.10884 0.101279 0.138877 0.132124 0.0753796 0.228835 0.085273 0.12161 0.134939 0.0729998 0.0404278 0.0359639 0.0316978
threshold=0.083438400306619379 0.51112909978761312 0.66181615764048418 0.14718722514502738 0.94056891473412751 0.59521747041658546 0.89069140786152101 0.73933276722498664 0.87722051707551396 0.56622790960935487 0.96684428811835266 0.73464576194355635 0.38348870564723853 0.27007144895075763 0.51586519209075188 0.3707554328879924 0.46614556950843433 0.38404896717950587 0.87122630035885973 0.3742305829300881 0.27137920611030519 0.41905416270333468 0.3661898579768465 0.61515549655433444 0.32492962445840357
decision_type=2 2 2 2 2 2 2 2 2 2 2 2 2 2 2 2 2 2 2 2 2 2 2 2 2
left_child=1 -1 3 22 5 13 7 8 9 11 12 -4 -10 14 -5 -15 17 18 19 -17 23 -18 -2 -21 -11
right_child=2 -3 6 4 -6 -7 -8 -9 10 24 -12 -13 -14 15 -16 16 21 -19 -20 20 -22 -23 -24 -25 -26
leaf_value=0.0049613137806450297 -0.0019479916918845404 -0.00078485708638456543 0.001982050196436996 -0.0053350574064270836 0.0041395298544860759 -0.0044434397560755975 -0.0028555332804503647 0.0041199056184975944 -0.0053447257430324783 -0.0027946363040246072 0.0036799608397164517 0.0074712454453110706 -0.00068093756298449914 0.0030834211843766219 0.00041524211077817853 -0.0020383482660960269 0.0037164925504475834 -0.0052132952846586714 -0.0027797630411528409 -0.001247090317774564 0.005127364185384729 -0.00045728340350747614 -0.0049823226690616298 0.0017514030914753675 2.0405584946274759e-05
leaf_weight=31 21 36 22 21 24 33 23 36 29 20 21 25 22 34 21 27 20 25 21 20 22 22 23 20 20
leaf_count=31 21 36 22 21 24 33 23 36 29 20 21 25 22 34 21 27 20 25 21 20 22 22 23 20 20
internal_value=0 0.00187382 -0.000162602 -0.000728392 -0.00033016 -0.000705239 0.000756158 0.00118215 0.000517001 0.00201036 -0.00128748 0.00490183 -0.0033329 -0.000217647 -0.00245991 0.00022868 -0.000319689 -0.000895219 8.61622e-05 0.000762392 0.00198207 0.00153023 -0.00353412 0.000252156 -0.00138712
internal_weight=0 67 572 354 310 286 218 195 159 87 72 47 51 253 42 211 177 135 110 89 62 42 44 40 40
internal_count=639 67 572 354 310 286 218 195 159 87 72 47 51 253 42 211 177 135 110 89 62 42 44 40 40
is_linear=0
shrinkage=0.05


Tree=38
num_leaves=23
num_cat=0
split_feature=1 2 2 0 0 1 0 0 0 1 1 1 2 1 1 1 0 2 2 2 2 2
split_gain=0.0897868 0.198543 0.112437 0.136664 0.15757 0.112605 0.118842 0.145318 0.144858 0.139948 0.365928 0.215501 0.15577 0.123979 0.453748 0.0827062 0.14313 0.137163 0.169385 0.0942018 0.145534 0.0752185
threshold=0.083438400306619379 0.51112909978761312 0.050783489611303419 0.93832263763476031 0.90309174407835768 0.96684428811835266 0.51586519209075188 0.64318638285141716 0.59046638825472286 0.67763275433013692 0.44696162466445333 0.27023233105499006 0.36027078639572824 0.87722051707551396 0.79705370939915032 0.6936148419304502 0.18637067882197997 0.41357960260429727 0.65761596969135983 0.20857316275155399 0.46393193175033454 0.70477588639001432
decision_type=2 2 2 2 2 2 2 2 2 2 2 2 2 2 2 2 2 2 2 2 2 2
left_child=1 -1 -2 4 5 6 13 8 -8 10 11 -9 -11 14 15 16 17 -4 -19 -18 -21 -22
right_child=2 -3 3 -5 -6 -7 7 9 -10 12 -12 -13 -14 -15 -16 -17 19 18 -20 20 21 -23
leaf_value=0.004713248075436681 -0.0032443888053031904 -0.00074561412038747226 0.0034022343243123032 0.0030739002683035591 -0.0044410351042946184 0.0033218405054261293 0.00063089616014622152 -0.0013099562020643671 0.0057105480991303924 -0.0016469392261933538 -0.0053321422527993238 0.005040975103408776 0.003884578166928675 -0.0035760542431317677 0.0067358296364545822 -0.0036792163936687373 0.0010631469034013293 -0.0042433448601514106 0.0022640609228983524 -0.0057048412014005919 0.00095980967516484477 -0.0027424466371645823
leaf_weight=31 28 36 32 34 21 24 32 34 25 20 35 22 35 37 20 28 21 20 20 27 23 34
leaf_count=31 28 36 32 34 21 24 32 34 25 20 35 22 35 37 20 28 21 20 20 27 23 34
internal_value=0 0.00178013 -0.000154472 4.568e-06 -0.000200054 -1.79261e-05 -0.000190301 0.000717792 0.00285881 -0.000118086 -0.00132156 0.00118505 0.00187312 -0.0008939 -0.000452835 -0.00115417 -0.000754725 0.000962303 -0.000989642 -0.00193212 -0.00268093 -0.00124855
internal_weight=0 67 572 544 510 489 465 203 57 146 91 56 55 262 225 205 177 72 40 105 84 57
internal_count=639 67 572 544 510 489 465 203 57 146 91 56 55 262 225 205 177 72 40 105 84 57
is_linear=0
shrinkage=0.05


Tree=39
num_leaves=25
num_cat=0
split_feature=1 2 1 2 1 1 1 1 0 2 0 0 0 0 1 2 1 1 1 0 1 0 0 0
split_gain=0.0810325 0.179185 0.106901 0.138544 0.137543 0.0939206 0.135575 0.122335 0.165259 0.248296 0.173816 0.122334 0.116152 0.130539 0.145167 0.30983 0.241632 0.121443 0.112559 0.0926242 0.0652642 0.039182 0.0372247 0.0263707
threshold=0.083438400306619379 0.51112909978761312 0.24203354792170237 0.42982101342999746 0.28742696912441457 0.66181615764048418 0.5317929471511933 0.49962755537575132 0.34083525881577514 0.48588167688214046 0.51893516862781053 0.26198486401786558 0.89069140786152101 0.73933276722498664 0.87722051707551396 0.56622790960935487 0.96684428811835266 0.73464576194355635 0.39903898943354965 0.38348870564723853 0.59521747041658546 0.58134351365468306 0.60058396349100474 0.32492962445840357
decision_type=2 2 2 2 2 2 2 2 2 2 2 2 2 2 2 2 2 2 2 2 2 2 2 2
left_child=1 -1 3 21 -4 6 7 8 9 -6 -10 -8 13 14 15 17 19 -7 -12 -16 -13 -2 -5 -17
right_child=2 -3 4 22 5 12 11 -9 10 -11 18 20 -14 -15 16 23 -18 -19 -20 -21 -22 -23 -24 -25
leaf_value=0.0044775856238219048 -0.0050578999992770459 -0.00070833352995881187 0.0035236425858376358 -0.0012519064968835344 0.00077763374540067859 0.0018943502938120881 0.00053022340483342603 0.0035896043653007256 0.0049184640171006325 -0.0070067120343446729 0.0012726948408271711 -0.002085074451835161 -0.002664686095617388 0.0038109728235415081 -0.0048986867762668513 -0.0026671465579420333 0.0033298706159084327 0.0069879437163472176 -0.0035088883480057123 -0.00059632485393773429 -0.0055639473296021334 -0.0021005412098020317 0.0011054565495049412 -9.9525162950158134e-05
leaf_weight=31 24 36 29 34 21 22 24 22 20 20 32 28 23 36 29 20 21 25 20 22 26 21 33 20
leaf_count=31 24 36 29 34 21 22 24 22 20 20 32 28 23 36 29 20 21 25 20 22 26 21 33 20
internal_value=0 0.00169112 -0.000146748 -0.00153202 0.000190534 -3.37353e-05 -0.000780442 0.000178408 -0.000485718 -0.00301961 0.000957191 -0.00243999 0.000695846 0.00109222 0.000476648 0.00185104 -0.00118408 0.00460371 -0.000566376 -0.00304277 -0.00376009 -0.0036778 -9.08172e-05 -0.00138334
internal_weight=0 67 572 112 460 431 213 135 113 41 72 78 218 195 159 87 72 47 52 51 54 45 67 40
internal_count=639 67 572 112 460 431 213 135 113 41 72 78 218 195 159 87 72 47 52 51 54 45 67 40
is_linear=0
shrinkage=0.05


Tree=40
num_leaves=25
num_cat=0
split_feature=1 1 2 2 0 1 0 0 0 1 0 1 0 1 1 2 2 1 1 1 0 0 1 2
split_gain=0.0807874 0.224263 0.148551 0.169438 0.136445 0.135677 0.128198 0.121517 0.161794 0.176383 0.192154 0.316233 0.121229 0.0999259 0.0978701 0.396598 0.21212 0.117931 0.080476 0.0722094 0.0664946 0.167099 0.0443447 0.0244818
threshold=0.39658242690836482 0.27137920611030519 0.057968200763755202 0.24390980665802534 0.15248171120330248 0.95038813673036071 0.46394269897666235 0.63703126421465506 0.45521054766918706 0.55426602751359721 0.092808061437249692 0.71363871584492589 0.70780080551421676 0.81179918026152931 0.11085934605881527 0.33536465426449236 0.21696536838229488 0.054532370873944865 0.5714630301043887 0.20114873539751546 0.67755508351302918 0.30778336848694743 0.83596120910603211 0.16008592362660176
decision_type=2 2 2 2 2 2 2 2 2 2 2 2 2 2 2 2 2 2 2 2 2 2 2 2
left_child=1 4 -2 6 -1 7 -4 8 9 -5 -11 -12 -9 18 15 -6 -16 -17 -14 -18 21 -3 -13 -8
right_child=2 20 3 5 14 -7 23 12 -10 10 11 22 13 -15 16 17 19 -19 -20 -21 -22 -23 -24 -25
leaf_value=0.0037099488584014274 0.0043854304927993908 -0.0050042845106319242 -0.004659461022155093 0.0033373160431545007 0.0045040941424667842 0.0035693913303677821 0.00079535262649069009 0.0050560949691793042 -0.0036201575757278241 -0.0049488424238833513 -0.0045908777043223385 0.0043156572831018515 -0.00026576768418419219 -0.0018957235365329934 -0.0030274905586758489 -0.00091117819635352741 0.0036806618911214175 -0.005436010180144675 0.0038612126062313717 0.0003169042748157625 -0.0048819982006158358 0.00079529860436364458 0.0011278156097978354 -0.0015659099622141748
leaf_weight=24 22 23 28 34 20 36 23 21 34 22 21 24 21 24 26 24 39 36 27 27 29 27 20 21
leaf_count=24 22 23 28 34 20 36 23 21 34 22 21 24 21 24 26 24 39 36 27 27 29 27 20 21
internal_value=0 -0.000728218 0.000398165 0.000151761 0.000178283 0.000700996 -0.00201467 0.000284616 -0.000572693 0.000283619 -0.00090978 0.000457287 0.00171347 0.000738531 -0.000314507 -0.00159353 0.00079769 -0.00362608 0.00205566 0.00230458 -0.00297726 -0.00187251 0.00286664 -0.000331614
internal_weight=0 275 378 356 196 284 72 248 155 121 87 65 93 72 172 80 92 60 48 66 79 50 44 44
internal_count=653 275 378 356 196 284 72 248 155 121 87 65 93 72 172 80 92 60 48 66 79 50 44 44
is_linear=0
shrinkage=0.05


Tree=41
num_leaves=25
num_cat=0
split_feature=1 1 2 2 0 1 0 0 0 1 0 1 0 1 1 2 2 1 1 1 2 1 1 2
split_gain=0.0729106 0.202398 0.134067 0.152918 0.123142 0.122449 0.115699 0.109669 0.146019 0.159186 0.173419 0.2854 0.109409 0.0901831 0.0883278 0.35793 0.191438 0.106433 0.0726296 0.065169 0.0646009 0.126726 0.0400211 0.0220948
threshold=0.39658242690836482 0.27137920611030519 0.057968200763755202 0.24390980665802534 0.15248171120330248 0.95038813673036071 0.46394269897666235 0.63703126421465506 0.45521054766918706 0.55426602751359721 0.092808061437249692 0.71363871584492589 0.70780080551421676 0.81179918026152931 0.11085934605881527 0.33536465426449236 0.21696536838229488 0.054532370873944865 0.5714630301043887 0.20114873539751546 0.59364308074769079 0.33619816792014229 0.83596120910603211 0.16008592362660176
decision_type=2 2 2 2 2 2 2 2 2 2 2 2 2 2 2 2 2 2 2 2 2 2 2 2
left_child=1 4 -2 6 -1 7 -4 8 9 -5 -11 -12 -9 18 15 -6 -16 -17 -14 -18 21 -3 -13 -8
right_child=2 20 3 5 14 -7 23 12 -10 10 11 22 13 -15 16 17 19 -19 -20 -21 -22 -23 -24 -25
leaf_value=0.0035244514214961479 0.0041661589914424859 -0.0042417367879787225 -0.0044264879693011088 0.0031704501844668654 0.0042788894462864845 0.0033909216982364238 0.00075558518393613078 0.0048032902042558865 -0.0034391497124863024 -0.0047014003873548727 -0.0043613338865162365 0.004099874169332907 -0.00025247935665815717 -0.0018009373646539946 -0.0028761160595772361 -0.00086561932791179665 0.003496628867175717 -0.0051642096976542637 0.0036681519096924201 0.00030105909746554167 -0.0045164939651096405 0.0010069993567531524 0.0010714248195290567 -0.0014876144361637888
leaf_weight=24 22 23 28 34 20 36 23 21 34 22 21 24 21 24 26 24 39 36 27 27 33 23 20 21
leaf_count=24 22 23 28 34 20 36 23 21 34 22 21 24 21 24 26 24 39 36 27 27 33 23 20 21
internal_value=0 -0.000691807 0.000378257 0.000144173 0.000169369 0.000665946 -0.00191393 0.000270385 -0.000544059 0.000269438 -0.000864291 0.000434423 0.00162779 0.000701605 -0.000298782 -0.00151386 0.000757805 -0.00344477 0.00195288 0.00218935 -0.0028284 -0.00161737 0.00272331 -0.000315033
internal_weight=0 275 378 356 196 284 72 248 155 121 87 65 93 72 172 80 92 60 48 66 79 46 44 44
internal_count=653 275 378 356 196 284 72 248 155 121 87 65 93 72 172 80 92 60 48 66 79 46 44 44
is_linear=0
shrinkage=0.05


Tree=42
num_leaves=25
num_cat=0
split_feature=1 1 2 2 0 1 0 0 0 1 0 1 0 1 1 2 2 1 0 1 0 0 1 0
split_gain=0.0658018 0.182664 0.120995 0.138009 0.111135 0.11051 0.104418 0.098976 0.131782 0.143665 0.156511 0.257574 0.0987417 0.0813903 0.0797158 0.323032 0.173033 0.0960554 0.0907009 0.0655482 0.0590895 0.151533 0.0361191 0.0214387
threshold=0.39658242690836482 0.27137920611030519 0.057968200763755202 0.24390980665802534 0.15248171120330248 0.95038813673036071 0.46394269897666235 0.63703126421465506 0.45521054766918706 0.55426602751359721 0.092808061437249692 0.71363871584492589 0.70780080551421676 0.81179918026152931 0.11085934605881527 0.33536465426449236 0.6126846519406649 0.054532370873944865 0.6690298009605522 0.5714630301043887 0.67755508351302918 0.30778336848694743 0.83596120910603211 0.75701724198206799
decision_type=2 2 2 2 2 2 2 2 2 2 2 2 2 2 2 2 2 2 2 2 2 2 2 2
left_child=1 4 -2 6 -1 7 -4 8 9 -5 -11 -12 -9 19 15 -6 18 -17 -16 -14 21 -3 -13 -8
right_child=2 20 3 5 14 -7 23 12 -10 10 11 22 13 -15 16 17 -18 -19 -20 -21 -22 -23 -24 -25
leaf_value=0.0033482288631300132 0.0039578510152006689 -0.004627890160064335 -0.0042051634618214201 0.0030119276735657719 0.0040649449601187371 0.0032213755980289231 -0.0013067971366884498 0.0045631256486688343 -0.0032671921927591458 -0.004466330437836322 -0.0041432670816513046 0.0038948804644557337 -0.00023985527777334767 -0.0017108905051524442 -0.0025636588647852052 -0.00082233840948902075 0.0036891271971398968 -0.0049059992572033986 0.001359404824101008 0.0034847444578729294 -0.0044825262963121499 0.00089494948516841285 0.0010178536828607321 0.00090973795391619211
leaf_weight=24 22 23 28 34 20 36 24 21 34 22 21 24 21 24 34 24 32 36 26 27 29 27 20 20
leaf_count=24 22 23 28 34 20 36 24 21 34 22 21 24 21 24 34 24 32 36 26 27 29 27 20 20
internal_value=0 -0.000657217 0.000359344 0.000136964 0.0001609 0.000632649 -0.00181824 0.000256866 -0.000516856 0.000255966 -0.000821077 0.000412701 0.0015464 0.000666525 -0.000283843 -0.00143816 0.000719915 -0.00327253 -0.000863665 0.00185523 -0.00268698 -0.00164556 0.00258714 -0.000299281
internal_weight=0 275 378 356 196 284 72 248 155 121 87 65 93 72 172 80 92 60 60 48 79 50 44 44
internal_count=653 275 378 356 196 284 72 248 155 121 87 65 93 72 172 80 92 60 60 48 79 50 44 44
is_linear=0
shrinkage=0.05


Tree=43
num_leaves=24
num_cat=0
split_feature=1 1 2 2 0 1 0 2 0 2 0 1 1 1 2 2 1 1 2 1 2 2 2
split_gain=0.0593862 0.164854 0.109198 0.124553 0.1003 0.0997353 0.0942375 0.0893694 0.162603 0.222691 0.144373 0.192672 0.221248 0.0719435 0.291536 0.161805 0.08669 0.0596163 0.0575571 0.114937 0.0572272 0.0276762 0.0202163
