tree
version=v4
num_class=1
num_tree_per_iteration=1
label_index=0
max_feature_idx=19
objective=regression
feature_names=Column_0 Column_1 Column_2 Column_3 Column_4 Column_5 Column_6 Column_7 Column_8 Column_9 Column_10 Column_11 Column_12 Column_13 Column_14 Column_15 Column_16 Column_17 Column_18 Column_19
feature_infos=[-3.6352002275401021:2.6478842135570875] [-3.3295037975081292:2.98525900260341] [-3.8366555484593694:3.0713367016060018] [-3.3078999524973884:3.3777682412893619] [-3.0339893621452689:2.8906429903991375] [-3.0105225163135167:2.7832351422473289] [-3.1385146662340397:3.2877611873887389] [-3.6010851044595187:3.1377485336599946] [-3.6883652914284442:3.9423310108066856] [-3.9224002516183423:2.9430483352686214] [-3.1704257358780557:2.9452462899351] [-2.9469042192840145:3.3773829190826459] [-3.8563753292405969:2.6796286939000029] [-3.3211145555891388:3.285723713681842] [-3.3348927106258297:3.1404229101022372] [-2.7578536295473679:3.8527314906547208] [-2.9118039447172657:3.2430929695947324] [-2.9667530687407306:4.4790842510257569] [-3.2325654325124336:3.9262377064363267] [-2.9937066026606232:2.9695095077456646]
tree_sizes=2895 5049 4995 5135 4838 4554 5122 5069 5255 5006 5204 5178 5461 5462 4854 4460 4888 5161 4791 4980 4810 5157 5419 5331 5262 5162 5157 4590 4836 4980 5199 5333 5054 5455 5762 5514 5187 5243 5867 4976 5938 5691 5503 6213 5767 5882 5584 5351 5342 5641 5788 6051 5438 6112 5760 5479 5960 6037 5353 5573 5257 5348 5286 5837 5142 5597 5401 5888 5263 5848 5522 5828 5339 5531 5941 5464 4929 5931 5337 5767 5569 5296 6501 5293 5908 6097 5993 6154 6737 6690 5894 6141 5335 6283 5496 6549 6401 6331 6883 6944

Tree=0
num_leaves=26
num_cat=0
split_feature=17 4 4 6 0 0 0 0 17 6 17 6 11 6 17 11 15 17 6 4 11 6 8 0 17
split_gain=3.62774e+06 2.11818e+06 1.21245e+06 1.16628e+06 957111 722656 679825 573545 435531 430671 371275 267816 232347 218023 205666 202848 191444 162703 160036 202288 101603 96601.7 95520.7 86502.3 63626
threshold=0.37973532790622527 -0.092520156107264592 0.11834653894388238 0.017451255644209747 0.037121510424485242 -0.38781835233934669 -0.90669202290086959 -0.34384883924191839 -0.84565889971796326 -0.80912707224655989 0.078027515897113042 0.82305952052122711 0.39301467382478533 0.54485917627679104 -1.0252517168583335 0.20985624378487097 -0.063973387096271886 -0.92613260560644972 1.0524854986577241 -0.85170532708369906 0.022754775061635087 0.69579609518827235 0.25209061955402284 -0.18001102724396156 1.0333618017077517
decision_type=2 2 2 2 2 2 2 2 2 2 2 2 2 2 2 2 2 2 2 2 2 2 2 2 2
left_child=1 4 6 8 10 15 -2 -5 -3 -8 17 12 -6 20 -9 -4 -10 -1 19 -11 -7 -16 -19 -18 -21
right_child=2 3 5 7 11 13 9 14 16 18 -12 -13 -14 -15 21 -17 23 22 -20 24 -22 -23 -24 -25 -26
leaf_value=-15.078083211188407 -6.1459272576699204 -7.5205154444488729 0.64861714111471724 -1.1335575279120254 -6.7969452753597333 7.8749621746777789 -2.8521230058318805 1.956876758746803 -3.711315048884487 -0.27044339854270227 -4.9164695024092149 2.5716459123417739 -0.37143096704036005 16.692046994380654 5.8142969046737401 7.5188074444713333 -0.94834937293082489 -8.1836375590041275 8.8207159337977128 3.8940637601912029 12.592583028011026 9.7615639755670589 -12.466480975311411 3.6462854581911652 7.8823583928868173
leaf_weight=23 22 37 22 37 34 21 21 20 33 20 29 20 24 20 31 21 20 30 22 20 25 31 23 21 20
leaf_count=23 22 37 22 37 34 21 21 20 33 20 29 20 24 20 31 21 20 30 22 20 25 31 23 21 20
internal_value=0.363587 -2.59871 5.19344 0.595305 -6.61306 9.04765 1.83256 4.03401 -3.09124 3.53671 -9.72964 -2.41766 -4.13811 12.3338 6.36572 4.00383 -0.8766 -11.5662 5.17287 3.83533 10.4389 7.78793 -10.0422 1.405 5.88821
internal_weight=0 413 234 230 183 109 125 119 111 103 105 78 58 66 82 43 74 76 82 60 46 62 53 41 40
internal_count=647 413 234 230 183 109 125 119 111 103 105 78 58 66 82 43 74 76 82 60 46 62 53 41 40
is_linear=1
leaf_const=-15.078083211188407 -6.1459272576699204 -7.5205154444488729 0.64861714111471724 -1.1335575279120254 -6.7969452753597333 7.8749621746777789 -2.8521230058318805 1.956876758746803 -3.711315048884487 -0.27044339854270227 -4.9164695024092149 2.5716459123417739 -0.37143096704036005 16.692046994380654 5.8142969046737401 7.5188074444713333 -0.94834937293082489 -8.1836375590041275 8.8207159337977128 3.8940637601912029 12.592583028011026 9.7615639755670589 -12.466480975311411 3.6462854581911652 7.8823583928868173
num_features=0 0 0 0 0 0 0 0 0 0 0 0 0 0 0 0 0 0 0 0 0 0 0 0 0 0
leaf_features=                          
leaf_coeff=                          
shrinkage=1


Tree=1
num_leaves=25
num_cat=0
split_feature=1 17 4 17 6 0 0 0 4 1 4 6 6 4 17 17 0 6 4 1 1 4 15 6
split_gain=3.69369e+06 2.10936e+06 1.61071e+06 1.40403e+06 791086 783072 704531 561889 519199 395681 388898 304403 272060 269388 233455 212550 202173 177675 158767 140207 134927 85453.1 70689.2 35954.9
threshold=0.4003289261533946 0.40396863063679406 0.20495390281856374 0.19212923602957929 -0.1706819961606639 -0.49493724961520286 0.037121510424485242 0.16937266233505624 -0.74322202208489074 -0.81182756449760052 -0.069844930701973215 -0.034841435150711551 -0.17280754464493528 0.55301364460727298 -0.91776523340230665 -0.84981265259976146 -0.38781835233934669 0.09830323759259095 -0.092520156107264592 -0.43988113585743538 -0.52382033844530251 0.28647381040083714 0.027830701537764686 -0.45706669388701748
decision_type=2 2 2 2 2 2 2 2 2 2 2 2 2 2 2 2 2 2 2 2 2 2 2 2
left_child=1 2 6 7 15 11 14 10 -5 -7 -2 -3 -8 17 -1 -4 -10 -11 -9 -16 -6 -18 -22 -21
right_child=3 5 4 8 20 9 12 18 16 13 -12 -13 -14 -15 19 -17 21 -19 -20 23 22 -23 -24 -25
leaf_value=-15.269202534357706 -6.2349210414886471 -7.0947155674298603 -9.1722281542691331 3.2115165063738824 -0.37339265843232478 -1.013152629852295 -7.9002408981323242 2.3818259420990944 8.5625577781511399 1.2967903467325064 1.9800167939242195 0.40577276252931171 -1.3928245910339887 10.761667948183806 -11.804916477203371 -2.7879610322415829 11.889091567993164 6.8614027690142398 8.2146296569279258 -9.0628546333312983 2.3747008187385901 16.273946746826173 6.2985143850472838 -6.0647340011596684
leaf_weight=24 25 24 22 20 24 25 29 20 23 26 34 31 36 23 38 32 20 32 28 20 24 25 22 20
leaf_count=24 25 24 22 20 24 25 29 20 23 26 34 31 36 23 38 32 20 32 28 20 24 25 22 20
internal_value=0 -2.61831 -5.15895 5.61484 -0.841976 1.97377 -8.36436 1.76723 10.2932 4.48558 -1.50089 -2.86717 -4.29613 6.18271 -10.9569 -5.38896 12.376 4.36692 5.78429 -9.62998 2.6657 14.3251 4.25131 -7.56379
internal_weight=0 452 291 195 124 161 167 107 88 106 59 55 65 81 102 54 68 58 48 78 70 45 46 40
internal_count=647 452 291 195 124 161 167 107 88 106 59 55 65 81 102 54 68 58 48 78 70 45 46 40
is_linear=1
leaf_const=0.14723997132941805 1.7012305006727502 -2.9172186261752246 -6.7712166254523716 -1.2289149993633832 -0.82273584635148012 6.3883522014273852 0.051764533883287216 -3.9879387906156922 0.67506899802870068 -1.4096505545542835 0.85449062841840095 -1.7347617185128592 -1.3553926874961375 5.0087990355417338 -2.5524713008438766 -0.8638390507678424 9.5701479562334502 -0.62167164023065669 1.5780022087892576 0.59646299650071366 1.4598798463848339 3.7531687706153209 -3.5161895803702707 -3.2185144101877299
num_features=4 4 4 4 3 4 3 5 4 4 5 4 4 5 4 4 4 4 5 4 5 5 4 5 5
leaf_features=0 1 4 17  0 1 4 17  0 1 6 17  1 4 6 17  1 4 17  1 4 6 17  0 1 17  0 1 4 6 17  0 1 4 17  0 1 4 17  0 1 4 6 17  0 1 4 17  0 1 6 17  0 1 4 6 17  0 1 4 17  0 1 4 17  1 4 6 17  0 1 4 17  0 1 4 6 17  0 1 4 17  0 1 4 6 17  1 4 6 15 17  0 1 4 17  1 4 6 15 17  0 1 4 6 17  
leaf_coeff=3.7674434726551898 4.9827160271870197 3.657771551190657 4.4489512737223347  3.8086917837361023 3.0684440837413467 3.5658812504225881 5.5607970843002281  5.2108335231657694 3.4639340274323462 1.6253845367866235 5.4940755938902006  3.3744573480198308 2.3532536151348862 -0.91569812328063971 2.2004138283426218  4.485015752306408 -1.153542036216386 -2.5036415886650802  4.5879803102079277 3.2882545266854906 2.778155610671738 0.030407190408764252  4.1260297987559262 9.7375670131624474 1.6372291695888082  3.0525321139170711 5.2727774770071507 4.211665478980442 3.3161773554523237 3.2522504215856096  6.5718552652975237 4.4754603066064185 1.6758171172740319 3.0349913801855042  -0.59909917027280324 3.4917260705979687 1.8696358661709063 2.6993632181703622  2.3356950762339159 6.9859350176257102 1.7569135277865149 2.9830022867352888 6.2336196959309298  4.1569064227352168 4.8703590564733883 2.2707062356533547 4.3574631838379698  2.7156184912057193 4.6918743534857468 5.9107431411656597 2.0969004848094577  4.579059128674321 4.8464983072861321 3.2959306613691446 3.5714040068270139 4.4663324023353494  1.6093351777102765 3.021945609236699 2.1516815029746512 2.5790295708398641  2.5867568017230895 3.6445298393168595 2.9268141139309041 4.3492856205894483  2.9300228939840682 3.8791604067543184 4.0399158073618482 2.644366242013374  1.2600338169891869 -1.1644570057009782 2.9663857595815366 3.681663322570762  3.6158483460771751 4.2002201364972036 2.7768094897929796 3.386538534388813 4.3087753095762515  0.8444969313733488 6.1874950243026676 5.0528631148586047 3.370553291540844  4.3765248142078716 5.1050409722730672 4.5472970042353458 3.3089587774349596 4.2760789930103078  -1.3058300973168679 1.9939662996308032 0.52632464099808496 0.38574764671634804 2.628825161158777  0.98167130672981517 2.9992261647204415 5.1106472958211775 3.6128658284027382  3.0364783894844471 4.7493533182640277 2.3278406057257093 4.2113617700308534 2.0297478380782503  1.7734897837164363 1.7937702341686839 1.7767784375331488 1.4978520678902181 2.4832785062273302  
shrinkage=0.05


Tree=2
num_leaves=25
num_cat=0
split_feature=1 17 4 17 6 0 0 0 4 1 4 6 6 4 17 17 0 6 17 1 1 4 0 6
split_gain=3.33356e+06 1.90369e+06 1.45366e+06 1.26714e+06 713956 706722 635839 507105 468577 357102 350980 274724 245534 243122 210693 191826 182461 160351 143308 126537 121771 77121.5 70119.5 32449.3
threshold=0.4003289261533946 0.40396863063679406 0.20495390281856374 0.19212923602957929 -0.1706819961606639 -0.49493724961520286 0.037121510424485242 0.16937266233505624 -0.74322202208489074 -0.81182756449760052 -0.069844930701973215 -0.034841435150711551 -0.17280754464493528 0.55301364460727298 -0.91776523340230665 -0.84981265259976146 -0.38781835233934669 0.09830323759259095 -0.58794162685053486 -0.43988113585743538 -0.52382033844530251 0.28647381040083714 -0.34384883924191839 -0.45706669388701748
decision_type=2 2 2 2 2 2 2 2 2 2 2 2 2 2 2 2 2 2 2 2 2 2 2 2
left_child=1 2 6 7 15 11 14 10 -5 -7 -2 -3 -8 17 -1 -4 -10 -11 -9 -16 -6 -18 -22 -21
right_child=3 5 4 8 20 9 12 18 16 13 -12 -13 -14 -15 19 -17 21 -19 -20 23 22 -23 -24 -25
leaf_value=-14.505742311477661 -5.9231750125885014 -6.7399797598520923 -8.7136168653314776 3.0509406006336217 -0.35472294290860495 -0.96249501419067396 -7.5052288055419929 2.9819801752383892 8.1344299103902724 1.2319508479191708 1.8810159630635206 0.38548420436920661 -1.3231833402895266 10.223584830242656 -11.214670655601903 -2.6485629789531231 11.294636898040771 6.5183325584977867 8.4651071808554903 -8.609711933135987 1.8129616892337801 15.460249633789061 5.7508806989743162 -5.7614973258972171
leaf_weight=24 25 24 22 20 24 25 29 26 23 26 34 31 36 23 38 32 20 32 22 20 20 25 26 20
leaf_count=24 25 24 22 20 24 25 29 26 23 26 34 31 36 23 38 32 20 32 22 20 20 25 26 20
internal_value=0 -2.4874 -4.901 5.3341 -0.799877 1.87508 -7.94614 1.67887 9.77852 4.2613 -1.42584 -2.72381 -4.08133 5.87358 -10.409 -5.11951 11.7572 4.14858 5.49508 -9.14848 2.53241 13.6089 4.03874 -7.1856
internal_weight=0 452 291 195 124 161 167 107 88 106 59 55 65 81 102 54 68 58 48 78 70 45 46 40
internal_count=647 452 291 195 124 161 167 107 88 106 59 55 65 81 102 54 68 58 48 78 70 45 46 40
is_linear=1
leaf_const=0.14145092719745664 1.6163109071098234 -2.7709124448443618 -6.4325624747816166 -1.1676579346640288 -0.78164839426289068 6.0723935620810501 0.049444216789873117 -0.36158736755485243 0.64036776434777498 -1.33913164296614 0.81166228508078575 -1.6482607692610856 -1.2875408204250995 4.7580101368808077 -2.4242304603402092 -0.82042405838477639 9.091348311877482 -0.59109277357034407 1.6262711269935779 0.56756914281267645 -1.002362212985962 3.5628135458264296 0.57435383863340528 -3.0570378819545438
num_features=4 4 4 4 3 4 3 5 3 4 5 4 4 5 4 4 4 4 5 3 5 5 4 5 5
leaf_features=0 1 4 17  0 1 4 17  0 1 6 17  1 4 6 17  1 4 17  1 4 6 17  0 1 17  0 1 4 6 17  0 1 17  0 1 4 17  0 1 4 6 17  0 1 4 17  0 1 6 17  0 1 4 6 17  0 1 4 17  0 1 4 17  1 4 6 17  0 1 4 17  0 1 4 6 17  0 1 17  0 1 4 6 17  0 1 4 6 17  0 1 4 17  0 1 4 6 17  0 1 4 6 17  
leaf_coeff=3.5792631012483676 4.7339256738059845 3.4751318551630277 4.2271920150585922  3.6184667135605526 2.915384585691327 3.3876625183271445 5.2830327801024914  4.9510298334792235 3.2908307042678886 1.5443771544760894 5.2200271318251898  3.2058544031175189 2.2360332903543272 -0.87003332539973965 2.0907339793320645  4.2611700169300866 -1.0959094498747923 -2.3788848742454443  4.3595444614131962 3.1245191370719225 2.6397413744776199 0.028836327193068723  3.9200598146231282 9.2538389512474115 1.555408381956914  2.9000938073204936 5.0093490069256292 4.0012098652191499 3.1504960260689669 3.0898439035965368  2.5721731898044369 1.5837790076469478 0.13707530504074708  -0.56931343940082413 3.317548624163134 1.7762998081033836 2.564669091409522  2.2184415717144375 6.6390163903113537 1.6685940739780432 2.8340408207987888 5.9225864397579846  3.9493424912527297 4.6271678140758752 2.1573168884596368 4.1398353220058128  2.5799625501907588 4.4579362479706255 5.6157841219691988 1.9921865012053275  4.3504565063063856 4.60450491830274 3.1313667711665785 3.3929108643617321 4.2432810780744035  1.5289461859367601 2.8714490036412625 2.0441682135221066 2.4503946909218586  2.4575766343703069 3.4625644798769999 2.7805902442738133 4.1325271854118313  2.7838865696057815 3.6855868431978687 3.8383007922270451 2.512547276657318  1.1974229576762674 -1.106442564855745 2.8199071548281069 3.4982361527478449  3.4351356510524513 3.9909748227338513 2.6381555471090632 3.2175315736382153 4.0936621164515552  3.2404390981229891 4.6530115889063319 4.6867026488507504  4.1583044100598459 4.8519392474460794 4.320498673226278 3.143544794547438 4.0628058268733636  4.2354267910234018 4.4622345949626512 4.689994692243987 2.794417908525614 2.6591082248325186  0.93294972993588454 2.8501641603692263 4.8558836663803522 3.4330173539347122  3.5672961408513384 5.532904857839938 3.8331204613497594 3.6151107198667276 5.1250088564845662  1.684863152599565 1.7051091107421812 1.6885463329079595 1.4230972234591401 2.3597052807316294  
shrinkage=0.05


Tree=3
num_leaves=25
num_cat=0
split_feature=1 0 17 6 4 17 0 1 4 17 4 4 4 17 11 6 0 4 0 11 6 0 14 4
split_gain=3.00854e+06 1.7358e+06 1.14359e+06 1.1371e+06 705778 681399 457662 427125 422891 415923 366761 316760 286450 275149 197666 165845 164671 142714 139516 131017 129860 108904 70844.4 69602.1
threshold=0.4003289261533946 0.26797655616274729 0.19212923602957929 0.85617372090805788 0.28647381040083714 -0.099010532509344468 0.16937266233505624 -0.62119301410659811 -0.74322202208489074 -0.66993243739853547 0.24234949894781879 -0.069844930701973215 -0.53409662192672458 -0.08329569742548501 -0.31508456998828555 -0.147659019156168 -0.38781835233934669 -0.092520156107264592 -0.49493724961520286 -0.16679662848064433 -0.49366238529576811 -0.97314203207984662 0.29429245594089753 0.28647381040083714
decision_type=2 2 2 2 2 2 2 2 2 2 2 2 2 2 2 2 2 2 2 2 2 2 2 2
left_child=1 3 6 4 7 12 11 21 -4 -6 15 -2 -3 -9 -5 -7 -10 -8 -15 -14 -11 -1 -12 -18
right_child=2 5 8 14 9 10 17 13 16 20 22 -13 19 18 -16 -17 23 -19 -20 -21 -22 -23 -24 -25
leaf_value=-14.865853099822999 -5.6270162086486817 -6.8888992264157256 2.8983936721086501 -1.7543528861012954 -8.1833457390467341 -1.6887840316409157 1.9944552755355838 -9.5719314876355632 7.7277084029239163 -3.4184444947676229 6.066045737537471 1.7869651254485637 -2.8837376809120183 -6.420944210461208 3.8647633571068156 4.0660406311673505 10.729905319213868 7.5245195252554753 -1.2820354223251345 2.4990892538657556 1.4324546839739827 -10.216042989843032 10.177741506099702 14.687237060546876
leaf_weight=20 25 21 20 29 24 21 20 38 23 22 22 34 20 28 34 31 20 28 25 26 37 34 20 25
leaf_count=20 25 21 20 29 24 21 20 38 23 22 22 34 20 28 34 31 20 28 25 26 37 34 20 25
internal_value=0 -2.36303 5.06739 -4.66774 -6.3107 1.80264 1.59493 -8.4154 9.28959 -2.6338 4.54884 -1.35455 -2.05023 -6.32495 1.27819 1.74198 11.1694 5.22033 -3.99693 0.15873 -0.376355 -11.9382 8.024 12.9284
internal_weight=0 452 195 291 228 161 107 145 88 83 94 59 67 91 63 52 68 48 53 46 59 54 42 45
internal_count=647 452 195 291 228 161 107 145 88 83 94 59 67 91 63 52 68 48 53 46 59 54 42 45
is_linear=1
leaf_const=-4.1944113410715547 1.5356299783420355 -3.2741576506266714 -1.1094540975712766 0.76742108211867621 -0.90309992622509039 0.78254178071278346 -3.8916769351940275 -2.1900391171294427 0.60744970809971621 1.637487388303615 -0.3945719177283426 0.77098021324970178 0.74286477421938901 -1.0007536852029051 4.1340287617976514 -0.83717618726134124 8.6365039246794364 1.4374094615363902 -0.39150913748859928 1.3524668043523427 -0.53365305328517176 -4.2104561214395746 3.4318518078528131 3.382110262909646
num_features=4 4 4 3 4 5 5 4 5 4 5 5 4 5 5 4 5 4 4 5 5 5 4 5 4
leaf_features=0 1 4 6  0 1 4 17  0 1 4 17  1 4 17  0 1 6 11  0 1 4 6 17  0 1 4 6 17  0 1 4 17  0 1 4 6 17  0 1 4 17  0 1 4 6 17  0 1 4 14 17  0 1 4 17  0 1 4 11 17  0 1 4 6 17  0 1 6 11  0 1 4 6 17  0 1 4 17  0 1 4 17  0 1 4 6 17  0 1 4 11 17  0 1 4 6 17  0 1 4 6  0 1 4 14 17  0 1 4 17  
leaf_coeff=3.0176072096113207 2.8043165631212452 3.5054738804670968 1.3122139023595145  3.437742203270314 2.7699597615476743 3.2183508365959632 5.0191427247541212  5.7284796430829426 3.7589575345236876 5.8958351337797446 1.1236675478365592  4.0484962119217522 -1.0411565338098141 -2.2603451348459642  2.82779650424213 1.8469803190670886 2.2504814152060084 2.5416711663840879  4.3764731046275127 3.5027453957937738 5.1115435026628955 4.1452246047736097 3.4416042355791596  4.0492988086868902 5.2600144492185947 3.4609693152854755 3.6410822817333997 3.7257279575556517  6.023394238754471 4.0768787438012257 1.5135322101561381 2.7136030561436315  2.6577325329252801 4.207432041067027 2.677336511536875 2.4224349857043017 3.037306203035957  -0.54100799374145969 3.1520595842948156 1.6876232325439244 2.436695740038092  2.5135196705561502 4.509961073438248 2.570944464100215 3.7645114774674071 3.4302632532729778  3.4075379529510812 3.398931001401337 3.0294718336159434 -0.1194018873837439 3.0929304226584837  3.7521425179250829 4.3961199207349759 2.049589746387694 3.933076546733886  2.0772791858645161 3.9722607512710613 2.6744255910560359 2.7332690181448105 2.1742409536178164  3.3971843665507651 7.3635014621576209 4.001895484791862 2.2805402604039595 4.1312728886339851  2.1619411730064599 5.0922592668698545 1.8162914280147608 1.4349759821906778  2.9391114571551427 3.7895116917104548 2.4896251186294998 3.1994116234093757 4.0801821684455346  1.1379235108937038 -1.0513192548686592 2.6806619209938862 3.3239482456961924  0.65092764697812733 5.6657756672668071 4.7666365824014658 3.0379739441345661  1.4161464750051005 3.3997636039747272 3.8536743382846361 2.4056308572662748 4.2980752984483566  1.2728925469231482 1.1757587097024373 4.5597652313286421 0.036983959996144643 1.9330957065680197  4.2329391407902612 4.1237833036506357 4.2455334849302133 3.1640591412682593 4.4982022749909225  2.0393108830407747 3.7955907173592403 0.70050187522471008 2.1267198644534022  3.1857343925174408 4.667285391491176 2.5007968866889319 -0.52539405887078183 1.7413677101215896  0.88664602610891807 2.7085096590584499 4.6138208160143108 3.262121506874168  
shrinkage=0.05


Tree=4
num_leaves=25
num_cat=0
split_feature=1 17 17 0 0 6 0 1 1 11 6 1 6 17 0 0 11 17 0 17 17 17 0 8
split_gain=2.7152e+06 1.57749e+06 1.03209e+06 803419 566722 507135 413040 358460 292701 246927 226499 224119 217307 216443 207711 155499 151682 137806 126164 122778 120525 117427 79500.6 55702.8
threshold=0.4003289261533946 0.40396863063679406 0.19212923602957929 -0.34384883924191839 -0.49493724961520286 -0.17280754464493528 0.16937266233505624 -0.58947027199170077 -0.81182756449760052 -0.069306102062531308 -0.034841435150711551 0.74395430915544003 -0.23040778922366775 -0.48695490882749654 -0.38781835233934669 0.55241458051012993 0.3374294090608207 1.1756347675329339 0.3081740317268139 -0.61395720608214088 1.0117028830845045 -0.58794162685053486 -0.92708047079618583 0.1786532152960498
decision_type=2 2 2 2 2 2 2 2 2 2 2 2 2 2 2 2 2 2 2 2 2 2 2 2
left_child=1 3 6 7 10 16 11 22 -6 15 -3 -2 -9 -14 -4 -7 19 18 -10 -5 -16 -8 -1 -11
right_child=2 4 14 5 8 9 21 12 17 23 -12 -13 13 -15 20 -17 -18 -19 -20 -21 -22 -23 -24 -25
leaf_value=-12.906137771606446 -4.7586141980611361 -6.0386508226394655 5.5311816684661377 -9.7493664455413835 -0.86623451542854313 -4.6668455689041703 2.6844340943373166 -8.356093495173587 0.71337566673755648 4.8076201937415384 0.43126299126494322 1.4485244259689793 -7.0212024903297419 -0.042685912847518923 8.6558095939231645 1.0698699133736749 -1.5478236961364749 8.2393920708585675 5.7180930642520682 -4.7846244739763666 13.312568124135337 7.6477991147474818 -8.6767604422569278 1.2495690259066494
leaf_weight=25 26 24 31 20 25 27 26 36 20 22 31 33 20 25 33 21 20 27 34 33 24 22 20 22
leaf_count=25 26 24 31 20 25 27 26 36 20 22 31 33 20 25 33 21 20 27 34 33 24 22 20 22
internal_value=0 -2.24487 4.81402 -4.44198 1.72629 -2.14616 1.51518 -7.44841 3.86312 0.32305 -2.39197 -1.28682 -5.46062 -3.14425 8.82511 -2.15703 -5.25803 5.32279 3.86449 -6.65811 10.6166 4.95931 -11.0264 3.02859
internal_weight=0 452 195 291 161 165 107 126 106 92 55 59 81 45 88 48 73 81 54 53 57 48 45 44
internal_count=647 452 195 291 161 165 107 126 106 92 55 59 81 45 88 48 73 81 54 53 57 48 45 44
is_linear=1
leaf_const=-3.3199891654552744 -0.71978301195225269 -2.3596471373443708 -1.5347876658771122 -11.078353246419997 5.3990614666806387 -0.22485888626379336 -0.35181749532690643 -2.9751004374712924 -1.161662307461605 4.1985789660425015 -1.5704116148758958 1.3159663384806812 6.0664859106491811 2.5203308771421811 5.6893593983646511 3.730921964965515 7.2440017635937863 3.1831705251387192 1.5196086908876945 -0.75068091158634909 14.858306559545284 1.4714436539238391 -2.7359800921027837 -1.0758742630591343
num_features=3 3 4 3 5 3 5 3 4 3 6 4 3 4 4 3 5 5 3 3 5 3 3 3 6
leaf_features=0 1 17  0 1 17  0 1 6 17  0 1 17  0 1 6 11 17  0 1 17  0 1 6 11 17  0 1 17  0 1 6 17  0 1 17  0 1 6 8 11 17  0 1 6 17  0 1 17  0 1 6 17  0 1 6 17  0 1 17  0 1 6 11 17  0 1 6 11 17  0 1 17  0 1 17  0 1 6 11 17  0 1 17  0 1 17  0 1 17  0 1 6 8 11 17  
leaf_coeff=0.9022587157809776 4.9637395452052857 4.1520474337311786  2.7245052897104238 0.91351872854008231 3.485272122826883  4.511231333644 2.9688729757960792 1.4253366123709277 4.6913459642369189  -1.0047530172532972 3.7091262153225353 2.4711858503747242  5.52991907131491 4.2080733322193042 0.69880700416618802 -2.475888054262358 -1.179670980293001  3.4864005292543419 8.2448154493718047 1.3914757265589008  2.1025741696604174 4.3632364478313868 3.4044216336219182 2.8802031370969643 2.2805963586426485  2.3112463873050402 1.4128422179058355 0.089578974867115413  2.1279878827590926 3.7858549580884073 1.8796425181543857 3.3981080693785071  -3.4928723310489485 4.1274553746395579 4.0509572868169519  1.6124059537262132 0.58946612030729029 1.472594506590525 -1.1832655646811794 -0.36527500029935356 3.0021795459495046  2.3883248613313746 4.0292691258217799 5.1976571390667656 1.9174724850533242  4.8926148320520992 4.5542550150896934 4.0788900875373946  5.1016037856156231 13.900125100502876 3.2873525684576124 6.795665559165295  3.529199007256258 0.17900421644451164 1.2126776420353198 -0.10518482298429475  3.9308376786646244 1.7430786283210868 -1.9292428598828679  2.7655111012552522 6.6752663478343024 1.6710698878257806 3.0341549858853623 4.167705171853342  5.4506114068872744 3.1875678571874451 6.9991458330489484 -2.1462384787975792 4.5821124120596863  3.2069199639618411 3.1068166781863802 2.5489631378579549  2.353817920560727 0.7788760467499376 2.784582310628958  2.1512164603654891 2.3467499595617354 2.9879995158486614 1.5921948319552415 3.5771401270851508  -1.0282635853999804 -0.92550538833168161 -0.11520289909125291  2.9284087141120398 4.2100619359946974 4.2767963976541923  4.8038005796860759 1.5461619334437926 1.8736474904992904  -0.38586299719458428 5.5898701764894927 3.5308503524566861 1.4314206098115618 3.0181603547161373 2.4270866835680529  
shrinkage=0.05


Tree=5
num_leaves=23
num_cat=0
split_feature=1 17 4 6 4 17 6 17 6 1 15 4 17 6 15 11 6 4 1 6 1 17
split_gain=2.81513e+06 1.41836e+06 1.27108e+06 781422 749440 369486 350709 323172 298820 288282 268041 261520 191207 167600 156663 129846 117320 99636.2 96723.6 83401.6 73573.9 49485.9
threshold=-0.026015074573554602 0.20276000937135066 0.21327428489936187 0.97127271267655113 -0.092520156107264592 0.43369013178995852 0.69579609518827235 -0.48695490882749654 0.080507493797984164 0.86488976009316099 0.43287208635907287 0.41248887953102736 -0.94951934881972788 -0.80912707224655989 -0.20011304846125869 -0.19591504417478531 -0.65253734110867578 0.28647381040083714 0.58047545322638572 0.16315430010522822 -0.8589137201633591 0.95628146165978212
decision_type=2 2 2 2 2 2 2 2 2 2 2 2 2 2 2 2 2 2 2 2 2 2
left_child=2 4 3 5 9 12 11 -4 18 19 15 13 -1 -3 -7 -9 -14 -10 -6 -2 -18 -15
right_child=1 6 7 -5 8 14 -8 10 17 -11 -12 -13 16 21 -16 -17 20 -19 -20 -21 -22 -23
leaf_value=-13.158526055018108 -6.7925218214307508 -0.33224770560860639 -3.5255633900040078 0.8665028659457511 -2.0296388475791267 -6.6630848934253057 11.012752934506066 -2.0788786333054303 3.1326251983642579 1.256301576147477 6.0348296723993764 8.6532615759433842 -11.427673530578614 3.6472866179943084 -0.82170043533498593 2.4615695768787016 -8.9425207683018275 7.6886699104309093 2.724714963436127 -2.8638183572075584 -5.5038624964441576 6.9396654515039362
leaf_weight=24 35 20 38 33 23 24 38 32 20 24 28 39 20 25 22 31 28 30 20 22 35 21
leaf_count=24 35 20 38 33 23 24 38 32 20 24 28 39 20 25 22 31 28 30 20 22 35 21
internal_value=0 3.20746 -3.46664 -6.11172 0.175484 -7.61683 6.89673 0.347197 3.23791 -3.34063 1.96439 5.40712 -9.22789 3.48894 -3.86938 0.15531 -8.09132 5.86625 0.181689 -5.27618 -7.03216 5.15033
internal_weight=0 317 315 186 174 153 143 129 93 81 91 105 107 66 46 63 83 50 43 57 63 46
internal_count=632 317 315 186 174 153 143 129 93 81 91 105 107 66 46 63 83 50 43 57 63 46
is_linear=1
leaf_const=-5.0411788048254955 -2.059435829996926 -2.922575712966291 1.2410246966965923 -1.3666416371280716 4.5072319453420393 0.79202416743782234 1.3832495541957377 -5.1616742999430327 0.031237115802215956 5.5197094433743867 -2.1251291273675181 0.79520361824982055 -4.6762188661044091 5.040317250885642 -1.3692977193369109 2.7921678461292454 -4.5213179411904774 0.059497104365391351 6.2638603775216728 -3.2160361631899521 -2.5316576555540906 0.98223465050015202
num_features=4 4 4 3 3 4 5 3 5 4 3 4 4 4 4 5 5 4 4 4 4 4 4
leaf_features=1 4 6 17  1 4 6 17  1 4 6 17  1 4 17  1 4 6  1 4 6 17  1 4 6 15 17  1 6 17  1 4 11 15 17  1 4 6 17  1 4 17  1 4 15 17  1 4 6 17  1 4 6 17  1 4 6 17  1 4 6 15 17  1 4 11 15 17  1 4 6 17  1 4 6 17  1 4 6 17  1 4 6 17  1 4 6 17  1 4 6 17  
leaf_coeff=5.3044902108859775 4.071564413533916 3.8540090444014803 0.41692825459541577  3.8060819342307184 3.2081588346565435 0.53052356419446423 3.650893373943179  5.7126546978310824 3.6174811321053357 2.2815860016896701 4.7023646020276315  3.9146897152937505 4.5183505676498248 5.0786097976196096  3.7965632159391434 3.4783985090491614 4.2778764398461915  -9.1121840635691402 -2.3155805614076894 0.7679210536085197 3.7559015355493353  5.4993180822374326 2.280626954045391 1.1634664695777499 2.6799321078347611 2.4957437550290269  2.5608686802069047 2.3411702412772608 5.5892361620350952  3.8268110666315325 4.2954621134988669 -1.5362567986532878 1.6805108656238055 2.8652505156459069  3.0128652794010544 6.7051622569020086 2.5288528664578198 2.8555509391202398  1.905825177012451 5.0978438385460336 4.0115560718348808  1.6364363947765559 5.2828555678445452 1.3408984422492858 3.0900209227917923  3.3449907838295796 3.2019122106691222 1.2013670837942287 3.7280259255250479  3.6787557217515023 1.7878808415650811 2.0714645349941727 -0.84905170878329084  3.5828589438790988 1.8266900537320838 1.5567238448778222 -5.0676200548970627  2.0979591649003675 1.3364989356325758 2.6845689205654537 0.038931487134630044 3.5767913035633843  5.1588257020269266 2.280835632327793 -0.44671802464349164 0.6713948495592883 2.2699983032853277  2.3568597896490462 1.6616784771097448 0.61456048140234043 0.11709095596219768  5.0153064586459504 4.0295453681104307 1.524052077368893 1.6010485250518056  2.5478307222854557 1.9078590767154329 3.4063903087447005 5.3826317707709697  2.0133299813113252 4.4241270251466061 5.4477947670537255 0.89744581821386515  1.1078753334279694 1.894800124793365 0.70572504110094236 4.0351360480561764  2.0374864637802177 1.8015132466677413 1.4007152306580686 3.3230079030636248  
shrinkage=0.05


Tree=6
num_leaves=25
num_cat=0
split_feature=1 17 4 6 4 0 0 0 11 0 1 17 11 6 4 17 17 4 6 0 4 4 1 4
split_gain=2.54066e+06 1.28007e+06 1.14715e+06 705233 676370 415680 342086 309855 289058 287672 260174 215545 192607 185888 177275 165559 132234 127043 126919 125657 107461 81671.2 73309.5 39559.2
threshold=-0.026015074573554602 0.20276000937135066 0.21327428489936187 0.97127271267655113 -0.092520156107264592 0.1106927491221766 -0.38781835233934669 -0.67066918132908571 0.022754775061635087 0.13746229128203655 0.86488976009316099 -0.81760650899753406 -0.24439729539899499 -0.020666606371734588 0.79424837260610637 -0.066910815204302948 0.16416477937834242 -0.48406780910345121 0.043927052626783092 0.21945741560273654 -0.12709259300862849 0.41248887953102736 0.59750531989574485 -0.14469074332489104
decision_type=2 2 2 2 2 2 2 2 2 2 2 2 2 2 2 2 2 2 2 2 2 2 2 2
left_child=2 4 3 5 10 11 18 14 16 12 19 -1 -6 21 -4 -7 -9 -13 -3 -2 -15 -8 -11 -19
right_child=1 6 7 -5 9 15 13 8 -10 22 -12 17 -14 20 -16 -17 -18 23 -20 -21 -22 -23 -24 -25
leaf_value=-13.862628440856936 -6.7383685923911436 0.25753550394014879 -6.2269607067108161 0.82317775921388103 -3.2424045228958129 -6.6942182858784989 3.9778504076525572 -3.5046752963747299 5.2740460530305526 4.0412921956181531 1.1934865077336629 -10.1836565275987 3.0124616838991645 7.3970348447561269 0.051081285010213445 -1.2973609014352163 1.9282331188519795 -4.5170387935638434 5.5152279078960422 -1.8192759418487547 12.069082421064378 8.2645775413513185 8.2710675829932807 -7.661842188835144
leaf_weight=20 37 22 22 33 20 27 25 21 39 20 24 36 32 20 23 30 24 20 24 20 32 20 21 20
leaf_count=20 37 22 22 33 20 27 25 21 39 20 24 36 32 20 23 30 24 20 24 20 32 20 21 20
internal_value=0 3.04709 -3.29331 -5.80614 0.16671 -7.23599 6.55189 0.329837 2.12342 3.07601 -3.1736 -9.24419 0.606744 8.23597 -3.01818 -3.85377 -0.607124 -8.02881 3.00068 -5.01237 10.2721 5.88306 6.20776 -6.08944
internal_weight=0 317 315 186 174 153 143 129 84 93 81 96 52 97 45 57 45 76 46 57 52 45 41 40
internal_count=632 317 315 186 174 153 143 129 84 93 81 96 52 97 45 57 45 76 46 57 52 45 41 40
is_linear=1
leaf_const=1.3917369096019112 -1.4875024601109204 2.5878966807796431 -0.13243320734320271 -1.298390564737695 -2.8077680607864317 -4.0482439831759498 1.7891784227683296 -0.31996482777695023 0.68891340887480512 1.8844469873779417 5.2446042723252244 -2.3161790223481713 2.6114089537336191 -0.5555205980654585 0.79513339646865366 -0.43776058287288216 1.8339333340325574 -3.4256769867416943 -0.46767648047591592 -1.6844280382349952 -2.6740243937978976 1.368213012821756 8.4807734904705061 -0.84711842061736253
num_features=5 4 4 3 3 5 5 5 5 4 4 3 5 5 5 3 5 5 5 4 4 5 5 4 5
leaf_features=0 1 4 6 17  0 1 4 17  0 1 6 17  0 1 4  1 4 6  0 1 4 11 17  0 1 4 6 17  0 1 4 6 17  0 1 4 11 17  0 1 4 11  0 1 4 17  1 4 17  0 1 4 6 17  0 1 4 11 17  0 1 4 6 17  0 1 4  0 1 4 6 17  0 1 4 11 17  0 1 4 6 17  0 1 6 17  0 1 4 17  0 1 4 6 17  0 1 4 6 17  0 1 4 17  0 1 4 6 17  
leaf_coeff=3.6090181203204175 4.0074447791625607 3.1396876698850127 3.4975942383029293 3.56498926153753  2.4225855200026114 4.816806393457191 2.6540039887585323 3.365942426765586  4.1526455701129228 2.4492085212977179 4.4831701420187917 3.8186994409873396  1.2402591432584886 3.2280392608642146 -3.0052745603389983  3.6070291785027457 3.3046122992364637 4.0641980175038181  2.3303905838769565 3.6484076311382725 4.8924950341775597 2.055147593120521 3.1658485341783327  4.5436716590205304 2.9352763776128317 2.584890663743781 3.17536858130065 2.1531433502463559  1.9045952635289998 3.1791098830351494 2.3908114991294709 2.5677475600772031 2.4309765826703558  0.90204864902280468 3.2362786271539115 3.655059331871632 1.9345666176067937 3.1490155672082776  2.9881015849017092 1.8012466975505743 3.9522250484084887 0.81344982866124205  0.044534520774636897 2.3146382308244653 2.1317407885756428 -0.25454385231498994  1.8105411235293662 4.8436638421445464 3.8113238818177431  2.7099413895373914 2.9205986622354736 2.6696511683029027 2.0467012754382852 2.1426710914687712  2.9644413081965988 3.1284131642803681 0.98025791726654288 1.2129289555417959 2.9784950542181878  4.2915661981868727 3.3505287264391854 3.0815393923344554 2.0660332257990808 4.2168184275583149  0.87146283281813253 3.0709730824392132 1.597243284210518  5.0067074863593932 4.3069336871872297 2.9253177835247692 3.646682878005862 3.2016666126932765  1.9612231990616937 4.0187591439738126 3.6986063453300972 1.5587576504259077 1.1211013124894258  2.4991635554087579 1.7837789659494427 -1.5265824668090004 2.0656786088836507 3.2489951114794851  -1.0317347017918812 1.7074823001126167 2.8115569270742777 2.5962943291402691  4.2175000249190253 8.1493728163824954 5.7905874067579246 1.989605862325355  3.9383813670998009 4.9318507632119619 3.1019838245128422 4.3330713272070716 3.3550981828711324  2.4465303391490121 3.675254328133597 3.7669677509207604 3.0816730211837742 3.0512142155943884  2.7147351800120938 -0.60413211305869696 2.2469535927250219 4.2499063262629324  2.4353098917204505 4.4184754039358891 2.8542344574911205 1.9423145408187734 3.0685057378263849  
shrinkage=0.05


Tree=7
num_leaves=25
num_cat=0
split_feature=1 17 4 6 4 0 0 0 0 1 17 17 6 6 4 17 4 4 6 0 4 4 1 4
split_gain=2.29294e+06 1.15526e+06 1.0353e+06 636473 610424 375152 308733 279645 259624 234807 206210 194530 169270 167764 159990 149417 124478 114656 114544 113405 96983.6 73708.3 66161.8 35702.1
threshold=-0.026015074573554602 0.20276000937135066 0.21327428489936187 0.97127271267655113 -0.092520156107264592 0.1106927491221766 -0.38781835233934669 -0.67066918132908571 0.13746229128203655 0.86488976009316099 -0.0076104321541250368 -0.81760650899753406 -0.12314691325290557 -0.020666606371734588 0.79424837260610637 -0.066910815204302948 0.70136246517282352 -0.48406780910345121 0.043927052626783092 0.21945741560273654 -0.12709259300862849 0.41248887953102736 0.59750531989574485 -0.14469074332489104
decision_type=2 2 2 2 2 2 2 2 2 2 2 2 2 2 2 2 2 2 2 2 2 2 2 2
left_child=2 4 3 5 9 11 18 14 12 19 -9 -1 -6 21 -4 -7 -12 -13 -3 -2 -15 -8 -10 -19
right_child=1 6 7 -5 8 15 13 10 22 -11 16 17 -14 20 -16 -17 -18 23 -20 -21 -22 -23 -24 -25
leaf_value=-13.169497108459474 -6.4014500553543501 0.24465870586308569 -5.9156126477501614 0.78201882983699 -2.5048800336817902 -6.3595075360050908 3.7789578914642337 -0.77486941693602385 3.8392275917530059 1.1338122208913168 1.5867904061856477 -9.6744737174775874 3.2175096530999454 7.027183104157448 0.048527264481653343 -1.2324928367137911 6.7342849195003511 -4.2911869335174559 5.2394664367040003 -1.7283121633529666 11.465628397464753 7.8513486385345459 7.8575142451695035 -7.2787500715255735
leaf_weight=20 37 22 22 33 24 27 25 37 20 24 23 36 28 20 23 30 24 20 24 20 32 20 21 20
leaf_count=20 37 22 22 33 24 27 25 37 20 24 23 36 28 20 23 30 24 20 24 20 32 20 21 20
internal_value=0 2.89474 -3.12864 -5.51583 0.158374 -6.87419 6.2243 0.313345 2.92221 -3.01492 2.01725 -8.78198 0.576407 7.82417 -2.86727 -3.66108 4.2153 -7.62737 2.85065 -4.76175 9.75853 5.58891 5.89737 -5.78497
internal_weight=0 317 315 186 174 153 143 129 93 81 84 96 52 97 45 57 47 76 46 57 52 45 41 40
internal_count=632 317 315 186 174 153 143 129 93 81 84 96 52 97 45 57 47 76 46 57 52 45 41 40
is_linear=1
leaf_const=1.3238746451393815 -1.4131956243068715 2.4593088024180205 -0.1244175338845605 -1.2335480944259436 0.84756530863029189 -3.8458228576325526 1.6995064155272006 -0.99079875343190482 1.7894315104723035 4.9832107320117807 0.8821801687467371 -2.1999334707492406 0.17750705647233633 -0.52972610078034266 0.7553238978495429 -0.41594559593650332 -0.86319175846808782 -3.2555621749879537 -0.44501483394947172 -1.6005555933265896 -2.5414017138893188 1.2990443861836762 8.0570478972559396 -0.8038984345575344
num_features=5 4 4 3 3 5 5 5 4 4 3 4 5 5 5 3 5 4 5 4 4 5 5 4 5
leaf_features=0 1 4 6 17  0 1 4 17  0 1 6 17  0 1 4  1 4 6  0 1 4 6 17  0 1 4 6 17  0 1 4 6 17  0 1 4 17  0 1 4 17  1 4 17  0 1 4 17  0 1 4 6 17  0 1 4 6 17  0 1 4 6 17  0 1 4  0 1 4 6 17  0 1 4 17  0 1 4 6 17  0 1 6 17  0 1 4 17  0 1 4 6 17  0 1 4 6 17  0 1 4 17  0 1 4 6 17  
leaf_coeff=3.4287690112819789 3.807631375080744 2.9829665018585567 3.3229252331783421 3.3873269180311847  2.3016719116396973 4.5773218753644791 2.5214747168710034 3.1977490746619099  3.9456218913587664 2.3265253134164285 4.2597780535403595 3.6284355746345343  1.1783522577178491 3.0666621260515594 -2.8572726709022249  3.4269569932715562 3.139508822108521 3.8611927533261423  4.7298494800179673 4.2757285990449851 3.5661061548193183 3.5355968100330237 4.1190196102264283  4.3167901081442226 2.7886472839409051 2.4557016285918682 3.016683226432554 2.0456468627749493  1.8096022172523765 3.0204496969807448 2.2715554849621507 2.4395384475133159 2.3095974960660066  3.3652325170559525 3.5552586576577259 4.7895104241903352 3.3529353920228733  0.042376916938878073 2.2006719757714968 2.02547934912086 -0.2417878418144892  1.7200206395432087 4.6021571866796087 3.6210859619154663  1.7730144621335051 2.0371947178951175 0.88816755478979603 1.7278203932248382  2.5746300464770382 2.7747091285721499 2.5363149371125346 1.9444675191180529 2.0356724118514729  4.059467205379895 4.97798699132737 3.082994368917706 2.684894998848407 2.9153523563575363  4.0781657265197948 3.1834589999397211 2.9278481436417501 1.9632325512461901 4.0068945896744985  0.82796622443614454 2.9176754471959394 1.5175946047352484  4.7569495549027243 4.091945293014569 2.779219873826309 3.4645806948227023 3.0417989277868327  2.3762881220043304 6.5106171655450042 5.711378037562806 4.377073373018546  2.3745966119232076 1.6946156044108365 -1.4541230987284459 1.9626020239832407 3.0868391275772211  -0.98026481704939339 1.6222323821600195 2.6714087139901332 2.4668045022616347  4.0067544004332047 7.746755900682138 5.5020442723941079 1.8910307401526323  3.7417151150406784 4.6856270484287448 2.9470130845381721 4.1167390027982345 3.1876614009949971  2.3244274635046693 3.4922053134491033 3.5791625093237691 2.928176846818678 2.898989417280438  2.5790930903247209 -0.57416164035623829 2.1347765103662133 4.0377109691485744  2.3142367665930079 4.198086915925642 2.7199131432157513 1.8457190110180504 2.9159541922459931  
shrinkage=0.05


Tree=8
num_leaves=25
num_cat=0
split_feature=1 17 4 6 4 0 0 6 6 6 11 17 17 6 17 4 6 1 4 0 4 4 15 11
split_gain=2.06938e+06 1.04262e+06 934359 574417 550908 338574 278631 252389 234701 212159 199437 175563 163952 151407 134849 103554 103376 99687.8 87527.7 85885.8 76654.8 66521.7 53222.2 25111.3
threshold=-0.026015074573554602 0.20276000937135066 0.21327428489936187 0.97127271267655113 -0.092520156107264592 0.1106927491221766 -0.38781835233934669 -0.77217067575816078 0.080507493797984164 0.75808597916422882 -0.31508456998828555 -0.81760650899753406 -0.57947733303796756 -0.020666606371734588 -0.066910815204302948 -0.48030646857410003 0.043927052626783092 0.73610379180474494 -0.12709259300862849 -0.23386998557973354 0.28647381040083714 0.41248887953102736 0.17100107719084964 0.13787332846039216
decision_type=2 2 2 2 2 2 2 2 2 2 2 2 2 2 2 2 2 2 2 2 2 2 2 2
left_child=2 4 3 5 9 11 16 -4 19 17 -9 -1 -12 21 -7 -13 -3 23 -15 -6 -10 -8 -14 -2
right_child=1 6 7 -5 8 14 13 10 20 -11 12 15 22 18 -16 -17 -18 -19 -20 -21 -22 -23 -24 -25
leaf_value=-12.511022167205811 -7.046746716499328 0.2324257801879536 -3.8091950465892923 0.74291793794342975 -2.3287736028432846 -6.0415320996884949 3.5900099542140964 -1.3635067022160481 2.7077231097221377 1.6048064517974856 -0.48920911550521851 -9.1408598358566699 3.2311753999619257 6.6758239269256592 -1.1708681921164195 -5.4483074310498365 4.9774930665890373 -1.539783024787903 10.892347031831742 2.1513076637102211 6.7039387162526456 7.4587812662124637 6.7909444354829338 -4.5411867904663081
leaf_weight=20 20 22 29 33 20 27 25 38 20 20 20 37 21 20 30 39 24 21 32 23 30 20 21 20
leaf_count=20 20 22 29 33 20 27 25 38 20 20 20 37 21 20 30 39 24 21 32 23 30 20 21 20
internal_value=0 2.75 -2.97221 -5.24004 0.150455 -6.53048 5.91308 0.297678 2.7761 -2.86417 1.48867 -8.34288 3.23678 7.43296 -3.47802 -7.246 2.70811 -4.32941 9.27061 0.0675489 5.10545 5.30946 5.01106 -5.79397
internal_weight=0 317 315 186 174 153 143 129 93 81 100 96 62 97 57 76 46 61 52 43 50 45 42 40
internal_count=632 317 315 186 174 153 143 129 93 81 100 96 62 97 57 76 46 61 52 43 50 45 42 40
is_linear=1
leaf_const=1.2593198653646938 -1.5091693228881067 2.3371099377618938 -5.0690355071684863 -1.1719437226794849 2.334770184695548 -3.6535234833115533 1.6143288768314641 -2.8503281566737346 -0.12327582171426457 -3.4277619353324216 0.24417172783690153 -2.0251622857266218 1.4189034249359738 -0.50512176791807806 -0.39521758604630153 -1.5068045693140633 -0.42345006606364 -7.0978095686310354 -2.4153565997840292 -0.55624447915898145 0.032717876606216126 1.2333718878136293 -2.1466117404870828 -1.9715849970508428
num_features=5 5 4 3 3 5 5 5 4 4 4 5 5 6 5 5 5 4 4 5 5 4 5 6 5
leaf_features=0 1 4 6 17  1 4 6 11 17  0 1 6 17  1 4 6  1 4 6  0 1 4 6 17  0 1 4 6 17  0 1 4 6 17  1 4 6 11  1 4 6 17  1 4 6 17  1 4 6 11 17  0 1 4 6 17  1 4 6 11 15 17  0 1 4 6 17  0 1 4 6 17  0 1 4 6 17  0 1 6 17  1 4 6 17  0 1 4 6 17  0 1 4 6 17  1 4 6 17  0 1 4 6 17  1 4 6 11 15 17  1 4 6 11 17  
leaf_coeff=3.2575223676442855 3.6177806078245576 2.834067415077909 3.1569788961491412 3.2185189607605587  1.8823232926032074 2.5828859530239736 3.1398402462117052 -0.84764316823030361 4.0076706154802686  3.7489188553082915 2.209987320450407 4.0475172810010305 3.4476514127171978  4.1463469522012977 5.9140060256192335 0.2244596312219653  3.2558746105859173 2.9826540152201937 3.6683274630532581  5.6018700473213769 2.7809261173488267 3.7336409674438622 4.0444880281024487 3.0113710182109332  4.1012373362698797 2.6493425407931372 2.3329691630842344 2.8659277976057957 1.9435168943744849  1.7193468968539591 2.86970764585553 2.1582478465837514 2.3177309012645861 2.1942786263487983  3.4064922025569504 2.9667744904762223 1.6910827519859497 -0.6568044264424493  2.6262107284196645 6.5623061717435283 2.2724872254892752 2.4016249905849198  3.5283415560240345 4.7291009768528305 6.0230812916956245 1.0426713863096566  3.6687010376198312 3.4308951781006152 2.8826845021706493 2.5560133660002524 4.7821260987280159  2.4794133281906774 2.6114029864056039 2.4556501311583956 1.8135525524722713 1.9660440074056862  2.1562896961823239 1.7706155801535655 0.20228799057794922 1.1371542829392951 1.1913616766800625 3.0797519435939229  3.875376481011187 3.0247201011329485 2.7818225850942366 1.8655466956967435 3.8074209012370375  4.5196506133592331 3.8876885488907642 2.6404184342468162 3.2915720370925707 2.8899138203307224  2.1542042894048374 3.0235862416111186 0.36252952343222355 1.7775653555161246 2.8619482536436287  -0.93136258513082737 1.5412387907982494 2.5382464543203258 2.3437727879325432  6.057401900626135 2.1101177809987863 2.4012883426818288 1.0865282429656582  3.5548695025241153 4.4516963601082358 2.7997848719124114 3.9112073742849178 3.0285803145515602  2.9818002119983031 4.0446865453014418 2.0421450486596013 2.5414399794514213 1.7792648356692737  4.3239530853220502 3.4716270850274129 1.4641790214125276 1.4182063860306136  2.2084182628723901 3.3182729093510157 3.4007207192622211 2.7823258852335795 2.7543590833584179  -1.0745838583966041 2.0837622911376967 3.8907354048745457 0.98145838029752519 1.4597754637235381 2.6386150557082009  2.353809152254017 2.3154843206952602 0.92149389363465861 0.85809257843226838 2.1679191197898566  
shrinkage=0.05


Tree=9
num_leaves=25
num_cat=0
split_feature=1 4 4 6 6 0 0 0 11 1 0 4 11 11 4 6 1 11 4 0 15 1 15 6
split_gain=1.86762e+06 869442 843259 529301 518411 398279 305563 244988 228225 197499 152314 134301 123833 119838 105049 102657 92915.6 84711.4 74971 72052.7 68971.8 56501.7 54984.1 46257.6
threshold=-0.026015074573554602 -0.83362045286669118 0.21327428489936187 0.62799000773407987 0.97127271267655113 0.13746229128203655 0.1106927491221766 -0.67066918132908571 0.022754775061635087 0.58047545322638572 0.27304075793305599 0.79424837260610637 0.41860716873553688 -0.43640728199032025 0.9051539783679502 -0.04576928059312612 0.22441711062177566 0.048504776230297635 -0.85170532708369906 0.73283571010118009 -0.1043069488528645 0.48185184327743619 0.17100107719084964 0.03162550942172327
decision_type=2 2 2 2 2 2 2 2 2 2 2 2 2 2 2 2 2 2 2 2 2 2 2 2
left_child=2 10 4 5 6 9 13 11 23 12 21 -4 -3 -1 17 -8 -7 -5 -15 -18 -11 -2 -20 -9
right_child=1 3 7 14 -6 16 15 8 -10 20 -12 -13 -14 18 -16 -17 19 -19 22 -21 -22 -23 -24 -25
leaf_value=-10.366603296453304 -5.9800263738632209 -3.425362133257317 -5.4871246684681294 4.5774793949127206 0.70577204371943625 2.7542763352394104 -5.2473937273025513 -2.1877492091872477 4.6771604122259687 0.78168267553502868 0.75107989421597232 -0.022751047041105189 1.5606595087051394 -9.176281399726868 10.884562091827393 -0.98714754306353059 4.762146228551865 8.8851260957263758 -7.1381256476692529 8.455186603546144 4.5531525912108242 -2.4145147660560906 -3.5535002994537352 1.0192018799159839
leaf_weight=33 20 33 22 25 33 24 31 22 39 22 27 23 20 20 20 26 28 21 23 25 27 25 20 23
leaf_count=33 20 33 22 25 33 24 31 22 39 22 27 23 20 20 20 26 28 21 23 25 27 25 20 23
internal_value=0 2.6125 -2.8236 4.03203 -4.97804 2.62084 -6.20396 0.282794 1.87762 0.571651 -2.21784 -2.69422 -1.54384 -7.92573 7.85933 -3.30412 5.33536 6.54401 -6.64718 6.50415 2.85984 -3.99919 -5.47086 -0.548641
internal_weight=0 317 315 245 186 179 153 129 84 102 72 45 53 96 66 57 77 46 63 53 49 45 43 45
internal_count=632 317 315 245 186 179 153 129 84 102 72 45 53 96 66 57 77 46 63 53 49 45 43 45
is_linear=1
leaf_const=0.07469066698857306 -4.7907552287199229 -0.49932530164375771 -0.19609112097914938 2.4478313641340379 -1.1134161426150484 1.0567423526656115 -1.1139415154344647 1.7508629856615774 0.61313928231405734 -0.62363351020063251 -4.5783651020840912 0.85114914092523941 -4.6200578751229839 -4.1131289067196777 -1.8374119932248267 -0.99598535491924811 1.2346591637226199 6.1431737315606485 -1.2756729170796008 3.2594962794293454 2.0932685759424454 1.4014284284403034 0.03767780008618047 2.052973192287336
num_features=5 3 5 3 4 3 4 4 5 4 5 3 3 5 5 3 4 4 4 6 4 5 3 6 5
leaf_features=0 1 4 6 11  0 1 4  0 1 4 6 11  0 1 4  1 4 6 11  1 4 6  0 1 4 6  0 1 4 6  0 1 4 6 11  0 1 4 11  0 1 4 6 15  0 1 4  0 1 4  0 1 4 6 11  0 1 4 6 11  1 4 6  0 1 4 6  0 1 4 6  1 4 6 11  0 1 4 6 11 15  0 1 4 6  0 1 4 6 15  0 1 4  0 1 4 6 11 15  0 1 4 6 11  
leaf_coeff=3.5431586101707611 4.0305342067286398 1.7487015028283925 2.5924795751603038 2.3300843019509405  -0.44180994424092196 15.109834484349342 3.788580857187771  2.5616985140925759 1.2602663368199538 1.7389685081953479 1.7850343940091369 1.8365019545650381  1.1391048272482152 2.715129071826718 -2.589603660157811  2.7707014614485801 1.3872948593467944 0.3109986251136142 0.4366703656454578  3.0933329404937555 2.8336360570623245 3.4850958467615811  1.4298871911817435 3.0589735162421512 2.6909116062304403 1.5547364050048162  3.202857049113756 3.0876299089064774 2.4814278623723069 2.4405421359239532  1.1347859440502017 4.0062625333399833 2.7745525517927359 2.1804714622590202 1.2785068971477587  2.6970726030191035 1.5517579889268118 3.3761574920606763 0.80388796008201391  3.3253651131543394 2.6805627564897394 2.4050196233164285 2.0321442809605625 -0.025915545123047397  2.4631954197308001 1.5205603265006202 -1.179668163431703  0.91596460609180497 2.6204104881541683 1.3440701400601371  2.1291245867477953 7.1277845454158397 4.7206717633773208 2.5110000310772933 4.3186374881781546  1.5851905167682445 1.350980462954841 2.4542869798188609 3.3825471215484342 2.311821297685885  2.4800508685728571 4.6052162784139972 4.5393191172998391  0.37442033227350457 -0.16982259323883261 1.8583923905546926 2.5549602309143369  3.8530507382429557 1.6359513451686567 3.2039875851673316 2.311011466662912  2.6084576069823857 -0.68921602548726957 1.4607744508748788 -1.2945066844572088  1.1142172929670462 3.3688103695626239 -1.3324934161814541 1.5431887457650033 -1.0074318987343946 1.3283781116849569  1.9802098915215642 2.1780434830584205 1.4870092598754032 0.89600626311463893  -0.18755914223267431 0.80449013623109689 1.8268345037072593 1.4841341778163906 2.0377288020955482  1.8614592628265763 2.618691278398892 3.5415312094877716  2.159714299565676 3.5195555200230006 3.1100954046738396 2.0600550293400839 2.0362622125411782 1.9673414832732803  3.2436347669173062 4.4882964912794003 0.43111298941273218 2.7336361039247277 1.3893777669926486  
shrinkage=0.05


Tree=10
num_leaves=25
num_cat=0
split_feature=0 1 4 4 1 6 4 17 17 11 6 17 15 6 11 17 1 6 17 11 4 6 11 13
split_gain=1.65355e+06 829928 721261 641004 384123 373420 354072 307267 244743 209134 206895 175917 170910 168152 136435 132747 129793 86090.8 75943.1 74455.2 70628.1 66678.3 54909.7 30486.1
threshold=-0.098907597348470974 0.69226016195445517 -0.12709259300862849 0.82764474637437002 0.5280367335972781 -0.04576928059312612 -0.9621154628191747 -0.10352894676648473 0.11305680472262124 -0.24439729539899499 0.38795172556842766 0.31201553323567505 -0.26424431600404164 0.40979072644400499 0.39301467382478533 0.39202069374047133 -0.59994082918386804 -0.1394961638894929 -0.2762207047030939 -0.42530061403455172 0.69869557557124817 -0.034841435150711551 0.14471314784743808 -0.11081298272387177
decision_type=2 2 2 2 2 2 2 2 2 2 2 2 2 2 2 2 2 2 2 2 2 2 2 2
left_child=1 3 5 6 7 14 22 17 16 -3 -5 -7 -10 20 18 -6 -8 -4 -2 -18 -9 -11 -1 -14
right_child=2 9 4 10 15 11 8 13 12 21 -12 -13 23 -15 -16 -17 19 -19 -20 -21 -22 -23 -24 -25
leaf_value=-11.045781641006471 -6.9487587565467468 -1.6245142993472872 -2.178930366039276 -1.6897683810104025 5.8014205232714167 -0.31273643542558721 -8.5377452061094097 1.9490097725030147 -4.4428106559289473 2.4031042394183935 5.2486103591464817 4.4674523795905863 -1.1292939509664264 8.4601184129714966 0.032176413861188018 10.688590145111085 -6.6747348334478289 1.7589676214115961 -2.6436777162551883 -3.0328312138716385 5.3312055826187139 6.2999653982079558 -7.3851007370721735 1.5648829675856091
leaf_weight=20 21 21 23 22 33 39 29 33 37 21 21 38 21 24 22 24 23 35 20 36 29 23 21 21
leaf_count=20 21 21 23 22 33 39 29 33 37 21 21 38 21 24 22 24 23 35 20 36 29 23 21 21
internal_value=0 -2.55455 2.46588 -3.85852 4.38501 -0.289451 -5.00738 3.00982 -3.98522 2.48076 1.69874 2.04632 -1.96502 4.90657 -3.14428 7.85918 -5.79881 0.197387 -4.84872 -4.45256 3.531 4.4401 -9.1708 0.217795
internal_weight=0 316 341 251 201 140 208 144 167 65 43 77 79 86 63 57 88 58 41 59 62 44 41 42
internal_count=657 316 341 251 201 140 208 144 167 65 43 77 79 86 63 57 88 58 41 59 62 44 41 42
is_linear=1
leaf_const=-4.0162006194830155 -1.0739761446188472 5.674605853696189 -3.0315783508779881 -1.882387719948315 0.012042861441682363 -4.0779125011438095 -1.3492055579390809 -0.71723468974421234 -1.8379594104094021 0.65935058708390104 -1.5247722238139205 -0.80430567457976854 -0.40036259175258526 -2.8067351407433412 1.9820217773049025 3.1872776302802777 -6.3985161332253462 1.3436213525049054 -1.5486119097151985 0.61371577037275449 1.8197625596275562 7.5342179810872381 0.025181412284314322 -1.7021580611957008
num_features=4 5 3 5 4 4 4 4 5 5 4 4 4 6 5 4 4 5 5 5 5 5 4 4 6
leaf_features=0 1 4 11  0 4 6 11 17  0 1 11  0 1 4 6 17  0 1 4 6  0 1 4 17  0 4 6 17  0 1 4 17  0 1 4 6 17  0 1 4 15 17  0 1 6 11  0 1 4 6  0 4 6 17  0 1 4 13 15 17  0 1 4 6 17  0 4 6 11  0 1 4 17  0 1 4 11 17  0 1 4 6 17  0 4 6 11 17  0 1 4 11 17  0 1 4 6 17  0 1 6 11  0 1 4 11  0 1 4 13 15 17  
leaf_coeff=3.2163994845427428 0.90039791271853753 0.88595005347731226 2.1750499476472349  2.0152909369893819 2.5260761269758043 2.5391740140070378 1.6997457750851632 1.4113080070169115  3.972345804166372 -1.2286497420439246 2.729163356180166  3.9027369006804093 3.3886275304351914 3.6545420769537902 1.6062596452273283 1.5207242922442712  2.9239716671789679 3.2024928546581481 3.3263796886235051 0.37573471889731941  1.8102481084000352 3.8787375341849306 2.642031068966082 1.597221837178302  3.9671428342629129 1.6302005752286808 4.0091424207533999 3.007455750577658  1.6564596530954547 2.8527750428542378 1.3320629584979855 2.2787603352069046  2.9516752076694566 3.1187183193551178 -0.081533808221068343 1.3990710240707755 3.1908390145670307  1.4966564951134225 3.2320038539669707 3.0470508840102988 1.123858254515574 2.608355316878483  1.1816103673073028 1.234458649261772 -0.55878118746152428 0.97165865743192892  1.4672981371015865 4.5044918838245778 3.1550777367196399 4.8584180627470142  2.4255309549797008 1.5899157207557539 2.4026458762118703 3.0215215675733056  1.6443726742055453 1.6232033866706388 2.5618402573335732 0.038427979752810849 0.90364128497156848 1.3675871767738992  2.081846429684759 1.9271977868825467 3.0116787700989356 5.3492520995511903 2.3654305063895817  3.5678287952069283 3.1490295641522437 4.5052989482298917 1.8355066079813325  3.2252617412304767 1.9665754791804155 2.1537959227590466 1.5557104009841229  1.629538078233264 3.2697593542963599 1.4977632044916374 -2.3236695436774153 2.2527113098958154  3.2459361939960623 2.2248885619126311 1.0573037586971643 1.7398532123832204 3.2166588440731712  3.0924529130345215 1.2051099208254428 0.20900696098479435 2.6377340184739242 -1.6785526351741273  3.035595153225235 1.3588539353998119 1.5201204480246382 0.85510797501471192 1.874660960824112  1.6633971141946731 2.4948837770981616 1.9647291621876062 2.0292874565572205 2.3601702235178408  4.1407187305782038 0.81519964274802226 0.40008584452981827 0.77882293157033189  2.4768028125481969 1.7247025141918055 3.1210617607903188 0.89374369250901164  0.74345645601460308 0.00161054964932012 0.24264613400815516 1.5732661196022928 0.37152783033287157 2.7371249155012469  
shrinkage=0.05


Tree=11
num_leaves=25
num_cat=0
split_feature=0 1 4 4 1 6 17 17 1 11 6 1 6 4 11 17 17 6 17 6 17 4 6 6
split_gain=1.49233e+06 749010 650938 578506 346671 337012 324000 277308 241564 188744 186723 169692 151757 142996 123132 119804 95802.4 91557.5 104050 77697 68538.6 63741.9 60177.1 53218.5
threshold=-0.098907597348470974 0.69226016195445517 -0.12709259300862849 0.82764474637437002 0.5280367335972781 -0.04576928059312612 -0.93596883213766335 -0.10352894676648473 -0.93858355860920273 -0.24439729539899499 0.38795172556842766 -0.31461759506566717 0.40979072644400499 -0.4380708092321402 0.39301467382478533 0.39202069374047133 0.33196196875831274 -0.84366439757912104 0.49153185105439556 -0.1394961638894929 -0.2762207047030939 0.69869557557124817 -0.034841435150711551 -0.13413893373312175
decision_type=2 2 2 2 2 2 2 2 2 2 2 2 2 2 2 2 2 2 2 2 2 2 2 2
left_child=1 3 5 6 7 14 -1 19 -8 -3 -5 -7 21 23 20 -6 -13 -15 -19 -4 -2 -9 -11 -10
right_child=2 9 4 10 15 11 8 12 13 22 -12 16 -14 17 -16 -17 -18 18 -20 -21 -22 -23 -24 -25
leaf_value=-8.9309269302769714 -6.6013208298456112 -1.5432885641143437 -2.0699838047442229 -1.6052799184213986 5.5113494627403492 -1.1610874579471004 -7.3974601565180595 1.8515592795429807 -6.6764686981836965 2.2829489866892501 4.986179799125309 1.7226642714606393 8.0371123949686698 -4.2140596369902292 0.030567646162076429 10.154160618782043 6.1675754807212142 -2.1751343578100206 2.0857560945593794 1.6710192048549652 -2.5114938545227052 5.0646452585171016 5.9849671115045968 -3.3467259317636491
leaf_weight=38 21 21 23 22 33 28 37 33 24 21 21 27 24 24 22 24 22 38 23 35 20 29 23 24
leaf_count=38 21 21 23 22 33 28 37 33 24 21 21 27 24 24 22 24 22 38 23 35 20 29 23 24
internal_value=0 -2.42683 2.34258 -3.6656 4.16576 -0.274978 -4.75701 2.85933 -3.82402 2.35672 1.61381 1.944 4.66124 -2.8299 -2.98707 7.46622 3.71834 -1.59788 -0.568569 0.187518 -4.60628 3.35445 4.21809 -5.0116
internal_weight=0 316 341 251 201 140 208 144 170 65 43 77 86 133 63 57 49 85 61 58 41 62 44 48
internal_count=657 316 341 251 201 140 208 144 170 65 43 77 86 133 63 57 49 85 61 58 41 62 44 48
is_linear=1
leaf_const=2.1382068952322242 -1.0198837716056466 5.3922963135808466 -2.8802290350526638 -1.7890404819708863 0.011087022093630595 0.48577406553510799 1.516252542167331 -0.68150637211323106 0.46480311314827172 0.62621416437413591 -1.4498399874999905 -2.6299057601280711 -2.6672996354340022 -1.9753304151462119 1.8830330678011729 3.0262680945594642 -1.1624194208304068 -0.11778026911319894 1.7162264759328156 1.2763719592734917 -1.4708722738095339 1.7282271156861779 7.1577741189845829 0.39782003994329967
num_features=4 5 3 5 4 4 4 4 5 5 4 4 5 5 5 4 4 5 5 5 5 5 5 4 5
leaf_features=0 1 4 17  0 4 6 11 17  0 1 11  0 1 4 6 17  0 1 4 6  0 1 4 17  0 1 4 6  0 1 4 17  0 1 4 6 17  0 1 4 6 17  0 1 6 11  0 1 4 6  0 1 4 6 17  0 1 4 6 17  0 1 4 6 17  0 4 6 11  0 1 4 17  0 1 4 6 17  0 1 4 6 17  0 1 4 6 17  0 1 4 6 17  0 4 6 11 17  0 1 4 6 17  0 1 6 11  0 1 4 6 17  
leaf_coeff=3.1749571762560125 3.1552044643072228 1.8273389050227717 4.1472964147899489  1.9149305511308112 2.3999724695925502 2.4124495785464153 1.6148584732904152 1.3408956605331204  3.7741139079681001 -1.1677247271827571 2.5932159759347511  3.7080151915319952 3.2194615515671949 3.472441509407493 1.5262903965803283 1.4447285533760204  2.7779226210701657 3.0425891097532953 3.1607505419924933 0.35680381639270825  1.7197654038400836 3.6850443302020666 2.5101511365630547 1.5174500298040143  0.31551267972958957 2.6464951578114224 1.7532361018523657 2.3891178141225491  2.0904433011232668 3.9560265585539724 1.279560630418727 0.4852367304112189  2.8043261742832737 2.9629779715920965 -0.077507976258374259 1.3292021329192307 3.0314361399925001  3.0200196377822337 0.41731792666706513 2.7327795253200167 2.430297141939644 2.2102491773728543  1.122656099155648 1.1728609368581564 -0.53089142205949946 0.9231768517551292  1.3939859390430156 4.2796630928163228 2.9978845414229425 4.6161324647914102  3.2413843707240666 3.0294461363695846 1.801638670855561 2.8179710609285564 2.5212229922729326  1.9778094784612876 1.8310858218014037 2.8613973923689433 5.0822348700293229 2.2474279948214484  1.7051292349297384 3.4606871340299579 4.2188413019806106 1.2507409920866357 2.0661357195568919  3.3901643321968447 2.992044703086679 4.2806165815848694 1.7440068681851895  3.064357444186983 1.8687679125350041 2.0464664098233283 1.4784624586878268  3.6019907528075059 2.5606065820911836 2.3040582642749019 1.9902217815777172 3.856145431105352  2.7265022531925212 2.7671475661626683 1.6268265715953558 1.8056871410428839 1.7590942842296056  3.1706841683709719 1.6584612409684731 2.3958539908135665 1.0802707764939068 2.4090537437955337  3.0837643962024903 2.113742477379426 1.0045601803529496 1.6529715280748467 3.0559798329490646  2.9381054509694184 1.1450778019928425 0.19856298699850372 2.506187772347408 -1.5949232950036663  1.5804242113570213 2.370492504780354 1.8667752162048705 1.9279162339949814 2.2424475701681104  3.9343523254140838 0.77461108431490833 0.38007301781016239 0.73987912850275228  2.0584301672961831 1.9798395000175386 2.7592502025755219 0.55720020613418775 1.8122334711100043  
shrinkage=0.05


Tree=12
num_leaves=27
num_cat=0
split_feature=0 1 17 6 6 1 17 1 1 6 17 15 17 11 0 1 17 11 0 6 15 0 1 15 0 19
split_gain=1.34683e+06 675982 567460 445601 365815 340319 283565 230505 219786 210821 181264 136215 132882 128157 79011.9 72724.3 66155.4 56231.6 54350.5 52174.9 50805.7 48397.3 41126.8 39647.7 34767.4 34717.4
threshold=-0.098907597348470974 0.69226016195445517 -0.10352894676648473 0.85617372090805788 0.87035601533870766 0.57190114404133852 -0.08329569742548501 -0.83410086279724205 -1.1246930993390698 0.36358717397424384 0.094226222626846171 0.61114065694417763 0.88444398958110415 -0.24439729539899499 -1.112286157620344 -0.61314474108156836 -1.0252517168583335 0.55086616564026081 0.53656044554137639 -0.48689208377483245 -0.79682390460673314 0.76352260464265076 0.3013171424183288 0.43755415033179473 -0.8792094377598364 -0.070174550646758468
decision_type=2 2 2 2 2 2 2 2 2 2 2 2 2 2 2 2 2 2 2 2 2 2 2 2 2 2
left_child=1 3 5 6 7 9 14 -4 -8 15 -3 20 17 -5 -1 -2 -7 21 -6 -16 -10 23 -14 -9 -22 -17
right_child=2 10 4 13 18 16 8 12 11 -11 -12 -13 22 -15 19 25 -18 -19 -20 -21 24 -23 -24 -25 -26 -27
leaf_value=-8.7736785230965459 -5.9106600576639181 -0.70296753418856661 -1.9070558981461958 -1.7102803912162781 6.0502938435191203 1.5522274203922439 -7.6124285483360303 -0.88600214198231697 -4.9380342211042141 1.2480310378930508 4.6087171104219227 1.7084595561027527 4.4388925866647204 3.4049227396647135 -7.6043868859608965 -3.707023889368231 5.3048255284627288 4.7536501884460449 9.5007070465087899 -4.5131334537114851 -3.5762660026550295 3.7005476641654966 7.5716784763336182 2.2623174381256104 -0.92367113073666884 -0.92875266852586158
leaf_weight=29 20 29 22 25 21 23 20 20 21 39 36 21 22 24 21 22 24 20 25 39 21 20 20 20 30 23
leaf_count=29 20 29 22 25 21 23 20 20 21 39 36 21 22 24 21 22 24 20 25 39 21 20 20 20 30 23
internal_value=0 -2.30549 2.22545 -3.48232 4.04378 -0.0625085 -4.51991 2.80378 -2.85736 -1.65823 2.23889 -1.83476 3.65327 0.795125 -6.6308 -3.40199 3.46845 2.45763 7.92552 -5.59507 -2.8682 1.69229 5.9307 0.688158 -2.01592 -2.28702
internal_weight=0 316 341 251 190 151 202 144 113 104 65 93 122 49 89 65 47 80 46 60 72 60 42 40 51 45
internal_count=657 316 341 251 190 151 202 144 113 104 65 93 122 49 89 65 47 80 46 60 72 60 42 40 51 45
is_linear=1
leaf_const=0.93958548318503299 -2.1101355243854303 -0.81650063876840273 -0.48530888203153499 0.22092688559577028 4.850182115708618 1.5377813435375254 -0.24328917112407 0.0485521438456189 -1.5938096467844283 0.96195844517824447 4.6660757699051452 -0.63990685313019124 0.92205797233432918 1.4522481049666796 -2.2178487372848394 -1.515421510026461 5.9700647662307809 4.2551217854011645 0.82036081646660985 -3.1988779688139917 -1.9389800550417275 1.4253344959780776 0.68321090922911487 2.6337713258923232 -1.2369005379562688 0.18280751748291468
num_features=4 4 3 4 4 3 3 4 6 5 4 3 5 4 4 4 5 3 5 3 4 5 5 4 6 5 5
leaf_features=0 1 6 17  0 1 6 17  0 1 17  0 1 6 17  0 1 6 11  0 6 17  0 1 17  0 1 6 17  0 1 6 11 15 17  0 1 6 15 17  0 1 6 17  0 1 17  0 1 6 15 17  0 1 6 17  0 1 6 11  0 1 6 17  0 1 6 17 19  0 1 17  0 1 6 11 17  0 6 17  0 1 6 17  0 1 6 15 17  0 1 6 11 17  0 1 6 17  0 1 6 11 15 17  0 1 6 15 17  0 1 6 17 19  
leaf_coeff=2.2170945389924723 2.7521565100081484 1.7983133451527225 4.0120450190866652  3.6104889442656103 3.1307639518028001 -0.44400794821499096 2.9317052601555207  3.1857657658141747 2.7495217694573451 1.7956830727714068  3.680175198394541 4.3597971090238863 0.78133518409246938 2.7182098877165828  2.5533939621880068 0.21766019587306526 1.6955977413080718 1.7626460858586785  -7.5563348534077592 0.59643280896671003 2.0480314590034072  1.5386935500436991 0.55465123241220582 1.0360590688280571  2.1957832772453596 3.7633717609428943 1.4557937579431401 2.4473851689888715  2.4748734698839736 1.3794051556132274 1.79146350786477 2.1861748188119212 -0.35740427706372291 -2.2041832139521707  2.1385377612459338 1.4948528133988519 2.3979982570586129 0.16331040373190553 1.1818967970584611  2.4493677410843162 0.99898856324221308 0.82875498570444661 2.5786537241514296  4.353102974010862 1.5023821183074941 1.7578964808164124  1.7853709122176331 1.8946324577040454 2.6387461232109017 1.0688233428005762 4.5911790877780581  2.4436274190057845 1.8537764972914759 1.3476018536807051 2.1671478292191888  0.94449771449522268 2.7858038572855612 1.6447853592176664 2.0072884711813397  1.6913632873645454 2.0089013962861295 0.80054262502588058 3.8818452494189906  1.2427655018913983 3.2036906615727143 0.95088897765635716 2.2010640020657481 0.50461596572995693  1.3988372181450393 0.88282858650844021 5.2348090935677218  1.4410680527972959 3.2374014084067562 1.0169258384133026 -0.8754243183302699 1.2080275975247423  3.8127959078668567 2.3359055731435707 1.1624002000588309  1.3910464059531884 1.534255007799888 -0.53494480251687371 -0.3401646597622619  2.0109279553847017 5.3866747312959262 0.5904225561698313 -0.73518120082217941 3.3126581729745852  1.7935220017386861 1.4094274129101088 2.9786993667289288 0.13786000566172688 -0.77451258492970609  3.4656910788291633 2.7420812843220581 1.0552286758844005 2.0372003854233891  6.3277189440195212 2.0155661388807755 2.5417872431603259 2.4116124350270467 -0.0088526714788537981 -1.518494825803852  0.33264765580686628 0.37124470717612013 1.5634428865830214 -0.74916332425940713 1.8750567679532772  2.5906206793355491 -0.94229413189672673 1.9865881965068006 1.6966735114275835 -0.6963364149953799  
shrinkage=0.05


Tree=13
num_leaves=26
num_cat=0
split_feature=4 1 6 1 17 17 6 1 11 1 17 4 17 15 6 15 1 11 3 3 17 15 6 11 11
split_gain=1.17041e+06 710304 516167 496065 372927 290443 276627 175898 161433 135830 124857 106259 96795.6 92127.5 88704.2 83255.6 77376.5 76506.2 71521.2 63774.9 61736.4 51332.9 50880.3 44280.9 13558.5
threshold=-0.092520156107264592 -0.98709250832316564 0.87035601533870766 0.23135274334737585 0.39202069374047133 0.094226222626846171 0.95141271482697831 0.31289445188826231 -0.43640728199032025 0.57190114404133852 -0.099010532509344468 1.2482853262569293 -0.066910815204302948 0.33396605100356519 0.2975583207466273 0.41795816420502957 -1.3919300926368836 0.11312445059183254 -0.016516619199330528 -0.54952565672696141 -0.35581935990488051 -0.36718515703226767 -0.17280754464493528 0.13787332846039216 0.10771209361296763
decision_type=2 2 2 2 2 2 2 2 2 2 2 2 2 2 2 2 2 2 2 2 2 2 2 2 2
left_child=3 16 4 6 9 14 8 21 13 11 -4 19 -10 -1 17 -7 -2 -5 -12 -3 -21 -6 -14 -11 -23
right_child=1 2 10 5 7 15 -8 -9 12 23 18 -13 22 -15 -16 -17 -18 -19 -20 20 -22 24 -24 -25 -26
leaf_value=-9.3240656706003033 -6.3452091830117361 0.68013736495265265 4.0507649684774467 -5.6396540164947515 0.51378544211387644 1.2986144304275513 0.013671210833958218 7.1220263972426912 -5.9909365057945259 0.90123460509560338 6.2454614925384524 2.6261673460900785 -3.8849899475915097 -4.9277661757035691 0.62528154730796814 5.3481612064621666 -2.0530096775009521 -1.2662616765499115 10.473971338272095 -3.6602613951478689 -0.66874203927376696 2.716214697785853 -1.0254118868282862 4.0067954761286577 4.5352598619461064
leaf_weight=26 21 27 29 20 20 30 35 33 32 22 20 20 35 22 20 22 21 20 20 35 34 21 28 24 20
leaf_count=26 21 27 29 20 20 30 35 33 32 22 20 20 35 22 20 22 21 20 20 35 34 21 28 24 20
internal_value=0 1.91983 2.71058 -2.33017 1.67609 0.276833 -3.97053 4.18136 -4.94568 0.222413 6.54871 -0.689305 -3.75154 -7.3091 -2.09354 3.01188 -4.19911 -3.45296 8.35972 -1.38003 -2.18618 2.59051 -2.61407 2.52153 3.60355
internal_weight=0 367 325 290 256 112 178 94 143 162 69 116 95 48 60 52 42 40 40 96 69 61 63 46 41
internal_count=657 367 325 290 256 112 178 94 143 162 69 116 95 48 60 52 42 40 40 96 69 61 63 46 41
is_linear=1
leaf_const=-4.4081564102226896 0.065072000162149382 -1.4649846922330041 1.5809150542111752 -1.8942370082393982 3.5488723451713158 -0.68729061261084612 -1.0503871659895498 0.96195438382158049 -0.052904308886491475 2.1992696130199105 1.0924715661072983 2.180197072316139 0.45740987657970805 -3.8638316214368347 -3.7732592806590008 2.6744209608527174 -0.52935723769044218 -4.1378622652474988 -6.6667676533367715 -0.46991566135475021 -1.1132696774356476 -1.1283465552289271 -0.56310339790774611 2.0246478133179178 4.9639813232769487
num_features=5 2 5 4 5 5 4 3 4 5 5 5 4 5 5 4 4 2 5 5 5 5 6 5 5 6
leaf_features=1 4 6 11 15  1 4  1 3 4 6 17  1 4 6 17  1 4 6 11 17  1 4 6 15 17  1 4 15 17  1 4 6  1 4 6 17  1 4 6 11 17  1 4 6 11 17  1 3 4 6 17  1 4 6 17  1 4 6 11 17  1 4 6 11 15  1 4 6 17  1 4 15 17  1 4  1 4 6 11 17  1 3 4 6 17  1 3 4 6 17  1 3 4 6 17  1 4 6 11 15 17  1 4 6 11 17  1 4 6 11 17  1 4 6 11 15 17  
leaf_coeff=2.1111261201254821 3.4258887065796579 1.6813981140455032 -0.35491268320892538 0.89492172179305352  4.0502733579716903 2.3814319387272835  2.1895700532589855 -0.31753938651240204 4.4311788829402534 0.38224626362094877 0.12191124973899106  2.7400586773570672 1.16572869051993 1.670634904109694 2.0570656075019058  2.243468992539245 2.8476073361223944 1.9225745978448008 0.19563723219164242 1.8656190001807822  4.2911024025836948 3.4515846791350215 -0.2545277329547932 3.4016916629465741 0.12371099772913129  3.0194913928908935 1.2195067088294196 0.12046379151383953 -0.043419983777727822  2.7917422868674402 2.9334136818118282 3.0345427163978247  2.2551555839266268 2.5454804859923126 1.1415792544445231 2.0856440083949344  2.8680130177738379 2.6051278214126823 2.0878418173223525 0.69415001059937853 1.9806280872802935  1.0555297672689203 2.1150781314620608 0.57963091685213874 3.8483038615991094 2.1548746908172229  5.0512788002383004 0.075161109168888449 4.1443659773447479 -0.72888039615917577 3.5975629470031549  0.65075807129895469 1.1340210776597714 1.5200175370715394 3.5294309295015625  2.6979927336364495 2.8567254252680896 2.3231623636146912 1.1725600013795296 1.8072607336246496  2.4418223756657795 1.0712284311791753 0.99335094001272983 0.13291221480631421 1.3912324282196935  5.6922425108890602 2.7971722948908919 1.918338181266541 0.0086469035670256218  -0.68425946725124775 0.72807106319764614 0.58187721659938851 3.6723968949069361  2.6223604200596569 2.1850335019560858  3.5380476270516619 2.1058788053170754 0.69644179853943089 2.325560696113349 0.79909896551176296  3.5286184886989647 0.46277567391579977 2.9564929148376282 6.3446853634244533 3.6052116808250645  0.71371820825098153 -1.0034219190429827 -1.1523609859046873 2.1360530600671281 1.3426222264635506  2.1723321861227824 1.375755005014855 0.48264613359533315 0.65791905196831069 -2.3837236520582556  0.35490857106614937 2.5775129498698428 3.2897691053878386 1.2237900904800949 1.4258825103257362 3.1956780380263106  1.4804027586660238 1.1572190475849844 -1.172370915172475 1.4367670525631187 1.9524070291720825  1.4058937253926167 1.9766996974648849 2.6055418728557176 1.3477519984850952 2.14789028000905  0.44660243349016926 1.1256550331759958 0.34862412503194312 0.0095165452638295706 -0.38110868097751371 -0.64315598099117333  
shrinkage=0.05


Tree=14
num_leaves=24
num_cat=0
split_feature=0 4 4 1 17 1 17 17 4 1 17 17 1 0 11 17 0 17 11 11 10 0 17
split_gain=1.17163e+06 579696 513332 462611 332834 255591 242201 201155 148508 140706 130384 126827 114157 101501 95603.8 86707.4 62032.7 61404.7 58499.3 55440.5 50932.2 47513.8 21238.4
threshold=-0.098907597348470974 -0.7500304296044189 -0.12709259300862849 0.66998281764469148 1.0117028830845045 0.5280367335972781 0.25415547994372151 -0.099010532509344468 0.28647381040083714 0.58047545322638572 0.068039305336421399 -0.7975904583295037 0.10462482979317889 -1.1796585885456825 -0.62741336542840076 0.39202069374047133 -0.8460164121905428 0.12498061018962851 -0.57057370396537088 -0.011162136352243631 0.31201079282583449 0.59231199648168187 -0.08329569742548501
decision_type=2 2 2 2 2 2 2 2 2 2 2 2 2 2 2 2 2 2 2 2 2 2 2
left_child=1 13 6 4 8 7 9 19 16 18 -5 -10 -8 -1 -9 -7 -3 -15 -2 -4 -13 -16 -18
right_child=2 3 5 10 -6 15 12 14 11 -11 -12 20 -14 17 21 -17 22 -19 -20 -21 -22 -23 -24
leaf_value=-9.1767496919631952 -5.2621586654497232 -6.0197170453193865 -1.1281419415627756 0.19867733449985583 2.744367964514371 4.8641732707168117 0.35888943531933953 1.2908508365804501 -4.7790810246359223 1.3180178663005 5.0739205673336985 -1.5216145610809326 4.8628088215986889 -6.645636928998508 3.8512649648329793 8.8139544566472363 -4.429685301780701 -3.1384135787685712 -2.0339913845062259 1.9412304162979126 1.5072669652493105 6.6062011373454128 -2.1784055123274979
leaf_weight=20 23 39 31 24 29 33 34 22 22 23 32 35 24 26 34 24 20 24 36 28 23 29 22
leaf_count=20 23 39 31 24 29 33 34 22 22 23 32 35 24 26 34 24 20 24 36 28 23 29 22
internal_value=0 -2.15171 2.07427 -1.00933 -2.18647 3.69331 -0.250209 2.57155 -3.07464 -1.99926 2.98453 -1.54661 2.22258 -6.16634 4.12849 6.52724 -4.5838 -4.96217 -3.29243 0.328509 -0.320506 5.11941 -3.25044
internal_weight=0 316 341 246 190 201 140 144 161 82 56 80 58 70 85 57 81 50 59 59 58 63 42
internal_count=657 316 341 246 190 201 140 144 161 82 56 80 58 70 85 57 81 50 59 59 58 63 42
is_linear=1
leaf_const=-2.7257839711250655 0.72639897471325865 -4.0995020233949049 -0.16281290793745237 0.58688103407635628 -0.83976395863342934 -0.087375545021723164 -0.039940301674395329 -2.6788048920113265 2.4575866200332714 0.51263709942107882 3.0297699642905629 0.30909662511080538 1.4272727983835354 -6.0187123891438663 1.8207779185741177 2.6881356381327808 -2.9454282932821685 -1.0131475170962374 -0.14100251796126392 -0.63821347132033646 1.5802522569168822 -0.37810612541417604 -0.78881687657487309
num_features=2 5 4 5 4 4 4 4 5 4 4 4 5 4 3 5 4 4 3 5 5 5 5 4
leaf_features=0 4  0 1 4 11 17  0 1 4 17  0 1 4 11 17  0 1 4 17  0 1 4 17  0 1 4 17  0 1 4 17  0 1 4 11 17  0 1 4 17  0 1 4 17  0 1 4 17  0 1 4 10 17  0 1 4 17  0 4 17  0 1 4 11 17  0 1 4 17  0 1 4 17  0 4 17  0 1 4 11 17  0 1 4 11 17  0 1 4 10 17  0 1 4 11 17  0 1 4 17  
leaf_coeff=1.3301742866927999 2.8621932395211314  1.7617596014546795 3.0746319995409523 1.9052990039836353 1.441454209714351 3.3395677329658002  0.56780918918575596 1.3120186479413474 0.57621026098429018 1.4989679663631115  2.1138250946644201 3.0107451430429095 1.7737268659402856 0.84241398061421402 1.8594225978973977  3.2318041914290285 3.3347597413035128 1.1872839644234359 3.41060938026463  2.7169868732989766 4.5538022419034974 3.051487709600186 4.4547750565678319  1.5491788179062791 3.2612031007197988 2.3015934621180696 1.3133364072452292  2.7826293154453063 3.9496538233081524 1.6845761518394895 3.1241703709315658  2.5185818314251378 2.4769080617658341 3.1603780030828408 0.031475511862772199 1.4320394277615942  3.2254305844017184 2.3351307115250712 4.3168513335070413 5.8269251319604116  3.0857256437689884 1.2271748452390376 0.80563786424303607 2.6577957216420458  2.5740199601740006 1.6889699833237666 1.5476523355322589 1.5914001599533494  2.3929282852222173 4.4855364571226408 2.6714317517518014 0.83340394514498761 2.8317416624831084  2.5726644959333531 2.6330681650332388 2.8635042956615941 2.5868944219083492  -2.533966813394716 0.32341051255717723 3.139726217302627  -3.4027767173845094 1.5385414984444219 1.9857722063841614 1.1621444480019016 1.6501841882039714  2.7330320720444714 1.5664243427454656 1.8055053172613069 1.2191732041571508  1.2374087025893976 1.0510450123599278 1.1037834871138728 0.2275635716319116  -1.7765020385422596 2.4140522282053252 -0.2923162694193403  3.4762562336489915 1.2988634895881388 2.1763773107824718 0.47018785307102462 3.2605803473980965  1.8270510161356435 2.4785112159582727 2.3338024273328801 2.1397837305102692 1.2074174374495268  1.5144512732247302 1.9515832917744689 1.3734609145749488 0.35731856563287856 1.7538411529370705  4.5290577759145627 2.2842232391070398 1.0372652142831096 1.0255319908400706 0.97614143988434143  -1.7641239660533292 2.5226503145055825 3.2394619918837551 -1.9366155224706008  
shrinkage=0.05


Tree=15
num_leaves=22
num_cat=0
split_feature=1 4 4 17 6 0 6 17 0 0 6 0 0 4 1 17 17 0 17 4 11
split_gain=942458 499928 440348 410008 293074 287763 215435 178724 137725 135184 131706 124185 103818 102289 88953.8 71448.7 63931.8 49199.5 37311.7 30948.3 28828.4
threshold=-0.026015074573554602 -0.81574572603069051 0.20495390281856374 0.37973532790622527 0.69579609518827235 0.1106927491221766 -0.17280754464493528 -0.53516948911563511 -0.12109827303344063 0.12641989773032117 -0.04576928059312612 0.04797654548439912 0.019217019628682361 -0.4601357553606083 0.4003289261533946 -0.22745540216662502 -0.81760650899753406 -0.32119071134811433 0.068039305336421399 0.30720620752181826 0.18475033326433019
decision_type=2 2 2 2 2 2 2 2 2 2 2 2 2 2 2 2 2 2 2 2 2
left_child=2 11 5 4 9 7 8 -1 -4 16 -7 -2 15 -9 19 -8 -3 -16 -12 -5 -18
right_child=1 3 6 14 -6 10 12 13 -10 -11 18 -13 -14 -15 17 -17 20 -19 -20 -21 -22
leaf_value=-8.8529968670436325 -3.8215269944152319 -2.9381699100136758 -4.7829326279185436 2.3701088334832874 5.0068995714187627 -4.0481466990250814 -1.7050307980179789 -6.0220180492143376 0.2672870532230095 2.4473133986060684 -1.0830727672576905 0.22216236239824538 4.6050645321607595 -2.3041033229312382 4.8319818305969235 2.2078240545732633 -1.3117193443434578 7.957290540022008 1.9008706829764628 5.1183540058135994 1.2782431038943205
leaf_weight=28 37 32 27 21 39 26 20 37 27 37 20 39 24 37 20 28 21 34 22 20 22
leaf_count=28 37 32 27 21 39 26 20 37 27 37 20 39 24 37 20 28 21 34 22 20 22
internal_value=0 1.79804 -2.11056 2.89309 1.274 -3.77085 0.129505 -5.45049 -2.25782 -0.0258536 -1.25138 -1.74648 1.92 -4.16306 5.4666 0.577468 -1.24595 6.79977 0.479945 3.71072 0.0133777
internal_weight=0 322 296 246 151 170 126 102 54 112 68 76 72 74 95 48 75 54 42 41 43
internal_count=618 322 296 246 151 170 126 102 54 112 68 76 72 74 95 48 75 54 42 41 43
is_linear=1
leaf_const=-1.7579202141397674 -2.2373322642276441 0.39919331363346849 0.26894535293799893 1.2014649495685912 -0.48960989705043406 1.3744923413595302 -2.3628800203095333 -1.7662119172660482 -1.6523023672610795 -0.33844807989641479 -0.38096890057984373 -3.1086610943086086 2.1589925364311853 -0.94591702883539319 -1.5024093379742227 -0.71927250989994806 -0.64884618336894562 3.331269006924936 -2.0594272510958613 1.7644078576685791 -0.66174727094469299
num_features=4 3 5 4 3 4 4 5 4 4 5 5 3 4 4 4 5 6 4 5 3 6
leaf_features=0 1 4 17  0 1 4  0 1 4 6 17  0 1 4 6  1 4 17  1 4 6 17  0 1 4 6  0 1 4 6 17  0 1 4 17  0 1 4 6  0 1 4 6 17  0 1 4 6 17  0 1 4  0 1 4 6  0 1 4 17  0 1 4 17  0 1 4 6 17  0 1 4 6 11 17  0 1 4 17  0 1 4 6 17  1 4 17  0 1 4 6 11 17  
leaf_coeff=1.9688418344169027 2.5963421884603854 2.2236820157819661 1.6322769320423416  -0.13776852269450884 1.8425449879844988 2.0698859100268363  2.514066892164633 1.9350378600849147 1.4564469708954955 2.0223657979039955 2.0717519231978443  3.4511469752610022 2.7018864160396312 3.4893761037146138 2.2198716907383722  2.6485743295918445 0.058087521710577829 0.84643994020174562  3.3563240361700895 2.8452986524056971 1.629012879120399 1.780464995216313  0.81030714931846992 3.1347772128006923 1.7888247090793656 3.3875676075396139  1.9560019031272984 1.9342661222825364 2.3860456586231287 2.1220800288490507 0.99920527177511875  1.4779842346586343 1.2839278177182003 2.1105471440037902 1.249701041210034  2.3634646865501074 3.2220841597420833 3.3600061525204348 0.452720302707601  2.2230818447619356 2.3753904785226774 2.2903677451455535 2.0748072095650367 1.2525822148347112  2.0109994212087425 2.3811546306188949 2.7356225566786501 1.986331168795487 1.9883985031924594  2.1088217166771428 2.3435535335314888 0.23131229540885334  1.5656825935063137 3.955111240684948 2.1862981985123118 2.6589503453438748  1.896590390116651 2.1901598129607307 0.91628293570411534 3.1895754508010441  0.31483891454235841 2.3384917729136641 3.2967973222371469 2.4334364931137182  2.8106499580476356 2.8848666658221971 3.1735041044833689 1.9838715698332718 3.7497770977516414  1.8476515955119479 3.031839949754259 2.6936251905078241 1.3655575153733444 1.9107472145304882 2.6160680609734097  1.5793964916999004 0.74846443005669139 1.45164983816703 1.9186731716186323  1.8956626030704695 1.7284216061294644 1.4069955936540897 2.1184776766722702 3.7622155626693869  1.0016915030002678 2.426752567903196 1.053148755991151  1.2896827272248348 2.8886186127739308 2.6170118409332868 1.881832296962707 1.1641954685341547 2.3716906731812819  
shrinkage=0.05


Tree=16
num_leaves=25
num_cat=0
split_feature=1 4 4 17 17 17 11 17 3 1 15 1 10 1 4 11 7 14 15 17 17 1 4 15
split_gain=850568 451185 397414 370033 233800 177458 164637 130727 122518 119084 94179.3 80280.8 77100.1 71361.8 54232.4 45395.2 44920.2 41998.3 40033.1 36953.7 34444.9 28312 27930.8 25797.3
threshold=-0.026015074573554602 -0.81574572603069051 0.20495390281856374 0.37973532790622527 0.40396863063679406 -0.66993243739853547 -0.78624599512511717 -1.0252517168583335 0.76265023960683131 0.78177039570506912 -0.41317987992559574 0.4003289261533946 -0.37373000684926344 0.9145528202415697 -0.012099636201142853 0.13787332846039216 -0.13097067824837613 -0.22765162939778175 -0.23391453408190385 0.50658303280726857 1.0889869114727608 0.73610379180474494 0.30720620752181826 0.22726559554495854
decision_type=2 2 2 2 2 2 2 2 2 2 2 2 2 2 2 2 2 2 2 2 2 2 2 2
left_child=2 13 4 7 6 -4 -1 21 10 14 -7 22 -8 17 -9 -11 -14 -2 -6 -12 -13 -3 -5 -16
right_child=1 3 5 11 18 8 12 9 -10 15 19 20 16 -15 23 -17 -18 -19 -20 -21 -22 -23 -24 -25
leaf_value=-8.2495396205357139 -1.2978504989828383 -2.5457840105891232 -3.1618047698851557 2.2516033880767368 -2.6118046164512636 -2.1646799259460887 -6.2050757487614954 -1.3901732248067855 4.6720698416233066 2.5747810583222996 0.41803024185114901 5.2429121596472612 -4.4527143630981447 0.18680424363382403 0.46975821256637573 5.8248182938212443 -1.6607658887610715 -4.3596512079238892 0.039538427080426902 3.2117524278163914 7.7702539498989402 0.082803312937418619 4.8624362683296205 2.8173615245819095
leaf_weight=28 21 20 31 21 24 26 24 20 20 22 29 28 25 31 22 21 34 24 35 20 26 21 20 25
leaf_count=28 21 20 31 21 24 26 24 20 20 22 29 28 25 31 22 21 34 24 35 20 26 21 20 25
internal_value=0 1.70814 -2.00504 2.74844 -3.58231 0.123029 -4.93417 1.2103 1.19492 2.10847 0.267683 5.19327 -3.81573 -1.65915 0.790526 4.16201 -2.84379 -2.93081 -1.03897 1.55833 6.45978 -1.19943 3.52518 1.71848
internal_weight=0 322 296 246 170 126 111 151 95 110 75 95 83 76 67 43 59 45 59 49 54 41 41 47
internal_count=618 322 296 246 170 126 111 151 95 110 75 95 83 76 67 43 59 45 59 49 54 41 41 47
is_linear=1
leaf_const=-6.1827776648037798 -1.8570735292036913 -2.688918946093017 3.1085786738168495 1.1399124317955427 1.6641470594767527 -3.6665880007558358 1.5202337098938565 2.5982094058539564 -2.4336408300039354 0.11175190940728044 0.73792948089717414 2.2593004549015072 0.35552205228958655 -4.2796821476165112 -0.17591819090018035 -2.5768485515800652 0.59498351302718788 -0.73016870345802909 0.68518944067984522 2.0211194682955402 7.8059316265342975 4.9996873835722511 1.6756418212380346 0.30616910118422425
num_features=4 3 3 3 3 4 5 5 3 4 4 5 3 6 2 4 4 6 3 4 5 3 3 3 4
leaf_features=1 4 11 17  1 4 14  1 4 17  1 4 17  1 4 17  1 4 15 17  1 3 4 15 17  1 4 10 11 17  1 4 17  1 3 4 17  1 4 11 17  1 3 4 15 17  1 4 17  1 4 7 10 11 17  1 4  1 4 15 17  1 4 11 17  1 4 7 10 11 17  1 4 14  1 4 15 17  1 3 4 15 17  1 4 17  1 4 17  1 4 17  1 4 15 17  
leaf_coeff=1.7755367181269557 0.55662854899279723 -0.73905375847999322 1.9404518024598727  8.4104594385689584 2.0480727630411422 0.079350462318500237  -0.24502005625336692 2.6496927582569909 0.31784696043106614  2.2904676677367912 2.4199192516598629 5.3489387064530227  2.5209398107760279 0.054606911163938454 0.804810763272514  3.5987506603332755 1.2916711652763497 2.896494874632257 2.4052112012522202  2.3396706946537686 -0.19833638174840371 2.923842324708827 -0.53769676892809237 -0.97629560871546239  2.8228989293384741 3.0633524527110012 1.9581698999238637 0.50120004498398429 2.2812223214029936  0.15202386569958781 5.2729636084185536 5.5136413062569858  0.82294828447435708 1.9544562451805394 3.2037734054359106 2.0692224279450344  1.7592834662751213 2.0541947168970318 0.9983370529811687 -0.19445841128938418  2.6000127136905329 -1.0025198682793801 0.76709389014007023 0.8097713461469338 -2.4578795918858933  1.9941765067170274 2.0100999660070258 -0.31435733419879375  2.6323554704275569 1.3326760088118073 0.92311248377685962 0.7612999717222495 0.78965706679808934 1.6238736566161187  1.6607141821420475 -1.4222582161308148  -0.81103104908917345 2.7557082560602617 1.3786669148810309 -0.30840139609023576  3.3981558883130876 4.1489785347781867 2.6391495942501377 -0.18003704315873473  2.1440907869221086 1.7023881210183434 -0.28705627797621736 0.46274883223176089 0.77442069909155931 0.35212706985856213  -1.5894509662293963 2.4240661944363597 1.178076124234021  1.3907627530186402 2.1773653281690541 -0.070254877676456315 2.0812803329326695  2.7858871607823095 0.659343736698077 1.5326793741977958 0.63055070541448122 1.7075214138456145  -0.65787662556952442 0.50973654323548634 0.22636063931861186  0.31951721503846153 1.0734082846577282 3.5549874145931954  0.95322654384835159 2.3055266025163252 1.0006860678865517  -0.74415746268603478 1.4799402045885477 2.3102452712263148 1.0859667393641936  
shrinkage=0.05


Tree=17
num_leaves=25
num_cat=0
split_feature=0 17 6 1 17 4 1 4 17 4 6 11 4 4 4 0 1 6 6 11 15 6 16 16
split_gain=773481 496577 329466 282908 220568 214879 242349 171919 141716 137164 116312 104820 101768 93058.7 75301.3 74163.8 67714 60205.4 56388.4 46147.8 37420.7 33040 31430.9 26220.1
threshold=0.12641989773032117 0.10082196266579051 0.17113457736519969 0.28691582755011108 0.25415547994372151 0.75042858574640914 -0.032261703261290735 -0.4601357553606083 -0.88978500524539472 -0.40765149017731778 0.18318439504624437 0.57081366405888234 -0.4601357553606083 -0.045786580951105056 0.24234949894781879 -0.78415184826814566 0.052749742383044258 -0.25011214320008807 0.89595756061044785 -0.13739014166155974 0.35013725631105269 1.1531456564619209 -0.19452937663087741 0.31466828830996957
decision_type=2 2 2 2 2 2 2 2 2 2 2 2 2 2 2 2 2 2 2 2 2 2 2 2
left_child=1 5 4 7 11 6 8 -3 -1 21 19 13 -5 -2 -6 -8 -11 -17 -18 -9 -10 -4 -14 -7
right_child=2 3 9 12 14 23 15 10 20 16 -12 -13 22 -15 -16 17 18 -19 -20 -21 -22 -23 -24 -25
leaf_value=-9.7579540824890145 -4.5334736873363628 -4.5072222300938201 0.22942102977207732 0.10444326847791673 0.89994407974440493 -1.2987179865439735 -4.2972870606642504 -3.5402744925022129 -6.0154917317052039 3.3080699956417088 1.9953950660350994 1.5567956720079694 5.8699006080627445 -0.37076076698303223 4.5351642319134307 -3.1039440989494325 4.7289910279787506 0.46197809063155076 8.1276885530223009 -0.14366643905639651 -3.4155159635543826 3.0690210324525835 3.1860738962888719 1.1525630521774293
leaf_weight=20 29 28 21 20 29 24 26 20 31 30 39 21 20 25 28 20 26 29 23 20 25 20 24 20
leaf_count=20 29 28 21 20 29 24 26 20 31 30 39 21 20 25 28 20 26 29 23 20 25 20 24 20
internal_value=0 -1.5346 2.06495 0.432117 0.341181 -3.25926 -4.15522 -1.14075 -6.1451 3.96109 0.0524252 -1.44063 3.06176 -2.60629 2.68567 -2.13881 5.17889 -0.9935 6.3243 -1.84197 -4.85479 1.61459 4.406 -0.184499
internal_weight=0 366 252 171 132 195 151 107 76 120 79 75 64 54 57 75 79 49 49 40 56 41 44 44
internal_count=618 366 252 171 132 195 151 107 76 120 79 75 64 54 57 75 79 49 49 40 56 41 44 44
is_linear=1
leaf_const=-7.1706020634562497 -0.58365481589131107 -0.82026875108654174 1.2739319321021352 -4.6920887157031679 -1.1894836920609408 0.58881153299091693 0.11906160289030368 2.0355947226766662 -3.8498918836212965 -0.69617675309876292 -1.3787852097890994 -2.4640157905475975 0.54362073857316318 -0.016263282257149382 2.3031772560823924 0.95951474392609049 1.6423111811084483 1.2672385188075888 2.8970633090598312 0.13793597143587669 -2.718305171376417 -1.4894557056980302 2.2310325173609642 0.98535734879025372
num_features=4 5 4 3 4 4 4 4 6 5 4 5 4 5 5 4 5 4 5 4 6 5 3 5 4
leaf_features=0 1 4 17  0 4 6 11 17  0 1 4 17  0 4 6  0 1 4 17  0 4 6 17  0 4 16 17  0 1 4 17  0 1 4 6 11 17  0 1 4 15 17  0 1 4 6  0 1 4 6 17  0 6 11 17  0 1 4 16 17  0 4 6 11 17  0 4 6 17  0 1 4 6 17  0 1 4 6  0 1 4 6 17  0 1 4 6  0 1 4 6 11 17  0 1 4 15 17  0 4 6  0 1 4 16 17  0 4 16 17  
leaf_coeff=2.3480901098016225 0.39934797849042508 0.2253147712630367 -0.25304439685792762  1.6323485436993523 1.427227206746871 2.8722234893879688 1.2103884532926019 1.3338816050290179  1.0667029905508574 1.6555684014569274 1.8411956807801364 0.20893522832467493  -2.0847444319144932 -0.38026375986426686 0.11595871484239512  1.830308311649105 3.6716189549042109 -0.20288716294325942 1.9424443748105771  3.7550463979962316 2.0511981589215083 0.85900422604613214 1.2476122057474628  2.2010645116293204 1.8414065324332975 2.1609623833897862 1.9512238388117542  1.463755900054877 0.76142760286555222 1.3502708277919773 2.5047302803782361  3.5226623186238557 2.3823129271713461 2.0926037408741824 2.6649392810824697 2.1254715188856292 2.6944749657834  1.1689802148922983 1.2970408020183812 2.0276997287207483 -0.78911501964337172 0.017024799663410042  1.295822528199565 2.4643684348707087 2.6639867158817543 2.9300824742981377  2.4519566021759664 1.9580750110293028 3.086476112325871 1.9195647549175097 3.319119560524014  2.4893559956481766 1.2849951483120428 2.4636777393854428 0.82362823831626697  0.456795675340816 -0.046225391980352248 1.7200204198536566 -2.447823074323324 1.9821919521076659  2.2497576234923207 1.3697743591555611 1.7595164170847057 1.595638652518665 1.9900529212169482  0.21459913895563712 1.9354097465889943 1.4789247550439579 1.3666208786559366  2.7392054285703598 1.5083183445420039 1.7217174331763869 2.6944411954623875 2.0462680721029454  2.3867913775003498 2.5347440979013687 0.55252451330130614 -1.6754367853973848  2.1082367982235528 1.4974635576256201 2.4654419724993857 2.0573648279376666 1.8713968692733454  2.701777634457065 1.2793425699607399 1.1695380133938624 0.69819752838846194  1.7123541979381536 1.8168686758617405 1.59245685182965 1.3875246827546484 0.83011913394851988 2.2457124109017808  0.17241824615732068 0.67077890939764928 2.540484387921647 1.8790759951884226 2.4859061190512852  0.5215016269298437 -0.053545043866089728 2.4292341819084213  1.5320511667251926 2.2313184631661382 0.023535116606307499 -1.4225307604030752 1.4228668512612135  2.064328168155773 1.6733802876070474 -0.10785767240108209 1.0722473218004049  
shrinkage=0.05


Tree=18
num_leaves=23
num_cat=0
split_feature=1 6 0 6 17 11 4 4 4 17 17 4 0 6 11 11 4 17 11 0 4 4
split_gain=708153 375599 340430 257101 200802 175768 191473 151538 138814 128890 116253 90363.6 86353.3 80354.7 65657.2 64096.5 63664.5 61856.7 54641.9 36903.6 26514 17716.1
threshold=-0.026015074573554602 0.17113457736519969 -0.70445848193482774 -0.17280754464493528 0.25415547994372151 -0.72817353552711672 -0.74322202208489074 0.066455853609503415 0.75042858574640914 0.52642022231256524 -0.26424173123533951 -0.40765149017731778 -0.50507963054049509 0.89595756061044785 0.022754775061635087 -0.20989329316023528 0.080915706723424324 -0.37644637130907393 -0.31020693130763294 0.44211139770555236 0.44864853114896303 -0.4380708092321402
decision_type=2 2 2 2 2 2 2 2 2 2 2 2 2 2 2 2 2 2 2 2 2 2
left_child=2 4 8 10 12 -3 -7 9 17 18 -4 -6 -2 20 -14 -9 -12 -1 -5 -13 -8 -19
right_child=1 5 3 7 11 6 13 15 -10 -11 16 19 14 -15 -16 -17 -18 21 -20 -21 -22 -23
leaf_value=-7.3773252157064597 -3.2946685462384608 0.56063757065014963 -5.0924572217113839 -4.4708334636688241 -0.69133579552173618 0.43948414863451668 3.1219493579864501 0.55837298061536711 -0.72050794303417209 2.0760000345499621 -3.1599189410607025 2.1371911938701356 -1.9471381967717951 7.3740495681762699 1.1013994629445829 3.956215944290161 0.41125761408072253 -5.4002862071990974 -0.8190918491000222 4.9492937135696415 5.4742583233377218 -3.3853567282358803
leaf_weight=26 37 39 34 20 20 23 25 23 20 23 24 28 33 36 38 35 26 20 21 20 23 24
leaf_count=26 37 39 34 20 20 23 25 23 20 23 24 28 33 36 38 35 26 20 21 20 23 24
internal_value=0 1.55929 -1.82879 -0.708002 0.00395111 3.43422 4.48159 0.757709 -4.39417 -0.919837 -2.83677 2.13236 -1.33616 5.58836 -0.315526 2.6088 -1.30291 -5.44378 -2.60043 3.3089 4.2491 -4.30123
internal_weight=0 322 296 206 176 146 107 122 90 64 84 68 108 84 71 58 50 70 41 48 48 44
internal_count=618 322 296 206 176 146 107 122 90 64 84 68 108 84 71 58 50 70 41 48 48 44
is_linear=1
leaf_const=0.3102708963405803 -0.58357548516833047 0.59136312561225635 -1.3715653736773732 0.46555300195201427 -4.3068560948880359 -1.3399818294248798 3.4026751787367093 2.9599172615389655 -0.50604062632675095 -0.98258561877190442 0.74603994888108338 0.099994899765554437 -1.337162179184658 5.1028844152548691 0.98640493345463109 0.54198231942970654 0.12987337149054773 -2.2415206445656053 -0.48693035687738018 1.9880023686520749 0.33609452318793276 0.35800566081235846
num_features=4 4 3 4 6 4 4 4 5 3 5 5 5 5 4 5 5 5 4 6 5 4 4
leaf_features=0 1 4 17  0 1 6 17  1 6 11  0 1 6 17  0 1 4 6 11 17  1 4 6 17  1 4 6 11  1 4 6 11  0 1 4 6 11  0 1 4  0 1 4 6 17  0 1 4 6 17  0 1 4 6 17  0 1 6 11 17  1 4 6 11  0 1 6 11 17  0 1 4 6 11  0 1 4 6 17  0 1 4 17  0 1 4 6 11 17  0 1 4 6 17  1 4 6 11  0 1 4 17  
leaf_coeff=2.2857297660696148 1.2011725352758877 1.5747722499378931 3.0554892575269239  1.5928771526587564 1.1497274363068963 2.0509327991998925 1.585714742426876  0.23227724794461541 0.10488650513059575 0.18255087904431708  2.3860718724837855 1.653750392453307 1.8684602858200821 1.5704635599561287  1.2473280721486759 2.3440268283460188 1.3801215101589266 1.2867698862049108 1.9354438442409188 1.7204325756529784  2.5732834644762037 -0.6584711507249621 2.4148361870372304 2.4511400348394394  3.005285828868395 2.6765510792999163 3.2368881205115549 1.769527672632226  1.093584002716516 -0.81333953046791274 -2.5715766664290043 -0.20641979585388498  2.6429651793794018 1.4269224239927754 -0.10935145653041477 -0.89829797240440257 1.1831160553317348  1.5397266565081722 1.0317572529425882 1.634673403219737  1.5915814261446002 2.1764652945572189 0.940201032442743 2.0854019838904017 2.8972223210579857  2.1251806496356092 2.5595135215938187 1.8695032850366946 2.3549755977616278 2.2368276759105754  1.1746014779086298 1.8980995537707093 1.8521431533258672 2.0116888959267656 2.2193365068901092  2.3165762899473465 1.9617448476214439 1.0190606869771683 1.9456513063161793 0.57412593239786369  0.93765804429761224 1.606505410435344 0.20410137162599729 1.1915646650143605  1.6214814752611517 1.1959728809280079 2.0975507217171359 0.79618678567977819 1.425298321568043  1.1321096859506772 3.0929073532001201 3.0550391135610639 2.1756985735126122 0.87201763623123463  1.393254408488088 3.5005520934952403 2.9655569529994481 1.8336634107246716 2.0028528219376169  1.6951531518484222 -0.27805100523666443 1.960984172369499 1.7387635804641333  2.0883802942917651 1.5122657082637916 2.0489278750995159 1.4951569764189241 1.7124856295403132 1.8314916299564521  0.62305559519393716 1.8813859825792876 1.420650648246564 1.1735096115406833 1.4987422682068743  3.0961130822528897 2.9979017493023772 -0.70430837962382276 0.79896618071661663  2.4223009267206614 2.0135375345667894 -1.6311980657812666 2.715426878831412  
shrinkage=0.05


Tree=19
num_leaves=24
num_cat=0
split_feature=0 17 6 1 17 4 6 4 4 11 11 4 11 4 0 4 1 6 6 1 4 6 6
split_gain=639701 411922 274721 227313 182676 176485 174582 142997 112839 101552 88700.2 87739.9 86872.1 79751.9 63442.4 61428.5 57949.3 57423.1 46085.5 44777 27509.5 26860.6 25717.9
threshold=0.12641989773032117 0.10082196266579051 0.17113457736519969 0.29373877702412299 0.25415547994372151 -0.68372700234252792 -0.53363067839875389 -0.4601357553606083 -0.40765149017731778 0.2704810360799888 0.57081366405888234 -0.4601357553606083 -0.24439729539899499 -0.045786580951105056 -0.58840071712903452 0.24234949894781879 0.052749742383044258 0.37819669911020365 0.89595756061044785 1.0000000180025095e-35 0.49033364571592747 1.1531456564619209 0.30840181529606053
decision_type=2 2 2 2 2 2 2 2 2 2 2 2 2 2 2 2 2 2 2 2 2 2 2
left_child=1 5 4 7 10 19 -7 -3 21 17 13 -5 20 -2 -14 -6 -10 -9 -18 -1 -8 -4 -13
right_child=2 3 8 11 15 6 12 9 16 -11 -12 22 14 -15 -16 -17 18 -19 -20 -21 -22 -23 -24
leaf_value=-7.0413177490234382 -4.1736171623756144 -4.0715112890516014 0.23259143261682419 0.04695935130119324 0.82507032155990601 -5.1623864365948577 -3.6778717009226485 -2.4726787075400356 2.9836918073892598 2.8013257563114169 1.4400920760063898 2.9152688720951914 -1.6470864135643533 -0.32000034475326539 1.5363173039520488 4.108400169440678 4.3317615655752331 0.7627123683691025 7.4043151285337361 -3.8944780927896505 -1.2838925170898439 2.7929159355163575 5.3668302154541019
leaf_weight=26 29 28 21 20 29 36 30 32 30 24 21 23 29 25 34 28 26 24 23 20 20 20 20
leaf_count=26 29 28 21 20 29 36 30 32 30 24 21 23 29 25 34 28 26 24 23 20 20 20 20
internal_value=0 -1.39513 1.87836 0.396116 0.304313 -2.96592 -2.13014 -0.996214 3.60982 0.08014 -1.31724 2.78297 -1.16411 -2.38954 0.070941 2.43793 4.71438 -1.08608 5.77398 -5.67313 -2.72028 1.48153 4.05553
internal_weight=0 366 252 171 132 195 149 108 120 80 75 63 113 54 63 57 79 56 49 46 50 41 43
internal_count=618 366 252 171 132 195 149 108 120 80 75 63 113 54 63 57 79 56 49 46 50 41 43
is_linear=1
leaf_const=-1.7792512194184156 -0.45481486842049546 -0.73407609026803022 1.1677185281581466 -4.2471060431491541 -1.1099771013754776 -0.59166836138190326 0.24140362005872992 0.87226250137889849 -0.63576446521533692 -1.1976745670979791 -2.3173066054247045 -0.44015856322014946 1.625714782512538 -0.081607183737173475 1.3687990696938472 2.0264789622456987 1.4741028056043946 -0.74811163049694196 2.5356408312804888 -0.098128753940613933 -3.923688752276798 -1.3620052977415142 -0.9601034659779395
num_features=4 5 4 3 4 4 4 5 6 4 5 4 5 5 5 5 4 4 6 4 4 5 3 5
leaf_features=0 1 4 17  0 4 6 11 17  0 1 4 17  0 4 6  0 1 4 17  0 4 6 17  0 4 6 17  0 4 6 11 17  0 1 4 6 11 17  0 1 4 6  0 1 4 11 17  0 6 11 17  0 1 4 6 17  0 4 6 11 17  0 4 6 11 17  0 4 6 11 17  0 4 6 17  0 1 4 6  0 1 4 6 11 17  0 1 4 6  0 1 4 17  0 4 6 11 17  0 4 6  0 1 4 6 17  
leaf_coeff=2.0622403437319554 1.0097709422183054 1.6606353085673586 1.3001120042592977  1.4507245513629066 1.3624335146966953 2.6800621607434931 1.074353180131691 1.2314994084420317  0.9570859109664579 1.480536698851491 1.6781625678458074 0.18547558140759979  -1.946843749588647 -0.38614648775137578 0.11926755034478898  1.7796904725063705 3.32693348896716 -0.17659394294415423 1.8062709817615792  3.496238818149136 1.8341102069867117 0.80543317070561482 1.0962916109851921  2.6453011773051696 2.4996076800293761 1.941879499605516 1.4312175712690554  2.025919024386571 0.67864270288884665 0.31805153339136105 1.4411893755740011 1.0728035838139671  2.7396069781517389 1.8092561998689054 1.6599806287271268 2.0632395561824644 2.1229537703305645 2.6672883170051431  1.1648981789748631 2.2462245010925757 2.4232793991064225 2.6566448099948685  2.4062915473670823 0.16077696208535627 2.8629260489303707 1.3358659784522189 2.9238997869538346  2.3203980108485189 1.1115505500112703 2.2644217816799408 0.79172229389606341  1.9348089196100351 2.9021458102028777 2.1943690237791462 1.7781905774234279 1.3904211811288545  2.0205628711892962 1.185486700263326 0.25531131781815097 0.36930344330235709 2.509302756100694  2.0665044026490227 1.281504993254116 1.5723142505682586 1.4558283441602979 1.7516716441575237  2.955444371807241 0.54779220812912266 1.9469185355619665 0.97922128173394829 1.3016661397900529  0.1488912715373856 1.8153606705122998 1.359430292717839 1.2944920107479421  2.2597705359791882 2.2655825023264051 0.42513832463877543 -1.42859429671817  2.2486964856157488 1.6460120221880352 2.1731438396030347 2.2035553329257076 1.0321661806546458 2.2425463109556327  2.5135924787578774 1.1582931136414698 1.0916563354666431 0.66929273246564391  0.17387321400197775 -0.17060996792165578 2.3402982540432613 -0.13518691900229679  0.66289858929146828 2.5012407922904725 0.78203262117163952 -0.34075743768117861 0.60277657121947759  0.4686871809774954 -0.096477792263580331 2.1819370618584553  -0.13709925154564481 1.1801291045400315 3.4141374846485011 3.1587315156061915 1.1446359953345231  
